digraph Tree {
0 [label="X[1] <= 0.2150\nmse = 231.455567541\nsamples = 2000", shape="box"] ;
1 [label="X[1] <= 0.1550\nmse = 4.44438161553\nsamples = 507", shape="box"] ;
0 -> 1 ;
2 [label="X[1] <= 0.1250\nmse = 0.308824460646\nsamples = 362", shape="box"] ;
1 -> 2 ;
3 [label="X[1] <= 0.0850\nmse = 0.046030855856\nsamples = 293", shape="box"] ;
2 -> 3 ;
4 [label="X[1] <= 0.0650\nmse = 0.00111195879941\nsamples = 201", shape="box"] ;
3 -> 4 ;
5 [label="X[1] <= 0.0450\nmse = 8.78816200341e-05\nsamples = 164", shape="box"] ;
4 -> 5 ;
6 [label="X[1] <= 0.0350\nmse = 4.60560837025e-06\nsamples = 123", shape="box"] ;
5 -> 6 ;
7 [label="X[1] <= 0.0250\nmse = 6.19907093403e-07\nsamples = 100", shape="box"] ;
6 -> 7 ;
8 [label="mse = 0.0000\nsamples = 74\nvalue = [  8.80192118e-06]", shape="box"] ;
7 -> 8 ;
9 [label="X[0] <= 0.2650\nmse = 2.25750024659e-07\nsamples = 26", shape="box"] ;
7 -> 9 ;
10 [label="mse = 0.0000\nsamples = 6\nvalue = [  2.30090447e-05]", shape="box"] ;
9 -> 10 ;
11 [label="X[0] <= 0.3150\nmse = 1.00077434398e-07\nsamples = 20", shape="box"] ;
9 -> 11 ;
12 [label="mse = 0.0000\nsamples = 1\nvalue = [  5.84355779e-05]", shape="box"] ;
11 -> 12 ;
13 [label="mse = 0.0000\nsamples = 19\nvalue = [ 0.00019425]", shape="box"] ;
11 -> 13 ;
14 [label="X[0] <= 0.5300\nmse = 1.82236822896e-06\nsamples = 23", shape="box"] ;
6 -> 14 ;
15 [label="X[0] <= 0.1900\nmse = 1.65137095127e-07\nsamples = 12", shape="box"] ;
14 -> 15 ;
16 [label="mse = 0.0000\nsamples = 6\nvalue = [  4.81300986e-05]", shape="box"] ;
15 -> 16 ;
17 [label="mse = 0.0000\nsamples = 6\nvalue = [ 0.00024976]", shape="box"] ;
15 -> 17 ;
18 [label="X[0] <= 0.6750\nmse = 2.52954460641e-07\nsamples = 11", shape="box"] ;
14 -> 18 ;
19 [label="mse = 0.0000\nsamples = 3\nvalue = [ 0.00042696]", shape="box"] ;
18 -> 19 ;
20 [label="mse = 0.0000\nsamples = 8\nvalue = [ 0.00072484]", shape="box"] ;
18 -> 20 ;
21 [label="X[0] <= 0.7600\nmse = 4.43969528567e-05\nsamples = 41", shape="box"] ;
5 -> 21 ;
22 [label="X[0] <= 0.3650\nmse = 1.25975326334e-05\nsamples = 34", shape="box"] ;
21 -> 22 ;
23 [label="X[0] <= 0.1850\nmse = 1.15102943576e-06\nsamples = 16", shape="box"] ;
22 -> 23 ;
24 [label="mse = 0.0000\nsamples = 7\nvalue = [ 0.00015977]", shape="box"] ;
23 -> 24 ;
25 [label="X[1] <= 0.0550\nmse = 3.84550090667e-07\nsamples = 9", shape="box"] ;
23 -> 25 ;
26 [label="mse = 0.0000\nsamples = 4\nvalue = [ 0.00038007]", shape="box"] ;
25 -> 26 ;
27 [label="mse = 0.0000\nsamples = 5\nvalue = [ 0.0007355]", shape="box"] ;
25 -> 27 ;
28 [label="X[1] <= 0.0550\nmse = 4.30537734656e-06\nsamples = 18", shape="box"] ;
22 -> 28 ;
29 [label="X[0] <= 0.5800\nmse = 9.54510902341e-07\nsamples = 12", shape="box"] ;
28 -> 29 ;
30 [label="mse = 0.0000\nsamples = 6\nvalue = [ 0.00080993]", shape="box"] ;
29 -> 30 ;
31 [label="X[0] <= 0.6350\nmse = 1.08551882369e-07\nsamples = 6", shape="box"] ;
29 -> 31 ;
32 [label="mse = 0.0000\nsamples = 1\nvalue = [ 0.00106544]", shape="box"] ;
31 -> 32 ;
33 [label="mse = 0.0000\nsamples = 5\nvalue = [ 0.00136454]", shape="box"] ;
31 -> 33 ;
34 [label="X[0] <= 0.5150\nmse = 1.08949490751e-06\nsamples = 6", shape="box"] ;
28 -> 34 ;
35 [label="X[0] <= 0.4100\nmse = 1.35810993618e-07\nsamples = 3", shape="box"] ;
34 -> 35 ;
36 [label="mse = 0.0000\nsamples = 1\nvalue = [ 0.00116641]", shape="box"] ;
35 -> 36 ;
37 [label="mse = 0.0000\nsamples = 2\nvalue = [ 0.00159049]", shape="box"] ;
35 -> 37 ;
38 [label="X[0] <= 0.5650\nmse = 1.54013964597e-07\nsamples = 3", shape="box"] ;
34 -> 38 ;
39 [label="mse = 0.0000\nsamples = 1\nvalue = [ 0.00191307]", shape="box"] ;
38 -> 39 ;
40 [label="mse = 0.0000\nsamples = 2\nvalue = [ 0.00231237]", shape="box"] ;
38 -> 40 ;
41 [label="X[1] <= 0.0550\nmse = 7.04481427329e-06\nsamples = 7", shape="box"] ;
21 -> 41 ;
42 [label="mse = 0.0000\nsamples = 3\nvalue = [ 0.00186919]", shape="box"] ;
41 -> 42 ;
43 [label="X[0] <= 0.9250\nmse = 8.89688289969e-07\nsamples = 4", shape="box"] ;
41 -> 43 ;
44 [label="X[0] <= 0.8150\nmse = 2.22520433013e-07\nsamples = 3", shape="box"] ;
43 -> 44 ;
45 [label="mse = 0.0000\nsamples = 1\nvalue = [ 0.00313421]", shape="box"] ;
44 -> 45 ;
46 [label="mse = 0.0000\nsamples = 2\nvalue = [ 0.00370939]", shape="box"] ;
44 -> 46 ;
47 [label="mse = 0.0000\nsamples = 1\nvalue = [ 0.00446082]", shape="box"] ;
43 -> 47 ;
48 [label="X[0] <= 0.5450\nmse = 0.00044956863951\nsamples = 37", shape="box"] ;
4 -> 48 ;
49 [label="X[0] <= 0.2200\nmse = 2.62923612924e-05\nsamples = 20", shape="box"] ;
48 -> 49 ;
50 [label="X[0] <= 0.0800\nmse = 1.09913694666e-06\nsamples = 7", shape="box"] ;
49 -> 50 ;
51 [label="mse = 0.0000\nsamples = 2\nvalue = [ 0.00028694]", shape="box"] ;
50 -> 51 ;
52 [label="X[0] <= 0.1600\nmse = 3.1703033346e-07\nsamples = 5", shape="box"] ;
50 -> 52 ;
53 [label="mse = 0.0000\nsamples = 3\nvalue = [ 0.00086793]", shape="box"] ;
52 -> 53 ;
54 [label="mse = 0.0000\nsamples = 2\nvalue = [ 0.00126467]", shape="box"] ;
52 -> 54 ;
55 [label="X[0] <= 0.4200\nmse = 8.48869635165e-06\nsamples = 13", shape="box"] ;
49 -> 55 ;
56 [label="X[1] <= 0.0750\nmse = 3.44729833029e-06\nsamples = 10", shape="box"] ;
55 -> 56 ;
57 [label="X[0] <= 0.3350\nmse = 4.33978251829e-07\nsamples = 4", shape="box"] ;
56 -> 57 ;
58 [label="mse = 0.0000\nsamples = 2\nvalue = [ 0.00162909]", shape="box"] ;
57 -> 58 ;
59 [label="mse = 0.0000\nsamples = 2\nvalue = [ 0.00223608]", shape="box"] ;
57 -> 59 ;
60 [label="X[0] <= 0.2950\nmse = 1.33489242135e-06\nsamples = 6", shape="box"] ;
56 -> 60 ;
61 [label="X[0] <= 0.2450\nmse = 1.51929758197e-07\nsamples = 3", shape="box"] ;
60 -> 61 ;
62 [label="mse = 0.0000\nsamples = 1\nvalue = [ 0.00205627]", shape="box"] ;
61 -> 62 ;
63 [label="mse = 0.0000\nsamples = 2\nvalue = [ 0.00249262]", shape="box"] ;
61 -> 63 ;
64 [label="X[0] <= 0.3200\nmse = 1.16060494323e-07\nsamples = 3", shape="box"] ;
60 -> 64 ;
65 [label="mse = 0.0000\nsamples = 1\nvalue = [ 0.00295061]", shape="box"] ;
64 -> 65 ;
66 [label="mse = 0.0000\nsamples = 2\nvalue = [ 0.0033105]", shape="box"] ;
64 -> 66 ;
67 [label="X[1] <= 0.0750\nmse = 1.21876919525e-06\nsamples = 3", shape="box"] ;
55 -> 67 ;
68 [label="mse = 0.0000\nsamples = 2\nvalue = [ 0.00328175]", shape="box"] ;
67 -> 68 ;
69 [label="mse = 0.0000\nsamples = 1\nvalue = [ 0.00460066]", shape="box"] ;
67 -> 69 ;
70 [label="X[0] <= 0.7350\nmse = 0.000107884248653\nsamples = 17", shape="box"] ;
48 -> 70 ;
71 [label="X[1] <= 0.0750\nmse = 1.40964184465e-05\nsamples = 8", shape="box"] ;
70 -> 71 ;
72 [label="X[0] <= 0.6700\nmse = 4.12325838996e-07\nsamples = 4", shape="box"] ;
71 -> 72 ;
73 [label="mse = 0.0000\nsamples = 2\nvalue = [ 0.00451756]", shape="box"] ;
72 -> 73 ;
74 [label="mse = 0.0000\nsamples = 2\nvalue = [ 0.00511785]", shape="box"] ;
72 -> 74 ;
75 [label="X[0] <= 0.6450\nmse = 3.20733889913e-06\nsamples = 4", shape="box"] ;
71 -> 75 ;
76 [label="X[0] <= 0.5700\nmse = 1.12974157519e-07\nsamples = 3", shape="box"] ;
75 -> 76 ;
77 [label="mse = 0.0000\nsamples = 1\nvalue = [ 0.00633964]", shape="box"] ;
76 -> 77 ;
78 [label="mse = 0.0000\nsamples = 2\nvalue = [ 0.00672816]", shape="box"] ;
76 -> 78 ;
79 [label="mse = 0.0000\nsamples = 1\nvalue = [ 0.00862986]", shape="box"] ;
75 -> 79 ;
80 [label="X[1] <= 0.0750\nmse = 3.59052022846e-05\nsamples = 9", shape="box"] ;
70 -> 80 ;
81 [label="X[0] <= 0.8600\nmse = 1.70868825005e-06\nsamples = 3", shape="box"] ;
80 -> 81 ;
82 [label="mse = 0.0000\nsamples = 1\nvalue = [ 0.00612828]", shape="box"] ;
81 -> 82 ;
83 [label="mse = 0.0000\nsamples = 2\nvalue = [ 0.0076976]", shape="box"] ;
81 -> 83 ;
84 [label="X[0] <= 0.8250\nmse = 6.42058598869e-06\nsamples = 6", shape="box"] ;
80 -> 84 ;
85 [label="X[0] <= 0.7600\nmse = 4.31127930182e-07\nsamples = 3", shape="box"] ;
84 -> 85 ;
86 [label="mse = 0.0000\nsamples = 1\nvalue = [ 0.00951592]", shape="box"] ;
85 -> 86 ;
87 [label="X[0] <= 0.7850\nmse = 1.55357302861e-07\nsamples = 2", shape="box"] ;
85 -> 87 ;
88 [label="mse = 0.0000\nsamples = 1\nvalue = [ 0.00988037]", shape="box"] ;
87 -> 88 ;
89 [label="mse = 0.0000\nsamples = 1\nvalue = [ 0.01043779]", shape="box"] ;
87 -> 89 ;
90 [label="X[0] <= 0.8850\nmse = 5.00595519554e-07\nsamples = 3", shape="box"] ;
84 -> 90 ;
91 [label="mse = 0.0000\nsamples = 2\nvalue = [ 0.01159198]", shape="box"] ;
90 -> 91 ;
92 [label="mse = 0.0000\nsamples = 1\nvalue = [ 0.01238886]", shape="box"] ;
90 -> 92 ;
93 [label="X[0] <= 0.4200\nmse = 0.0230467585802\nsamples = 92", shape="box"] ;
3 -> 93 ;
94 [label="X[0] <= 0.1750\nmse = 0.000633619850976\nsamples = 37", shape="box"] ;
93 -> 94 ;
95 [label="X[0] <= 0.0750\nmse = 3.29113952282e-05\nsamples = 17", shape="box"] ;
94 -> 95 ;
96 [label="X[0] <= 0.0400\nmse = 4.03731912282e-06\nsamples = 9", shape="box"] ;
95 -> 96 ;
97 [label="X[0] <= 0.0200\nmse = 4.55718271877e-07\nsamples = 4", shape="box"] ;
96 -> 97 ;
98 [label="mse = 0.0000\nsamples = 2\nvalue = [ 0.00031732]", shape="box"] ;
97 -> 98 ;
99 [label="X[1] <= 0.1100\nmse = 1.73287691897e-07\nsamples = 2", shape="box"] ;
97 -> 99 ;
100 [label="mse = 0.0000\nsamples = 1\nvalue = [ 0.00054875]", shape="box"] ;
99 -> 100 ;
101 [label="mse = 0.0000\nsamples = 1\nvalue = [ 0.00113746]", shape="box"] ;
99 -> 101 ;
102 [label="X[1] <= 0.0950\nmse = 1.51733082595e-06\nsamples = 5", shape="box"] ;
96 -> 102 ;
103 [label="mse = 0.0000\nsamples = 1\nvalue = [ 0.00074096]", shape="box"] ;
102 -> 103 ;
104 [label="X[1] <= 0.1150\nmse = 7.11214125147e-07\nsamples = 4", shape="box"] ;
102 -> 104 ;
105 [label="X[1] <= 0.1050\nmse = 2.39698519682e-07\nsamples = 3", shape="box"] ;
104 -> 105 ;
106 [label="mse = 0.0000\nsamples = 1\nvalue = [ 0.00132952]", shape="box"] ;
105 -> 106 ;
107 [label="X[0] <= 0.0600\nmse = 1.69040603509e-07\nsamples = 2", shape="box"] ;
105 -> 107 ;
108 [label="mse = 0.0000\nsamples = 1\nvalue = [ 0.00136435]", shape="box"] ;
107 -> 108 ;
109 [label="mse = 0.0000\nsamples = 1\nvalue = [ 0.0019458]", shape="box"] ;
107 -> 109 ;
110 [label="mse = 0.0000\nsamples = 1\nvalue = [ 0.00233945]", shape="box"] ;
104 -> 110 ;
111 [label="X[1] <= 0.1050\nmse = 8.57424721471e-06\nsamples = 8", shape="box"] ;
95 -> 111 ;
112 [label="X[1] <= 0.0950\nmse = 4.63015889793e-07\nsamples = 2", shape="box"] ;
111 -> 112 ;
113 [label="mse = 0.0000\nsamples = 1\nvalue = [ 0.00142196]", shape="box"] ;
112 -> 113 ;
114 [label="mse = 0.0000\nsamples = 1\nvalue = [ 0.00238426]", shape="box"] ;
112 -> 114 ;
115 [label="X[0] <= 0.1050\nmse = 2.87079334986e-06\nsamples = 6", shape="box"] ;
111 -> 115 ;
116 [label="mse = 0.0000\nsamples = 2\nvalue = [ 0.00301636]", shape="box"] ;
115 -> 116 ;
117 [label="X[0] <= 0.1450\nmse = 1.10543145755e-06\nsamples = 4", shape="box"] ;
115 -> 117 ;
118 [label="X[1] <= 0.1150\nmse = 5.17684419575e-07\nsamples = 3", shape="box"] ;
117 -> 118 ;
119 [label="mse = 0.0000\nsamples = 2\nvalue = [ 0.00365039]", shape="box"] ;
118 -> 119 ;
120 [label="mse = 0.0000\nsamples = 1\nvalue = [ 0.00448579]", shape="box"] ;
118 -> 120 ;
121 [label="mse = 0.0000\nsamples = 1\nvalue = [ 0.00481411]", shape="box"] ;
117 -> 121 ;
122 [label="X[1] <= 0.1050\nmse = 0.00019550667942\nsamples = 20", shape="box"] ;
94 -> 122 ;
123 [label="X[0] <= 0.3100\nmse = 3.2022590631e-05\nsamples = 9", shape="box"] ;
122 -> 123 ;
124 [label="X[0] <= 0.2150\nmse = 2.90521947524e-06\nsamples = 5", shape="box"] ;
123 -> 124 ;
125 [label="mse = 0.0000\nsamples = 1\nvalue = [ 0.0040077]", shape="box"] ;
124 -> 125 ;
126 [label="X[1] <= 0.0950\nmse = 1.55360894466e-06\nsamples = 4", shape="box"] ;
124 -> 126 ;
127 [label="mse = 0.0000\nsamples = 1\nvalue = [ 0.00435062]", shape="box"] ;
126 -> 127 ;
128 [label="X[0] <= 0.2600\nmse = 3.32747086811e-07\nsamples = 3", shape="box"] ;
126 -> 128 ;
129 [label="mse = 0.0000\nsamples = 2\nvalue = [ 0.00540359]", shape="box"] ;
128 -> 129 ;
130 [label="mse = 0.0000\nsamples = 1\nvalue = [ 0.00607226]", shape="box"] ;
128 -> 130 ;
131 [label="X[1] <= 0.0950\nmse = 1.12233887023e-05\nsamples = 4", shape="box"] ;
123 -> 131 ;
132 [label="mse = 0.0000\nsamples = 1\nvalue = [ 0.00549241]", shape="box"] ;
131 -> 132 ;
133 [label="X[0] <= 0.3750\nmse = 3.5893914718e-06\nsamples = 3", shape="box"] ;
131 -> 133 ;
134 [label="mse = 0.0000\nsamples = 2\nvalue = [ 0.00791404]", shape="box"] ;
133 -> 134 ;
135 [label="mse = 0.0000\nsamples = 1\nvalue = [ 0.01022034]", shape="box"] ;
133 -> 135 ;
136 [label="X[0] <= 0.2550\nmse = 6.30337322571e-05\nsamples = 11", shape="box"] ;
122 -> 136 ;
137 [label="X[1] <= 0.1150\nmse = 1.49650502411e-05\nsamples = 5", shape="box"] ;
136 -> 137 ;
138 [label="X[0] <= 0.2300\nmse = 1.1368061329e-06\nsamples = 2", shape="box"] ;
137 -> 138 ;
139 [label="mse = 0.0000\nsamples = 1\nvalue = [ 0.00658515]", shape="box"] ;
138 -> 139 ;
140 [label="mse = 0.0000\nsamples = 1\nvalue = [ 0.008093]", shape="box"] ;
138 -> 140 ;
141 [label="X[0] <= 0.2100\nmse = 5.12932595672e-06\nsamples = 3", shape="box"] ;
137 -> 141 ;
142 [label="mse = 0.0000\nsamples = 1\nvalue = [ 0.0082903]", shape="box"] ;
141 -> 142 ;
143 [label="X[0] <= 0.2400\nmse = 5.81726479409e-07\nsamples = 2", shape="box"] ;
141 -> 143 ;
144 [label="mse = 0.0000\nsamples = 1\nvalue = [ 0.01036277]", shape="box"] ;
143 -> 144 ;
145 [label="mse = 0.0000\nsamples = 1\nvalue = [ 0.0114414]", shape="box"] ;
143 -> 145 ;
146 [label="X[0] <= 0.3600\nmse = 1.63903316594e-05\nsamples = 6", shape="box"] ;
136 -> 146 ;
147 [label="X[1] <= 0.1150\nmse = 7.85522036895e-06\nsamples = 4", shape="box"] ;
146 -> 147 ;
148 [label="X[0] <= 0.3100\nmse = 3.13415700266e-06\nsamples = 2", shape="box"] ;
147 -> 148 ;
149 [label="mse = 0.0000\nsamples = 1\nvalue = [ 0.00927687]", shape="box"] ;
148 -> 149 ;
150 [label="mse = 0.0000\nsamples = 1\nvalue = [ 0.01178053]", shape="box"] ;
148 -> 150 ;
151 [label="X[0] <= 0.2700\nmse = 6.282494687e-07\nsamples = 2", shape="box"] ;
147 -> 151 ;
152 [label="mse = 0.0000\nsamples = 1\nvalue = [ 0.0119913]", shape="box"] ;
151 -> 152 ;
153 [label="mse = 0.0000\nsamples = 1\nvalue = [ 0.01311224]", shape="box"] ;
151 -> 153 ;
154 [label="X[0] <= 0.3900\nmse = 4.18477236991e-07\nsamples = 2", shape="box"] ;
146 -> 154 ;
155 [label="mse = 0.0000\nsamples = 1\nvalue = [ 0.01355009]", shape="box"] ;
154 -> 155 ;
156 [label="mse = 0.0000\nsamples = 1\nvalue = [ 0.01446494]", shape="box"] ;
154 -> 156 ;
157 [label="X[1] <= 0.1150\nmse = 0.0101542434899\nsamples = 55", shape="box"] ;
93 -> 157 ;
158 [label="X[0] <= 0.7750\nmse = 0.00292628048804\nsamples = 40", shape="box"] ;
157 -> 158 ;
159 [label="X[1] <= 0.1050\nmse = 0.000531251314299\nsamples = 22", shape="box"] ;
158 -> 159 ;
160 [label="X[0] <= 0.7400\nmse = 0.000214390028451\nsamples = 13", shape="box"] ;
159 -> 160 ;
161 [label="X[0] <= 0.7100\nmse = 6.28049465292e-05\nsamples = 10", shape="box"] ;
160 -> 161 ;
162 [label="X[1] <= 0.0950\nmse = 1.78882449875e-05\nsamples = 8", shape="box"] ;
161 -> 162 ;
163 [label="X[0] <= 0.6750\nmse = 9.21114296036e-07\nsamples = 2", shape="box"] ;
162 -> 163 ;
164 [label="mse = 0.0000\nsamples = 1\nvalue = [ 0.01243784]", shape="box"] ;
163 -> 164 ;
165 [label="mse = 0.0000\nsamples = 1\nvalue = [ 0.01379513]", shape="box"] ;
163 -> 165 ;
166 [label="X[0] <= 0.5600\nmse = 9.72584496879e-06\nsamples = 6", shape="box"] ;
162 -> 166 ;
167 [label="X[0] <= 0.5150\nmse = 1.64148875967e-06\nsamples = 3", shape="box"] ;
166 -> 167 ;
168 [label="mse = 0.0000\nsamples = 1\nvalue = [ 0.01324525]", shape="box"] ;
167 -> 168 ;
169 [label="X[0] <= 0.5400\nmse = 2.67063234877e-07\nsamples = 2", shape="box"] ;
167 -> 169 ;
170 [label="mse = 0.0000\nsamples = 1\nvalue = [ 0.01431567]", shape="box"] ;
169 -> 170 ;
171 [label="mse = 0.0000\nsamples = 1\nvalue = [ 0.01504651]", shape="box"] ;
169 -> 171 ;
172 [label="X[0] <= 0.5800\nmse = 6.76206545929e-07\nsamples = 3", shape="box"] ;
166 -> 172 ;
173 [label="mse = 0.0000\nsamples = 1\nvalue = [ 0.01579112]", shape="box"] ;
172 -> 173 ;
174 [label="mse = 0.0000\nsamples = 2\nvalue = [ 0.01674166]", shape="box"] ;
172 -> 174 ;
175 [label="X[1] <= 0.0950\nmse = 2.57529362412e-05\nsamples = 2", shape="box"] ;
161 -> 175 ;
176 [label="mse = 0.0000\nsamples = 1\nvalue = [ 0.01463681]", shape="box"] ;
175 -> 176 ;
177 [label="mse = 0.0000\nsamples = 1\nvalue = [ 0.02181357]", shape="box"] ;
175 -> 177 ;
178 [label="X[0] <= 0.7550\nmse = 3.88744759324e-07\nsamples = 3", shape="box"] ;
160 -> 178 ;
179 [label="mse = 0.0000\nsamples = 1\nvalue = [ 0.02311056]", shape="box"] ;
178 -> 179 ;
180 [label="mse = 0.0000\nsamples = 2\nvalue = [ 0.02377102]", shape="box"] ;
178 -> 180 ;
181 [label="X[0] <= 0.5750\nmse = 0.000149004935196\nsamples = 9", shape="box"] ;
159 -> 181 ;
182 [label="X[0] <= 0.4950\nmse = 2.49282555571e-05\nsamples = 5", shape="box"] ;
181 -> 182 ;
183 [label="X[0] <= 0.4600\nmse = 4.84943326654e-07\nsamples = 2", shape="box"] ;
182 -> 183 ;
184 [label="mse = 0.0000\nsamples = 1\nvalue = [ 0.01683961]", shape="box"] ;
183 -> 184 ;
185 [label="mse = 0.0000\nsamples = 1\nvalue = [ 0.01782444]", shape="box"] ;
183 -> 185 ;
186 [label="X[0] <= 0.5350\nmse = 2.44983767531e-06\nsamples = 3", shape="box"] ;
182 -> 186 ;
187 [label="mse = 0.0000\nsamples = 1\nvalue = [ 0.02037372]", shape="box"] ;
186 -> 187 ;
188 [label="X[0] <= 0.5550\nmse = 1.45632824648e-07\nsamples = 2", shape="box"] ;
186 -> 188 ;
189 [label="mse = 0.0000\nsamples = 1\nvalue = [ 0.02196299]", shape="box"] ;
188 -> 189 ;
190 [label="mse = 0.0000\nsamples = 1\nvalue = [ 0.02250268]", shape="box"] ;
188 -> 190 ;
191 [label="X[0] <= 0.6300\nmse = 1.99835834628e-05\nsamples = 4", shape="box"] ;
181 -> 191 ;
192 [label="X[0] <= 0.6000\nmse = 6.31688999256e-07\nsamples = 2", shape="box"] ;
191 -> 192 ;
193 [label="mse = 0.0000\nsamples = 1\nvalue = [ 0.02415152]", shape="box"] ;
192 -> 193 ;
194 [label="mse = 0.0000\nsamples = 1\nvalue = [ 0.02527552]", shape="box"] ;
192 -> 194 ;
195 [label="X[0] <= 0.6700\nmse = 2.84743265111e-06\nsamples = 2", shape="box"] ;
191 -> 195 ;
196 [label="mse = 0.0000\nsamples = 1\nvalue = [ 0.02758289]", shape="box"] ;
195 -> 196 ;
197 [label="mse = 0.0000\nsamples = 1\nvalue = [ 0.02996928]", shape="box"] ;
195 -> 197 ;
198 [label="X[1] <= 0.0950\nmse = 0.00150576887426\nsamples = 18", shape="box"] ;
158 -> 198 ;
199 [label="X[0] <= 0.8850\nmse = 2.07317414682e-05\nsamples = 6", shape="box"] ;
198 -> 199 ;
200 [label="X[0] <= 0.8050\nmse = 2.38460763262e-06\nsamples = 3", shape="box"] ;
199 -> 200 ;
201 [label="mse = 0.0000\nsamples = 1\nvalue = [ 0.01608507]", shape="box"] ;
200 -> 201 ;
202 [label="X[0] <= 0.8400\nmse = 1.90899307231e-07\nsamples = 2", shape="box"] ;
200 -> 202 ;
203 [label="mse = 0.0000\nsamples = 1\nvalue = [ 0.01759011]", shape="box"] ;
202 -> 203 ;
204 [label="mse = 0.0000\nsamples = 1\nvalue = [ 0.01820801]", shape="box"] ;
202 -> 204 ;
205 [label="X[0] <= 0.9250\nmse = 2.16927323467e-07\nsamples = 3", shape="box"] ;
199 -> 205 ;
206 [label="mse = 0.0000\nsamples = 1\nvalue = [ 0.02044205]", shape="box"] ;
205 -> 206 ;
207 [label="mse = 0.0000\nsamples = 2\nvalue = [ 0.02093549]", shape="box"] ;
205 -> 207 ;
208 [label="X[1] <= 0.1050\nmse = 0.000572825951982\nsamples = 12", shape="box"] ;
198 -> 208 ;
209 [label="X[0] <= 0.9000\nmse = 6.12175702074e-05\nsamples = 8", shape="box"] ;
208 -> 209 ;
210 [label="X[0] <= 0.8300\nmse = 5.72448730815e-06\nsamples = 4", shape="box"] ;
209 -> 210 ;
211 [label="mse = 0.0000\nsamples = 1\nvalue = [ 0.02579678]", shape="box"] ;
210 -> 211 ;
212 [label="X[0] <= 0.8700\nmse = 1.06145411028e-06\nsamples = 3", shape="box"] ;
210 -> 212 ;
213 [label="X[0] <= 0.8550\nmse = 1.11993992327e-07\nsamples = 2", shape="box"] ;
212 -> 213 ;
214 [label="mse = 0.0000\nsamples = 1\nvalue = [ 0.02765581]", shape="box"] ;
213 -> 214 ;
215 [label="mse = 0.0000\nsamples = 1\nvalue = [ 0.02812909]", shape="box"] ;
213 -> 215 ;
216 [label="mse = 0.0000\nsamples = 1\nvalue = [ 0.02908585]", shape="box"] ;
212 -> 216 ;
217 [label="X[0] <= 0.9450\nmse = 7.7194803841e-06\nsamples = 4", shape="box"] ;
209 -> 217 ;
218 [label="X[0] <= 0.9250\nmse = 1.23541458666e-07\nsamples = 2", shape="box"] ;
217 -> 218 ;
219 [label="mse = 0.0000\nsamples = 1\nvalue = [ 0.03104017]", shape="box"] ;
218 -> 219 ;
220 [label="mse = 0.0000\nsamples = 1\nvalue = [ 0.03153724]", shape="box"] ;
218 -> 220 ;
221 [label="X[0] <= 0.9750\nmse = 1.18905494942e-06\nsamples = 2", shape="box"] ;
217 -> 221 ;
222 [label="mse = 0.0000\nsamples = 1\nvalue = [ 0.03304883]", shape="box"] ;
221 -> 222 ;
223 [label="mse = 0.0000\nsamples = 1\nvalue = [ 0.03459094]", shape="box"] ;
221 -> 223 ;
224 [label="X[0] <= 0.8650\nmse = 0.000123076953402\nsamples = 4", shape="box"] ;
208 -> 224 ;
225 [label="X[0] <= 0.8050\nmse = 5.49392375504e-06\nsamples = 2", shape="box"] ;
224 -> 225 ;
226 [label="mse = 0.0000\nsamples = 1\nvalue = [ 0.03562671]", shape="box"] ;
225 -> 226 ;
227 [label="mse = 0.0000\nsamples = 1\nvalue = [ 0.0389415]", shape="box"] ;
225 -> 227 ;
228 [label="X[0] <= 0.9450\nmse = 2.16573674693e-05\nsamples = 2", shape="box"] ;
224 -> 228 ;
229 [label="mse = 0.0000\nsamples = 1\nvalue = [ 0.04378757]", shape="box"] ;
228 -> 229 ;
230 [label="mse = 0.0000\nsamples = 1\nvalue = [ 0.05036896]", shape="box"] ;
228 -> 230 ;
231 [label="X[0] <= 0.7800\nmse = 0.00296799093844\nsamples = 15", shape="box"] ;
157 -> 231 ;
232 [label="X[0] <= 0.6050\nmse = 0.000797236954428\nsamples = 11", shape="box"] ;
231 -> 232 ;
233 [label="X[0] <= 0.5350\nmse = 7.01165355978e-05\nsamples = 4", shape="box"] ;
232 -> 233 ;
234 [label="X[0] <= 0.4700\nmse = 8.99881016628e-06\nsamples = 3", shape="box"] ;
233 -> 234 ;
235 [label="X[0] <= 0.4400\nmse = 9.23226487518e-07\nsamples = 2", shape="box"] ;
234 -> 235 ;
236 [label="mse = 0.0000\nsamples = 1\nvalue = [ 0.02241355]", shape="box"] ;
235 -> 236 ;
237 [label="mse = 0.0000\nsamples = 1\nvalue = [ 0.02377239]", shape="box"] ;
235 -> 237 ;
238 [label="mse = 0.0000\nsamples = 1\nvalue = [ 0.0265734]", shape="box"] ;
234 -> 238 ;
239 [label="mse = 0.0000\nsamples = 1\nvalue = [ 0.03328031]", shape="box"] ;
233 -> 239 ;
240 [label="X[0] <= 0.6750\nmse = 6.45815909075e-05\nsamples = 7", shape="box"] ;
232 -> 240 ;
241 [label="X[0] <= 0.6450\nmse = 3.03195852468e-06\nsamples = 2", shape="box"] ;
240 -> 241 ;
242 [label="mse = 0.0000\nsamples = 1\nvalue = [ 0.03724737]", shape="box"] ;
241 -> 242 ;
243 [label="mse = 0.0000\nsamples = 1\nvalue = [ 0.03970987]", shape="box"] ;
241 -> 243 ;
244 [label="X[0] <= 0.7200\nmse = 1.29870295149e-05\nsamples = 5", shape="box"] ;
240 -> 244 ;
245 [label="X[0] <= 0.6950\nmse = 1.47370928427e-06\nsamples = 3", shape="box"] ;
244 -> 245 ;
246 [label="mse = 0.0000\nsamples = 1\nvalue = [ 0.0422339]", shape="box"] ;
245 -> 246 ;
247 [label="X[0] <= 0.7050\nmse = 3.71356451128e-07\nsamples = 2", shape="box"] ;
245 -> 247 ;
248 [label="mse = 0.0000\nsamples = 1\nvalue = [ 0.04308889]", shape="box"] ;
247 -> 248 ;
249 [label="mse = 0.0000\nsamples = 1\nvalue = [ 0.0439507]", shape="box"] ;
247 -> 249 ;
250 [label="X[0] <= 0.7350\nmse = 3.89159060612e-07\nsamples = 2", shape="box"] ;
244 -> 250 ;
251 [label="mse = 0.0000\nsamples = 1\nvalue = [ 0.04569474]", shape="box"] ;
250 -> 251 ;
252 [label="mse = 0.0000\nsamples = 1\nvalue = [ 0.04657696]", shape="box"] ;
250 -> 252 ;
253 [label="X[0] <= 0.9050\nmse = 0.000222685886027\nsamples = 4", shape="box"] ;
231 -> 253 ;
254 [label="X[0] <= 0.8350\nmse = 4.06068758215e-06\nsamples = 2", shape="box"] ;
253 -> 254 ;
255 [label="mse = 0.0000\nsamples = 1\nvalue = [ 0.05387892]", shape="box"] ;
254 -> 255 ;
256 [label="mse = 0.0000\nsamples = 1\nvalue = [ 0.05672873]", shape="box"] ;
254 -> 256 ;
257 [label="X[0] <= 0.9800\nmse = 8.77290360436e-06\nsamples = 2", shape="box"] ;
253 -> 257 ;
258 [label="mse = 0.0000\nsamples = 1\nvalue = [ 0.06769572]", shape="box"] ;
257 -> 258 ;
259 [label="mse = 0.0000\nsamples = 1\nvalue = [ 0.07188449]", shape="box"] ;
257 -> 259 ;
260 [label="X[0] <= 0.6950\nmse = 0.1201698454\nsamples = 69", shape="box"] ;
2 -> 260 ;
261 [label="X[0] <= 0.3850\nmse = 0.028694802152\nsamples = 51", shape="box"] ;
260 -> 261 ;
262 [label="X[0] <= 0.1650\nmse = 0.001292359033\nsamples = 20", shape="box"] ;
261 -> 262 ;
263 [label="X[0] <= 0.0750\nmse = 0.000144318375245\nsamples = 11", shape="box"] ;
262 -> 263 ;
264 [label="X[0] <= 0.0250\nmse = 9.25103629728e-06\nsamples = 4", shape="box"] ;
263 -> 264 ;
265 [label="mse = 0.0000\nsamples = 1\nvalue = [ 0.00090782]", shape="box"] ;
264 -> 265 ;
266 [label="X[0] <= 0.0550\nmse = 2.59323515657e-06\nsamples = 3", shape="box"] ;
264 -> 266 ;
267 [label="X[1] <= 0.1450\nmse = 4.03640162871e-07\nsamples = 2", shape="box"] ;
266 -> 267 ;
268 [label="mse = 0.0000\nsamples = 1\nvalue = [ 0.00283392]", shape="box"] ;
267 -> 268 ;
269 [label="mse = 0.0000\nsamples = 1\nvalue = [ 0.00373241]", shape="box"] ;
267 -> 269 ;
270 [label="mse = 0.0000\nsamples = 1\nvalue = [ 0.00509545]", shape="box"] ;
266 -> 270 ;
271 [label="X[0] <= 0.0900\nmse = 4.05934896482e-05\nsamples = 7", shape="box"] ;
263 -> 271 ;
272 [label="X[1] <= 0.1450\nmse = 1.72648202709e-06\nsamples = 2", shape="box"] ;
271 -> 272 ;
273 [label="mse = 0.0000\nsamples = 1\nvalue = [ 0.00587512]", shape="box"] ;
272 -> 273 ;
274 [label="mse = 0.0000\nsamples = 1\nvalue = [ 0.00773334]", shape="box"] ;
272 -> 274 ;
275 [label="X[1] <= 0.1450\nmse = 2.23284578368e-05\nsamples = 5", shape="box"] ;
271 -> 275 ;
276 [label="X[0] <= 0.1200\nmse = 1.52074420888e-06\nsamples = 3", shape="box"] ;
275 -> 276 ;
277 [label="mse = 0.0000\nsamples = 1\nvalue = [ 0.00829135]", shape="box"] ;
276 -> 277 ;
278 [label="X[1] <= 0.1350\nmse = 7.91422770888e-07\nsamples = 2", shape="box"] ;
276 -> 278 ;
279 [label="mse = 0.0000\nsamples = 1\nvalue = [ 0.00870823]", shape="box"] ;
278 -> 279 ;
280 [label="mse = 0.0000\nsamples = 1\nvalue = [ 0.00996635]", shape="box"] ;
278 -> 280 ;
281 [label="X[0] <= 0.1200\nmse = 9.67979756693e-06\nsamples = 2", shape="box"] ;
275 -> 281 ;
282 [label="mse = 0.0000\nsamples = 1\nvalue = [ 0.00983387]", shape="box"] ;
281 -> 282 ;
283 [label="mse = 0.0000\nsamples = 1\nvalue = [ 0.01423382]", shape="box"] ;
281 -> 283 ;
284 [label="X[0] <= 0.2200\nmse = 0.000257019230211\nsamples = 9", shape="box"] ;
262 -> 284 ;
285 [label="X[1] <= 0.1400\nmse = 9.31065902856e-05\nsamples = 5", shape="box"] ;
284 -> 285 ;
286 [label="X[0] <= 0.2000\nmse = 9.84094506203e-07\nsamples = 2", shape="box"] ;
285 -> 286 ;
287 [label="mse = 0.0000\nsamples = 1\nvalue = [ 0.01139864]", shape="box"] ;
286 -> 287 ;
288 [label="mse = 0.0000\nsamples = 1\nvalue = [ 0.01280157]", shape="box"] ;
286 -> 288 ;
289 [label="X[0] <= 0.2000\nmse = 6.9948296389e-06\nsamples = 3", shape="box"] ;
285 -> 289 ;
290 [label="X[0] <= 0.1850\nmse = 7.28193840682e-07\nsamples = 2", shape="box"] ;
289 -> 290 ;
291 [label="mse = 0.0000\nsamples = 1\nvalue = [ 0.0188973]", shape="box"] ;
290 -> 291 ;
292 [label="mse = 0.0000\nsamples = 1\nvalue = [ 0.0201041]", shape="box"] ;
290 -> 292 ;
293 [label="mse = 0.0000\nsamples = 1\nvalue = [ 0.02256663]", shape="box"] ;
289 -> 293 ;
294 [label="X[0] <= 0.2400\nmse = 4.27209294543e-05\nsamples = 4", shape="box"] ;
284 -> 294 ;
295 [label="X[1] <= 0.1450\nmse = 1.79296124142e-05\nsamples = 2", shape="box"] ;
294 -> 295 ;
296 [label="mse = 0.0000\nsamples = 1\nvalue = [ 0.01910592]", shape="box"] ;
295 -> 296 ;
297 [label="mse = 0.0000\nsamples = 1\nvalue = [ 0.02509417]", shape="box"] ;
295 -> 297 ;
298 [label="X[1] <= 0.1400\nmse = 1.00674727961e-06\nsamples = 2", shape="box"] ;
294 -> 298 ;
299 [label="mse = 0.0000\nsamples = 1\nvalue = [ 0.0262675]", shape="box"] ;
298 -> 299 ;
300 [label="mse = 0.0000\nsamples = 1\nvalue = [ 0.02768648]", shape="box"] ;
298 -> 300 ;
301 [label="X[0] <= 0.5150\nmse = 0.00806947521607\nsamples = 31", shape="box"] ;
261 -> 301 ;
302 [label="X[1] <= 0.1450\nmse = 0.0010984724835\nsamples = 15", shape="box"] ;
301 -> 302 ;
303 [label="X[1] <= 0.1350\nmse = 0.000226929074776\nsamples = 12", shape="box"] ;
302 -> 303 ;
304 [label="X[0] <= 0.4750\nmse = 7.37670744142e-05\nsamples = 6", shape="box"] ;
303 -> 304 ;
305 [label="X[0] <= 0.4250\nmse = 1.74222669303e-05\nsamples = 3", shape="box"] ;
304 -> 305 ;
306 [label="mse = 0.0000\nsamples = 1\nvalue = [ 0.0280317]", shape="box"] ;
305 -> 306 ;
307 [label="X[0] <= 0.4550\nmse = 4.44695560054e-07\nsamples = 2", shape="box"] ;
305 -> 307 ;
308 [label="mse = 0.0000\nsamples = 1\nvalue = [ 0.03260659]", shape="box"] ;
307 -> 308 ;
309 [label="mse = 0.0000\nsamples = 1\nvalue = [ 0.03354966]", shape="box"] ;
307 -> 309 ;
310 [label="X[0] <= 0.4950\nmse = 1.94062331374e-06\nsamples = 3", shape="box"] ;
304 -> 310 ;
311 [label="mse = 0.0000\nsamples = 1\nvalue = [ 0.03643491]", shape="box"] ;
310 -> 311 ;
312 [label="X[0] <= 0.5050\nmse = 4.89745235353e-07\nsamples = 2", shape="box"] ;
310 -> 312 ;
313 [label="mse = 0.0000\nsamples = 1\nvalue = [ 0.03741529]", shape="box"] ;
312 -> 313 ;
314 [label="mse = 0.0000\nsamples = 1\nvalue = [ 0.03840499]", shape="box"] ;
312 -> 314 ;
315 [label="X[0] <= 0.4500\nmse = 6.02747619909e-05\nsamples = 6", shape="box"] ;
303 -> 315 ;
316 [label="X[0] <= 0.4050\nmse = 1.44342725132e-05\nsamples = 5", shape="box"] ;
315 -> 316 ;
317 [label="X[0] <= 0.3950\nmse = 6.99697212369e-07\nsamples = 2", shape="box"] ;
316 -> 317 ;
318 [label="mse = 0.0000\nsamples = 1\nvalue = [ 0.03634493]", shape="box"] ;
317 -> 318 ;
319 [label="mse = 0.0000\nsamples = 1\nvalue = [ 0.03752789]", shape="box"] ;
317 -> 319 ;
320 [label="X[0] <= 0.4150\nmse = 2.94612679853e-06\nsamples = 3", shape="box"] ;
316 -> 320 ;
321 [label="mse = 0.0000\nsamples = 1\nvalue = [ 0.03872316]", shape="box"] ;
320 -> 321 ;
322 [label="X[0] <= 0.4250\nmse = 7.4399142237e-07\nsamples = 2", shape="box"] ;
320 -> 322 ;
323 [label="mse = 0.0000\nsamples = 1\nvalue = [ 0.03993072]", shape="box"] ;
322 -> 323 ;
324 [label="mse = 0.0000\nsamples = 1\nvalue = [ 0.04115054]", shape="box"] ;
322 -> 324 ;
325 [label="mse = 0.0000\nsamples = 1\nvalue = [ 0.04615223]", shape="box"] ;
315 -> 325 ;
326 [label="X[0] <= 0.4150\nmse = 0.000104652571781\nsamples = 3", shape="box"] ;
302 -> 326 ;
327 [label="mse = 0.0000\nsamples = 1\nvalue = [ 0.04762527]", shape="box"] ;
326 -> 327 ;
328 [label="X[0] <= 0.4600\nmse = 2.16281735782e-05\nsamples = 2", shape="box"] ;
326 -> 328 ;
329 [label="mse = 0.0000\nsamples = 1\nvalue = [ 0.05549639]", shape="box"] ;
328 -> 329 ;
330 [label="mse = 0.0000\nsamples = 1\nvalue = [ 0.06207335]", shape="box"] ;
328 -> 330 ;
331 [label="X[1] <= 0.1450\nmse = 0.00266611882909\nsamples = 16", shape="box"] ;
301 -> 331 ;
332 [label="X[0] <= 0.6350\nmse = 0.000622961969426\nsamples = 10", shape="box"] ;
331 -> 332 ;
333 [label="X[1] <= 0.1350\nmse = 4.4373102995e-05\nsamples = 6", shape="box"] ;
332 -> 333 ;
334 [label="X[0] <= 0.6200\nmse = 5.56522901175e-06\nsamples = 3", shape="box"] ;
333 -> 334 ;
335 [label="X[0] <= 0.6050\nmse = 5.85562369754e-07\nsamples = 2", shape="box"] ;
334 -> 335 ;
336 [label="mse = 0.0000\nsamples = 1\nvalue = [ 0.04772925]", shape="box"] ;
335 -> 336 ;
337 [label="mse = 0.0000\nsamples = 1\nvalue = [ 0.04881143]", shape="box"] ;
335 -> 337 ;
338 [label="mse = 0.0000\nsamples = 1\nvalue = [ 0.05100338]", shape="box"] ;
334 -> 338 ;
339 [label="X[0] <= 0.5250\nmse = 3.63215267379e-06\nsamples = 3", shape="box"] ;
333 -> 339 ;
340 [label="mse = 0.0000\nsamples = 1\nvalue = [ 0.05267832]", shape="box"] ;
339 -> 340 ;
341 [label="X[0] <= 0.5350\nmse = 9.16188330351e-07\nsamples = 2", shape="box"] ;
339 -> 341 ;
342 [label="mse = 0.0000\nsamples = 1\nvalue = [ 0.0540199]", shape="box"] ;
341 -> 342 ;
343 [label="mse = 0.0000\nsamples = 1\nvalue = [ 0.05537355]", shape="box"] ;
341 -> 343 ;
344 [label="X[1] <= 0.1350\nmse = 0.000234826733469\nsamples = 4", shape="box"] ;
332 -> 344 ;
345 [label="X[0] <= 0.6750\nmse = 5.91344977184e-06\nsamples = 2", shape="box"] ;
344 -> 345 ;
346 [label="mse = 0.0000\nsamples = 1\nvalue = [ 0.05436009]", shape="box"] ;
345 -> 346 ;
347 [label="mse = 0.0000\nsamples = 1\nvalue = [ 0.05779912]", shape="box"] ;
345 -> 347 ;
348 [label="X[0] <= 0.6500\nmse = 4.44785244666e-06\nsamples = 2", shape="box"] ;
344 -> 348 ;
349 [label="mse = 0.0000\nsamples = 1\nvalue = [ 0.06957049]", shape="box"] ;
348 -> 349 ;
350 [label="mse = 0.0000\nsamples = 1\nvalue = [ 0.07255306]", shape="box"] ;
348 -> 350 ;
351 [label="X[0] <= 0.5900\nmse = 0.000355504907885\nsamples = 6", shape="box"] ;
331 -> 351 ;
352 [label="X[0] <= 0.5400\nmse = 3.12299656642e-05\nsamples = 4", shape="box"] ;
351 -> 352 ;
353 [label="X[0] <= 0.5250\nmse = 1.52128380317e-06\nsamples = 2", shape="box"] ;
352 -> 353 ;
354 [label="mse = 0.0000\nsamples = 1\nvalue = [ 0.06889715]", shape="box"] ;
353 -> 354 ;
355 [label="mse = 0.0000\nsamples = 1\nvalue = [ 0.07064145]", shape="box"] ;
353 -> 355 ;
356 [label="X[0] <= 0.5550\nmse = 1.6021200486e-06\nsamples = 2", shape="box"] ;
352 -> 356 ;
357 [label="mse = 0.0000\nsamples = 1\nvalue = [ 0.07417584]", shape="box"] ;
356 -> 357 ;
358 [label="mse = 0.0000\nsamples = 1\nvalue = [ 0.07596588]", shape="box"] ;
356 -> 358 ;
359 [label="X[0] <= 0.6250\nmse = 1.79689293285e-06\nsamples = 2", shape="box"] ;
351 -> 359 ;
360 [label="mse = 0.0000\nsamples = 1\nvalue = [ 0.08702402]", shape="box"] ;
359 -> 360 ;
361 [label="mse = 0.0000\nsamples = 1\nvalue = [ 0.08891975]", shape="box"] ;
359 -> 361 ;
362 [label="X[1] <= 0.1350\nmse = 0.0110952163788\nsamples = 18", shape="box"] ;
260 -> 362 ;
363 [label="X[0] <= 0.8050\nmse = 0.000232302986014\nsamples = 4", shape="box"] ;
362 -> 363 ;
364 [label="mse = 0.0000\nsamples = 1\nvalue = [ 0.06492306]", shape="box"] ;
363 -> 364 ;
365 [label="X[0] <= 0.8750\nmse = 1.53410384407e-05\nsamples = 3", shape="box"] ;
363 -> 365 ;
366 [label="mse = 0.0000\nsamples = 1\nvalue = [ 0.07882903]", shape="box"] ;
365 -> 366 ;
367 [label="X[0] <= 0.8950\nmse = 9.04346931032e-07\nsamples = 2", shape="box"] ;
365 -> 367 ;
368 [label="mse = 0.0000\nsamples = 1\nvalue = [ 0.08281009]", shape="box"] ;
367 -> 368 ;
369 [label="mse = 0.0000\nsamples = 1\nvalue = [ 0.08415497]", shape="box"] ;
367 -> 369 ;
370 [label="X[0] <= 0.8150\nmse = 0.00369038230103\nsamples = 14", shape="box"] ;
362 -> 370 ;
371 [label="X[1] <= 0.1450\nmse = 0.000612846257631\nsamples = 6", shape="box"] ;
370 -> 371 ;
372 [label="mse = 0.0000\nsamples = 1\nvalue = [ 0.0964236]", shape="box"] ;
371 -> 372 ;
373 [label="X[0] <= 0.7350\nmse = 0.000270594500319\nsamples = 5", shape="box"] ;
371 -> 373 ;
374 [label="mse = 0.0000\nsamples = 1\nvalue = [ 0.10260761]", shape="box"] ;
373 -> 374 ;
375 [label="X[0] <= 0.7850\nmse = 2.27240454212e-05\nsamples = 4", shape="box"] ;
373 -> 375 ;
376 [label="X[0] <= 0.7750\nmse = 2.24151618224e-06\nsamples = 2", shape="box"] ;
375 -> 376 ;
377 [label="mse = 0.0000\nsamples = 1\nvalue = [ 0.11701932]", shape="box"] ;
376 -> 377 ;
378 [label="mse = 0.0000\nsamples = 1\nvalue = [ 0.11913664]", shape="box"] ;
376 -> 378 ;
379 [label="X[0] <= 0.7950\nmse = 2.3034367026e-06\nsamples = 2", shape="box"] ;
375 -> 379 ;
380 [label="mse = 0.0000\nsamples = 1\nvalue = [ 0.12126849]", shape="box"] ;
379 -> 380 ;
381 [label="mse = 0.0000\nsamples = 1\nvalue = [ 0.12341486]", shape="box"] ;
379 -> 381 ;
382 [label="X[1] <= 0.1450\nmse = 0.00146755702816\nsamples = 8", shape="box"] ;
370 -> 382 ;
383 [label="X[0] <= 0.9750\nmse = 8.98236819247e-05\nsamples = 3", shape="box"] ;
382 -> 383 ;
384 [label="X[0] <= 0.9400\nmse = 6.68436670925e-06\nsamples = 2", shape="box"] ;
383 -> 384 ;
385 [label="mse = 0.0000\nsamples = 1\nvalue = [ 0.11740048]", shape="box"] ;
384 -> 385 ;
386 [label="mse = 0.0000\nsamples = 1\nvalue = [ 0.12105681]", shape="box"] ;
384 -> 386 ;
387 [label="mse = 0.0000\nsamples = 1\nvalue = [ 0.13039596]", shape="box"] ;
383 -> 387 ;
388 [label="X[0] <= 0.9000\nmse = 0.000683026399887\nsamples = 5", shape="box"] ;
382 -> 388 ;
389 [label="X[0] <= 0.8600\nmse = 9.2633473049e-05\nsamples = 3", shape="box"] ;
388 -> 389 ;
390 [label="X[0] <= 0.8300\nmse = 9.65280950444e-06\nsamples = 2", shape="box"] ;
389 -> 390 ;
391 [label="mse = 0.0000\nsamples = 1\nvalue = [ 0.12775099]", shape="box"] ;
390 -> 391 ;
392 [label="mse = 0.0000\nsamples = 1\nvalue = [ 0.13214481]", shape="box"] ;
390 -> 392 ;
393 [label="mse = 0.0000\nsamples = 1\nvalue = [ 0.14110456]", shape="box"] ;
389 -> 393 ;
394 [label="X[0] <= 0.9400\nmse = 4.43096704213e-05\nsamples = 2", shape="box"] ;
388 -> 394 ;
395 [label="mse = 0.0000\nsamples = 1\nvalue = [ 0.15029225]", shape="box"] ;
394 -> 395 ;
396 [label="mse = 0.0000\nsamples = 1\nvalue = [ 0.15970603]", shape="box"] ;
394 -> 396 ;
397 [label="X[0] <= 0.5450\nmse = 2.12261314523\nsamples = 145", shape="box"] ;
1 -> 397 ;
398 [label="X[0] <= 0.3000\nmse = 0.258365192413\nsamples = 84", shape="box"] ;
397 -> 398 ;
399 [label="X[0] <= 0.1550\nmse = 0.0278602446034\nsamples = 47", shape="box"] ;
398 -> 399 ;
400 [label="X[0] <= 0.0850\nmse = 0.00421564172838\nsamples = 23", shape="box"] ;
399 -> 400 ;
401 [label="X[0] <= 0.0200\nmse = 0.000576733972594\nsamples = 10", shape="box"] ;
400 -> 401 ;
402 [label="X[1] <= 0.1850\nmse = 1.79648883535e-06\nsamples = 5", shape="box"] ;
401 -> 402 ;
403 [label="X[1] <= 0.1650\nmse = 2.50028524069e-07\nsamples = 3", shape="box"] ;
402 -> 403 ;
404 [label="mse = 0.0000\nsamples = 1\nvalue = [ 0.001175]", shape="box"] ;
403 -> 404 ;
405 [label="mse = 0.0000\nsamples = 2\nvalue = [ 0.00168918]", shape="box"] ;
403 -> 405 ;
406 [label="X[1] <= 0.1950\nmse = 1.40820913578e-07\nsamples = 2", shape="box"] ;
402 -> 406 ;
407 [label="mse = 0.0000\nsamples = 1\nvalue = [ 0.00233474]", shape="box"] ;
406 -> 407 ;
408 [label="mse = 0.0000\nsamples = 1\nvalue = [ 0.00286543]", shape="box"] ;
406 -> 408 ;
409 [label="X[0] <= 0.0650\nmse = 0.000164884313034\nsamples = 5", shape="box"] ;
401 -> 409 ;
410 [label="X[1] <= 0.1950\nmse = 6.84819406522e-07\nsamples = 2", shape="box"] ;
409 -> 410 ;
411 [label="mse = 0.0000\nsamples = 1\nvalue = [ 0.01177273]", shape="box"] ;
410 -> 411 ;
412 [label="mse = 0.0000\nsamples = 1\nvalue = [ 0.01060242]", shape="box"] ;
410 -> 412 ;
413 [label="X[1] <= 0.1950\nmse = 0.000121711458741\nsamples = 3", shape="box"] ;
409 -> 413 ;
414 [label="X[1] <= 0.1700\nmse = 1.77393922532e-05\nsamples = 2", shape="box"] ;
413 -> 414 ;
415 [label="mse = 0.0000\nsamples = 1\nvalue = [ 0.00999695]", shape="box"] ;
414 -> 415 ;
416 [label="mse = 0.0000\nsamples = 1\nvalue = [ 0.01595336]", shape="box"] ;
414 -> 416 ;
417 [label="mse = 0.0000\nsamples = 1\nvalue = [ 0.02546347]", shape="box"] ;
413 -> 417 ;
418 [label="X[1] <= 0.1950\nmse = 0.00100400845302\nsamples = 13", shape="box"] ;
400 -> 418 ;
419 [label="X[1] <= 0.1750\nmse = 0.000211174991584\nsamples = 7", shape="box"] ;
418 -> 419 ;
420 [label="X[0] <= 0.1100\nmse = 2.51417881592e-05\nsamples = 2", shape="box"] ;
419 -> 420 ;
421 [label="mse = 0.0000\nsamples = 1\nvalue = [ 0.0144267]", shape="box"] ;
420 -> 421 ;
422 [label="mse = 0.0000\nsamples = 1\nvalue = [ 0.0215178]", shape="box"] ;
420 -> 422 ;
423 [label="X[0] <= 0.1150\nmse = 7.50394068211e-05\nsamples = 5", shape="box"] ;
419 -> 423 ;
424 [label="mse = 0.0000\nsamples = 2\nvalue = [ 0.02242967]", shape="box"] ;
423 -> 424 ;
425 [label="X[0] <= 0.1400\nmse = 1.17564064177e-05\nsamples = 3", shape="box"] ;
423 -> 425 ;
426 [label="X[1] <= 0.1850\nmse = 6.43766823482e-06\nsamples = 2", shape="box"] ;
425 -> 426 ;
427 [label="mse = 0.0000\nsamples = 1\nvalue = [ 0.02695587]", shape="box"] ;
426 -> 427 ;
428 [label="mse = 0.0000\nsamples = 1\nvalue = [ 0.03054409]", shape="box"] ;
426 -> 428 ;
429 [label="mse = 0.0000\nsamples = 1\nvalue = [ 0.03157453]", shape="box"] ;
425 -> 429 ;
430 [label="X[0] <= 0.1250\nmse = 0.000304038983313\nsamples = 6", shape="box"] ;
418 -> 430 ;
431 [label="X[0] <= 0.1050\nmse = 5.47778304466e-05\nsamples = 4", shape="box"] ;
430 -> 431 ;
432 [label="X[0] <= 0.0950\nmse = 5.33603686368e-06\nsamples = 2", shape="box"] ;
431 -> 432 ;
433 [label="mse = 0.0000\nsamples = 1\nvalue = [ 0.02741207]", shape="box"] ;
432 -> 433 ;
434 [label="mse = 0.0000\nsamples = 1\nvalue = [ 0.03067888]", shape="box"] ;
432 -> 434 ;
435 [label="X[0] <= 0.1150\nmse = 5.62062534529e-06\nsamples = 2", shape="box"] ;
431 -> 435 ;
436 [label="mse = 0.0000\nsamples = 1\nvalue = [ 0.03398883]", shape="box"] ;
435 -> 436 ;
437 [label="mse = 0.0000\nsamples = 1\nvalue = [ 0.03734163]", shape="box"] ;
435 -> 437 ;
438 [label="X[1] <= 0.2050\nmse = 3.62565120345e-05\nsamples = 2", shape="box"] ;
430 -> 438 ;
439 [label="mse = 0.0000\nsamples = 1\nvalue = [ 0.04073699]", shape="box"] ;
438 -> 439 ;
440 [label="mse = 0.0000\nsamples = 1\nvalue = [ 0.04925245]", shape="box"] ;
438 -> 440 ;
441 [label="X[1] <= 0.1850\nmse = 0.00939564884614\nsamples = 24", shape="box"] ;
399 -> 441 ;
442 [label="X[0] <= 0.2300\nmse = 0.00118832193965\nsamples = 14", shape="box"] ;
441 -> 442 ;
443 [label="X[0] <= 0.1650\nmse = 0.000122755587217\nsamples = 5", shape="box"] ;
442 -> 443 ;
444 [label="mse = 0.0000\nsamples = 1\nvalue = [ 0.02710575]", shape="box"] ;
443 -> 444 ;
445 [label="X[1] <= 0.1650\nmse = 5.53476080589e-05\nsamples = 4", shape="box"] ;
443 -> 445 ;
446 [label="mse = 0.0000\nsamples = 1\nvalue = [ 0.03071893]", shape="box"] ;
445 -> 446 ;
447 [label="X[0] <= 0.1800\nmse = 1.40382543796e-05\nsamples = 3", shape="box"] ;
445 -> 447 ;
448 [label="mse = 0.0000\nsamples = 1\nvalue = [ 0.03631603]", shape="box"] ;
447 -> 448 ;
449 [label="X[1] <= 0.1750\nmse = 9.04546073898e-06\nsamples = 2", shape="box"] ;
447 -> 449 ;
450 [label="mse = 0.0000\nsamples = 1\nvalue = [ 0.036926]", shape="box"] ;
449 -> 450 ;
451 [label="mse = 0.0000\nsamples = 1\nvalue = [ 0.04117934]", shape="box"] ;
449 -> 451 ;
452 [label="X[1] <= 0.1650\nmse = 0.000614734820016\nsamples = 9", shape="box"] ;
442 -> 452 ;
453 [label="X[0] <= 0.2550\nmse = 4.10486317152e-05\nsamples = 4", shape="box"] ;
452 -> 453 ;
454 [label="mse = 0.0000\nsamples = 1\nvalue = [ 0.0340079]", shape="box"] ;
453 -> 454 ;
455 [label="X[0] <= 0.2750\nmse = 6.09211842466e-06\nsamples = 3", shape="box"] ;
453 -> 455 ;
456 [label="mse = 0.0000\nsamples = 1\nvalue = [ 0.03909301]", shape="box"] ;
455 -> 456 ;
457 [label="X[0] <= 0.2850\nmse = 1.5405444363e-06\nsamples = 2", shape="box"] ;
455 -> 457 ;
458 [label="mse = 0.0000\nsamples = 1\nvalue = [ 0.04082828]", shape="box"] ;
457 -> 458 ;
459 [label="mse = 0.0000\nsamples = 1\nvalue = [ 0.04258358]", shape="box"] ;
457 -> 459 ;
460 [label="X[0] <= 0.2650\nmse = 0.000204150689625\nsamples = 5", shape="box"] ;
452 -> 460 ;
461 [label="X[1] <= 0.1750\nmse = 5.85654553776e-05\nsamples = 3", shape="box"] ;
460 -> 461 ;
462 [label="X[0] <= 0.2500\nmse = 9.04131764919e-06\nsamples = 2", shape="box"] ;
461 -> 462 ;
463 [label="mse = 0.0000\nsamples = 1\nvalue = [ 0.04311873]", shape="box"] ;
462 -> 463 ;
464 [label="mse = 0.0000\nsamples = 1\nvalue = [ 0.0473711]", shape="box"] ;
462 -> 464 ;
465 [label="mse = 0.0000\nsamples = 1\nvalue = [ 0.05386386]", shape="box"] ;
461 -> 465 ;
466 [label="X[1] <= 0.1750\nmse = 3.1177473248e-05\nsamples = 2", shape="box"] ;
460 -> 466 ;
467 [label="mse = 0.0000\nsamples = 1\nvalue = [ 0.05393385]", shape="box"] ;
466 -> 467 ;
468 [label="mse = 0.0000\nsamples = 1\nvalue = [ 0.06183036]", shape="box"] ;
466 -> 468 ;
469 [label="X[0] <= 0.2750\nmse = 0.00223996199325\nsamples = 10", shape="box"] ;
441 -> 469 ;
470 [label="X[0] <= 0.1750\nmse = 0.00072459848739\nsamples = 8", shape="box"] ;
469 -> 470 ;
471 [label="X[1] <= 0.2050\nmse = 5.64006175325e-05\nsamples = 2", shape="box"] ;
470 -> 471 ;
472 [label="mse = 0.0000\nsamples = 1\nvalue = [ 0.05117555]", shape="box"] ;
471 -> 472 ;
473 [label="mse = 0.0000\nsamples = 1\nvalue = [ 0.06179634]", shape="box"] ;
471 -> 473 ;
474 [label="X[1] <= 0.1950\nmse = 0.000320283013275\nsamples = 6", shape="box"] ;
470 -> 474 ;
475 [label="X[0] <= 0.2500\nmse = 0.000145172277702\nsamples = 3", shape="box"] ;
474 -> 475 ;
476 [label="X[0] <= 0.2250\nmse = 4.94946635334e-06\nsamples = 2", shape="box"] ;
475 -> 476 ;
477 [label="mse = 0.0000\nsamples = 1\nvalue = [ 0.06005813]", shape="box"] ;
476 -> 477 ;
478 [label="mse = 0.0000\nsamples = 1\nvalue = [ 0.06320439]", shape="box"] ;
476 -> 478 ;
479 [label="mse = 0.0000\nsamples = 1\nvalue = [ 0.07613416]", shape="box"] ;
475 -> 479 ;
480 [label="X[0] <= 0.1950\nmse = 9.73159830236e-06\nsamples = 3", shape="box"] ;
474 -> 480 ;
481 [label="mse = 0.0000\nsamples = 1\nvalue = [ 0.07475838]", shape="box"] ;
480 -> 481 ;
482 [label="X[1] <= 0.2050\nmse = 2.42325972257e-06\nsamples = 2", shape="box"] ;
480 -> 482 ;
483 [label="mse = 0.0000\nsamples = 1\nvalue = [ 0.07696861]", shape="box"] ;
482 -> 483 ;
484 [label="mse = 0.0000\nsamples = 1\nvalue = [ 0.07917009]", shape="box"] ;
482 -> 484 ;
485 [label="X[0] <= 0.2850\nmse = 8.15223469162e-06\nsamples = 2", shape="box"] ;
469 -> 485 ;
486 [label="mse = 0.0000\nsamples = 1\nvalue = [ 0.0965814]", shape="box"] ;
485 -> 486 ;
487 [label="mse = 0.0000\nsamples = 1\nvalue = [ 0.10061928]", shape="box"] ;
485 -> 487 ;
488 [label="X[1] <= 0.1950\nmse = 0.0865745906023\nsamples = 37", shape="box"] ;
398 -> 488 ;
489 [label="X[1] <= 0.1750\nmse = 0.0158530724895\nsamples = 23", shape="box"] ;
488 -> 489 ;
490 [label="X[0] <= 0.4200\nmse = 0.00434830434725\nsamples = 15", shape="box"] ;
489 -> 490 ;
491 [label="X[1] <= 0.1650\nmse = 0.000270462240782\nsamples = 6", shape="box"] ;
490 -> 491 ;
492 [label="X[0] <= 0.3650\nmse = 4.72690272075e-05\nsamples = 3", shape="box"] ;
491 -> 492 ;
493 [label="mse = 0.0000\nsamples = 1\nvalue = [ 0.05353325]", shape="box"] ;
492 -> 493 ;
494 [label="X[0] <= 0.3900\nmse = 7.70354237838e-06\nsamples = 2", shape="box"] ;
492 -> 494 ;
495 [label="mse = 0.0000\nsamples = 1\nvalue = [ 0.05927444]", shape="box"] ;
494 -> 495 ;
496 [label="mse = 0.0000\nsamples = 1\nvalue = [ 0.06319963]", shape="box"] ;
494 -> 496 ;
497 [label="X[0] <= 0.3600\nmse = 0.000137242525322\nsamples = 3", shape="box"] ;
491 -> 497 ;
498 [label="X[0] <= 0.3250\nmse = 2.39896154083e-05\nsamples = 2", shape="box"] ;
497 -> 498 ;
499 [label="mse = 0.0000\nsamples = 1\nvalue = [ 0.05843087]", shape="box"] ;
498 -> 499 ;
500 [label="mse = 0.0000\nsamples = 1\nvalue = [ 0.06535757]", shape="box"] ;
498 -> 500 ;
501 [label="mse = 0.0000\nsamples = 1\nvalue = [ 0.074928]", shape="box"] ;
497 -> 501 ;
502 [label="X[1] <= 0.1650\nmse = 0.00115618925702\nsamples = 9", shape="box"] ;
490 -> 502 ;
503 [label="X[0] <= 0.4800\nmse = 0.000305155225705\nsamples = 5", shape="box"] ;
502 -> 503 ;
504 [label="X[0] <= 0.4550\nmse = 2.1802026724e-06\nsamples = 2", shape="box"] ;
503 -> 504 ;
505 [label="mse = 0.0000\nsamples = 1\nvalue = [ 0.07335173]", shape="box"] ;
504 -> 505 ;
506 [label="mse = 0.0000\nsamples = 1\nvalue = [ 0.07543988]", shape="box"] ;
504 -> 506 ;
507 [label="X[0] <= 0.5150\nmse = 4.23071671976e-05\nsamples = 3", shape="box"] ;
503 -> 507 ;
508 [label="mse = 0.0000\nsamples = 1\nvalue = [ 0.08398333]", shape="box"] ;
507 -> 508 ;
509 [label="X[0] <= 0.5350\nmse = 2.50839414379e-06\nsamples = 2", shape="box"] ;
507 -> 509 ;
510 [label="mse = 0.0000\nsamples = 1\nvalue = [ 0.09058988]", shape="box"] ;
509 -> 510 ;
511 [label="mse = 0.0000\nsamples = 1\nvalue = [ 0.09282969]", shape="box"] ;
509 -> 511 ;
512 [label="X[0] <= 0.4600\nmse = 0.000183478830261\nsamples = 4", shape="box"] ;
502 -> 512 ;
513 [label="mse = 0.0000\nsamples = 1\nvalue = [ 0.08999075]", shape="box"] ;
512 -> 513 ;
514 [label="X[0] <= 0.5000\nmse = 3.42248276712e-05\nsamples = 3", shape="box"] ;
512 -> 514 ;
515 [label="X[0] <= 0.4850\nmse = 3.60125301236e-06\nsamples = 2", shape="box"] ;
514 -> 515 ;
516 [label="mse = 0.0000\nsamples = 1\nvalue = [ 0.10049662]", shape="box"] ;
515 -> 516 ;
517 [label="mse = 0.0000\nsamples = 1\nvalue = [ 0.10318037]", shape="box"] ;
515 -> 517 ;
518 [label="mse = 0.0000\nsamples = 1\nvalue = [ 0.10861605]", shape="box"] ;
514 -> 518 ;
519 [label="X[0] <= 0.4650\nmse = 0.00363788515431\nsamples = 8", shape="box"] ;
489 -> 519 ;
520 [label="X[0] <= 0.3600\nmse = 0.000672986208358\nsamples = 4", shape="box"] ;
519 -> 520 ;
521 [label="mse = 0.0000\nsamples = 1\nvalue = [ 0.08143468]", shape="box"] ;
520 -> 521 ;
522 [label="X[1] <= 0.1850\nmse = 0.000239964794186\nsamples = 3", shape="box"] ;
520 -> 522 ;
523 [label="X[0] <= 0.4050\nmse = 0.000118742251997\nsamples = 2", shape="box"] ;
522 -> 523 ;
524 [label="mse = 0.0000\nsamples = 1\nvalue = [ 0.09326291]", shape="box"] ;
523 -> 524 ;
525 [label="mse = 0.0000\nsamples = 1\nvalue = [ 0.10867344]", shape="box"] ;
523 -> 525 ;
526 [label="mse = 0.0000\nsamples = 1\nvalue = [ 0.11445275]", shape="box"] ;
522 -> 526 ;
527 [label="X[0] <= 0.5300\nmse = 0.000100711068326\nsamples = 4", shape="box"] ;
519 -> 527 ;
528 [label="X[0] <= 0.5050\nmse = 2.26406906465e-05\nsamples = 3", shape="box"] ;
527 -> 528 ;
529 [label="mse = 0.0000\nsamples = 1\nvalue = [ 0.13138811]", shape="box"] ;
528 -> 529 ;
530 [label="X[0] <= 0.5150\nmse = 5.70440942466e-06\nsamples = 2", shape="box"] ;
528 -> 530 ;
531 [label="mse = 0.0000\nsamples = 1\nvalue = [ 0.13473955]", shape="box"] ;
530 -> 531 ;
532 [label="mse = 0.0000\nsamples = 1\nvalue = [ 0.13811724]", shape="box"] ;
530 -> 532 ;
533 [label="mse = 0.0000\nsamples = 1\nvalue = [ 0.14495094]", shape="box"] ;
527 -> 533 ;
534 [label="X[0] <= 0.4050\nmse = 0.0207511914231\nsamples = 14", shape="box"] ;
488 -> 534 ;
535 [label="X[0] <= 0.3950\nmse = 0.00204554355191\nsamples = 8", shape="box"] ;
534 -> 535 ;
536 [label="X[0] <= 0.3700\nmse = 0.000357622043639\nsamples = 6", shape="box"] ;
535 -> 536 ;
537 [label="X[1] <= 0.2050\nmse = 0.000230986549876\nsamples = 5", shape="box"] ;
536 -> 537 ;
538 [label="X[0] <= 0.3450\nmse = 9.07649383503e-06\nsamples = 2", shape="box"] ;
537 -> 538 ;
539 [label="mse = 0.0000\nsamples = 1\nvalue = [ 0.12137028]", shape="box"] ;
538 -> 539 ;
540 [label="mse = 0.0000\nsamples = 1\nvalue = [ 0.12563091]", shape="box"] ;
538 -> 540 ;
541 [label="X[0] <= 0.3250\nmse = 4.88834645343e-05\nsamples = 3", shape="box"] ;
537 -> 541 ;
542 [label="X[0] <= 0.3150\nmse = 1.21217618544e-05\nsamples = 2", shape="box"] ;
541 -> 542 ;
543 [label="mse = 0.0000\nsamples = 1\nvalue = [ 0.13057131]", shape="box"] ;
542 -> 543 ;
544 [label="mse = 0.0000\nsamples = 1\nvalue = [ 0.13549508]", shape="box"] ;
542 -> 544 ;
545 [label="mse = 0.0000\nsamples = 1\nvalue = [ 0.140459]", shape="box"] ;
541 -> 545 ;
546 [label="mse = 0.0000\nsamples = 1\nvalue = [ 0.14303263]", shape="box"] ;
536 -> 546 ;
547 [label="X[1] <= 0.2050\nmse = 0.000415502470965\nsamples = 2", shape="box"] ;
535 -> 547 ;
548 [label="mse = 0.0000\nsamples = 1\nvalue = [ 0.14747153]", shape="box"] ;
547 -> 548 ;
549 [label="mse = 0.0000\nsamples = 1\nvalue = [ 0.17629868]", shape="box"] ;
547 -> 549 ;
550 [label="X[0] <= 0.5200\nmse = 0.00323623236637\nsamples = 6", shape="box"] ;
534 -> 550 ;
551 [label="X[0] <= 0.4450\nmse = 0.00068583467783\nsamples = 5", shape="box"] ;
550 -> 551 ;
552 [label="X[0] <= 0.4200\nmse = 5.6742365564e-05\nsamples = 2", shape="box"] ;
551 -> 552 ;
553 [label="mse = 0.0000\nsamples = 1\nvalue = [ 0.18157017]", shape="box"] ;
552 -> 553 ;
554 [label="mse = 0.0000\nsamples = 1\nvalue = [ 0.19222309]", shape="box"] ;
552 -> 554 ;
555 [label="X[1] <= 0.2050\nmse = 0.000218758169536\nsamples = 3", shape="box"] ;
551 -> 555 ;
556 [label="mse = 0.0000\nsamples = 1\nvalue = [ 0.19373488]", shape="box"] ;
555 -> 556 ;
557 [label="X[0] <= 0.4650\nmse = 1.50515200141e-05\nsamples = 2", shape="box"] ;
555 -> 557 ;
558 [label="mse = 0.0000\nsamples = 1\nvalue = [ 0.20847184]", shape="box"] ;
557 -> 558 ;
559 [label="mse = 0.0000\nsamples = 1\nvalue = [ 0.21395846]", shape="box"] ;
557 -> 559 ;
560 [label="mse = 0.0000\nsamples = 1\nvalue = [ 0.25331327]", shape="box"] ;
550 -> 560 ;
561 [label="X[1] <= 0.1850\nmse = 0.552985258474\nsamples = 61", shape="box"] ;
397 -> 561 ;
562 [label="X[0] <= 0.8350\nmse = 0.0943190436163\nsamples = 28", shape="box"] ;
561 -> 562 ;
563 [label="X[0] <= 0.6400\nmse = 0.0207993498326\nsamples = 17", shape="box"] ;
562 -> 563 ;
564 [label="X[1] <= 0.1750\nmse = 0.00134443243498\nsamples = 5", shape="box"] ;
563 -> 564 ;
565 [label="X[1] <= 0.1650\nmse = 0.000392043495243\nsamples = 4", shape="box"] ;
564 -> 565 ;
566 [label="X[0] <= 0.6050\nmse = 2.52745148264e-05\nsamples = 2", shape="box"] ;
565 -> 566 ;
567 [label="mse = 0.0000\nsamples = 1\nvalue = [ 0.10430885]", shape="box"] ;
566 -> 567 ;
568 [label="mse = 0.0000\nsamples = 1\nvalue = [ 0.11141863]", shape="box"] ;
566 -> 568 ;
569 [label="X[0] <= 0.5750\nmse = 4.16380795224e-06\nsamples = 2", shape="box"] ;
565 -> 569 ;
570 [label="mse = 0.0000\nsamples = 1\nvalue = [ 0.12546306]", shape="box"] ;
569 -> 570 ;
571 [label="mse = 0.0000\nsamples = 1\nvalue = [ 0.12834882]", shape="box"] ;
569 -> 571 ;
572 [label="mse = 0.0000\nsamples = 1\nvalue = [ 0.15188826]", shape="box"] ;
564 -> 572 ;
573 [label="X[1] <= 0.1750\nmse = 0.00843625001449\nsamples = 12", shape="box"] ;
563 -> 573 ;
574 [label="X[0] <= 0.7700\nmse = 0.0032173188954\nsamples = 8", shape="box"] ;
573 -> 574 ;
575 [label="X[1] <= 0.1650\nmse = 0.000967632482084\nsamples = 6", shape="box"] ;
574 -> 575 ;
576 [label="X[0] <= 0.7450\nmse = 3.44024228984e-06\nsamples = 2", shape="box"] ;
575 -> 576 ;
577 [label="mse = 0.0000\nsamples = 1\nvalue = [ 0.14149584]", shape="box"] ;
576 -> 577 ;
578 [label="mse = 0.0000\nsamples = 1\nvalue = [ 0.1441189]", shape="box"] ;
576 -> 578 ;
579 [label="X[0] <= 0.6950\nmse = 0.0003661747125\nsamples = 4", shape="box"] ;
575 -> 579 ;
580 [label="X[0] <= 0.6700\nmse = 1.91237057683e-05\nsamples = 2", shape="box"] ;
579 -> 580 ;
581 [label="mse = 0.0000\nsamples = 1\nvalue = [ 0.1522226]", shape="box"] ;
580 -> 581 ;
582 [label="mse = 0.0000\nsamples = 1\nvalue = [ 0.15840705]", shape="box"] ;
580 -> 582 ;
583 [label="X[0] <= 0.7250\nmse = 4.63284174435e-05\nsamples = 2", shape="box"] ;
579 -> 583 ;
584 [label="mse = 0.0000\nsamples = 1\nvalue = [ 0.16784326]", shape="box"] ;
583 -> 584 ;
585 [label="mse = 0.0000\nsamples = 1\nvalue = [ 0.1774691]", shape="box"] ;
583 -> 585 ;
586 [label="X[0] <= 0.7950\nmse = 5.62301299577e-06\nsamples = 2", shape="box"] ;
574 -> 586 ;
587 [label="mse = 0.0000\nsamples = 1\nvalue = [ 0.19392807]", shape="box"] ;
586 -> 587 ;
588 [label="mse = 0.0000\nsamples = 1\nvalue = [ 0.19728158]", shape="box"] ;
586 -> 588 ;
589 [label="X[0] <= 0.7150\nmse = 0.000803238550707\nsamples = 4", shape="box"] ;
573 -> 589 ;
590 [label="X[0] <= 0.6750\nmse = 6.43608736351e-05\nsamples = 2", shape="box"] ;
589 -> 590 ;
591 [label="mse = 0.0000\nsamples = 1\nvalue = [ 0.18809635]", shape="box"] ;
590 -> 591 ;
592 [label="mse = 0.0000\nsamples = 1\nvalue = [ 0.19944191]", shape="box"] ;
590 -> 592 ;
593 [label="X[0] <= 0.7450\nmse = 7.79897917502e-06\nsamples = 2", shape="box"] ;
589 -> 593 ;
594 [label="mse = 0.0000\nsamples = 1\nvalue = [ 0.21883288]", shape="box"] ;
593 -> 594 ;
595 [label="mse = 0.0000\nsamples = 1\nvalue = [ 0.22278231]", shape="box"] ;
593 -> 595 ;
596 [label="X[1] <= 0.1750\nmse = 0.0218505428118\nsamples = 11", shape="box"] ;
562 -> 596 ;
597 [label="X[1] <= 0.1650\nmse = 0.00559573427785\nsamples = 8", shape="box"] ;
596 -> 597 ;
598 [label="X[0] <= 0.9700\nmse = 0.000132899070872\nsamples = 4", shape="box"] ;
597 -> 598 ;
599 [label="X[0] <= 0.9500\nmse = 1.77234709583e-05\nsamples = 2", shape="box"] ;
598 -> 599 ;
600 [label="mse = 0.0000\nsamples = 1\nvalue = [ 0.19726993]", shape="box"] ;
599 -> 600 ;
601 [label="mse = 0.0000\nsamples = 1\nvalue = [ 0.20322367]", shape="box"] ;
599 -> 601 ;
602 [label="X[0] <= 0.9850\nmse = 4.60655629157e-06\nsamples = 2", shape="box"] ;
598 -> 602 ;
603 [label="mse = 0.0000\nsamples = 1\nvalue = [ 0.20924433]", shape="box"] ;
602 -> 603 ;
604 [label="mse = 0.0000\nsamples = 1\nvalue = [ 0.21227964]", shape="box"] ;
602 -> 604 ;
605 [label="X[0] <= 0.9150\nmse = 0.00129651721518\nsamples = 4", shape="box"] ;
597 -> 605 ;
606 [label="mse = 0.0000\nsamples = 1\nvalue = [ 0.22132316]", shape="box"] ;
605 -> 606 ;
607 [label="X[0] <= 0.9900\nmse = 0.000110645729311\nsamples = 3", shape="box"] ;
605 -> 607 ;
608 [label="X[0] <= 0.9700\nmse = 2.73780278889e-05\nsamples = 2", shape="box"] ;
607 -> 608 ;
609 [label="mse = 0.0000\nsamples = 1\nvalue = [ 0.25366181]", shape="box"] ;
608 -> 609 ;
610 [label="mse = 0.0000\nsamples = 1\nvalue = [ 0.26106154]", shape="box"] ;
608 -> 610 ;
611 [label="mse = 0.0000\nsamples = 1\nvalue = [ 0.26853761]", shape="box"] ;
607 -> 611 ;
612 [label="X[0] <= 0.9550\nmse = 0.000249538086774\nsamples = 3", shape="box"] ;
596 -> 612 ;
613 [label="mse = 0.0000\nsamples = 1\nvalue = [ 0.30215488]", shape="box"] ;
612 -> 613 ;
614 [label="X[0] <= 0.9800\nmse = 3.99936850296e-05\nsamples = 2", shape="box"] ;
612 -> 614 ;
615 [label="mse = 0.0000\nsamples = 1\nvalue = [ 0.31541207]", shape="box"] ;
614 -> 615 ;
616 [label="mse = 0.0000\nsamples = 1\nvalue = [ 0.32435564]", shape="box"] ;
614 -> 616 ;
617 [label="X[0] <= 0.7900\nmse = 0.209236317039\nsamples = 33", shape="box"] ;
561 -> 617 ;
618 [label="X[0] <= 0.6750\nmse = 0.0426441653904\nsamples = 19", shape="box"] ;
617 -> 618 ;
619 [label="X[1] <= 0.2050\nmse = 0.0118237243307\nsamples = 11", shape="box"] ;
618 -> 619 ;
620 [label="X[0] <= 0.6000\nmse = 0.00402919103649\nsamples = 8", shape="box"] ;
619 -> 620 ;
621 [label="X[1] <= 0.1950\nmse = 0.0003486120267\nsamples = 3", shape="box"] ;
620 -> 621 ;
622 [label="mse = 0.0000\nsamples = 1\nvalue = [ 0.19811648]", shape="box"] ;
621 -> 622 ;
623 [label="X[0] <= 0.5550\nmse = 1.23290345968e-05\nsamples = 2", shape="box"] ;
621 -> 623 ;
624 [label="mse = 0.0000\nsamples = 1\nvalue = [ 0.21809304]", shape="box"] ;
623 -> 624 ;
625 [label="mse = 0.0000\nsamples = 1\nvalue = [ 0.22305872]", shape="box"] ;
623 -> 625 ;
626 [label="X[1] <= 0.1950\nmse = 0.00201301668184\nsamples = 5", shape="box"] ;
620 -> 626 ;
627 [label="X[0] <= 0.6650\nmse = 4.02349792553e-05\nsamples = 3", shape="box"] ;
626 -> 627 ;
628 [label="X[0] <= 0.6550\nmse = 9.99835591128e-06\nsamples = 2", shape="box"] ;
627 -> 628 ;
629 [label="mse = 0.0000\nsamples = 1\nvalue = [ 0.22437152]", shape="box"] ;
628 -> 629 ;
630 [label="mse = 0.0000\nsamples = 1\nvalue = [ 0.22884329]", shape="box"] ;
628 -> 630 ;
631 [label="mse = 0.0000\nsamples = 1\nvalue = [ 0.23334201]", shape="box"] ;
627 -> 631 ;
632 [label="X[0] <= 0.6400\nmse = 0.000490283733084\nsamples = 2", shape="box"] ;
626 -> 632 ;
633 [label="mse = 0.0000\nsamples = 1\nvalue = [ 0.24834374]", shape="box"] ;
632 -> 633 ;
634 [label="mse = 0.0000\nsamples = 1\nvalue = [ 0.27965775]", shape="box"] ;
632 -> 634 ;
635 [label="X[0] <= 0.5950\nmse = 0.000303745977253\nsamples = 3", shape="box"] ;
619 -> 635 ;
636 [label="mse = 0.0000\nsamples = 1\nvalue = [ 0.27651586]", shape="box"] ;
635 -> 636 ;
637 [label="X[0] <= 0.6150\nmse = 1.78110869173e-05\nsamples = 2", shape="box"] ;
635 -> 637 ;
638 [label="mse = 0.0000\nsamples = 1\nvalue = [ 0.2942416]", shape="box"] ;
637 -> 638 ;
639 [label="mse = 0.0000\nsamples = 1\nvalue = [ 0.30021003]", shape="box"] ;
637 -> 639 ;
640 [label="X[1] <= 0.2050\nmse = 0.00790206802875\nsamples = 8", shape="box"] ;
618 -> 640 ;
641 [label="X[1] <= 0.1950\nmse = 0.00232767926342\nsamples = 5", shape="box"] ;
640 -> 641 ;
642 [label="X[0] <= 0.7650\nmse = 0.000101916290155\nsamples = 2", shape="box"] ;
641 -> 642 ;
643 [label="mse = 0.0000\nsamples = 1\nvalue = [ 0.27028199]", shape="box"] ;
642 -> 643 ;
644 [label="mse = 0.0000\nsamples = 1\nvalue = [ 0.28455899]", shape="box"] ;
642 -> 644 ;
645 [label="X[0] <= 0.7450\nmse = 0.000782746952244\nsamples = 3", shape="box"] ;
641 -> 645 ;
646 [label="X[0] <= 0.7100\nmse = 5.8645686282e-05\nsamples = 2", shape="box"] ;
645 -> 646 ;
647 [label="mse = 0.0000\nsamples = 1\nvalue = [ 0.2956971]", shape="box"] ;
646 -> 647 ;
648 [label="mse = 0.0000\nsamples = 1\nvalue = [ 0.30652721]", shape="box"] ;
646 -> 648 ;
649 [label="mse = 0.0000\nsamples = 1\nvalue = [ 0.33406898]", shape="box"] ;
645 -> 649 ;
650 [label="X[0] <= 0.6950\nmse = 0.000333586611087\nsamples = 3", shape="box"] ;
640 -> 650 ;
651 [label="mse = 0.0000\nsamples = 1\nvalue = [ 0.33662545]", shape="box"] ;
650 -> 651 ;
652 [label="X[0] <= 0.7150\nmse = 1.95128024359e-05\nsamples = 2", shape="box"] ;
650 -> 652 ;
653 [label="mse = 0.0000\nsamples = 1\nvalue = [ 0.35520701]", shape="box"] ;
652 -> 653 ;
654 [label="mse = 0.0000\nsamples = 1\nvalue = [ 0.36145406]", shape="box"] ;
652 -> 654 ;
655 [label="X[1] <= 0.1950\nmse = 0.0578440206105\nsamples = 14", shape="box"] ;
617 -> 655 ;
656 [label="X[0] <= 0.9350\nmse = 0.0052014614205\nsamples = 7", shape="box"] ;
655 -> 656 ;
657 [label="X[0] <= 0.8600\nmse = 0.000730466643255\nsamples = 5", shape="box"] ;
656 -> 657 ;
658 [label="X[0] <= 0.8400\nmse = 4.88756838255e-05\nsamples = 2", shape="box"] ;
657 -> 658 ;
659 [label="mse = 0.0000\nsamples = 1\nvalue = [ 0.30885095]", shape="box"] ;
658 -> 659 ;
660 [label="mse = 0.0000\nsamples = 1\nvalue = [ 0.31873788]", shape="box"] ;
658 -> 660 ;
661 [label="X[0] <= 0.8900\nmse = 0.000119077671766\nsamples = 3", shape="box"] ;
657 -> 661 ;
662 [label="X[0] <= 0.8750\nmse = 1.26325519491e-05\nsamples = 2", shape="box"] ;
661 -> 662 ;
663 [label="mse = 0.0000\nsamples = 1\nvalue = [ 0.3287201]", shape="box"] ;
662 -> 663 ;
664 [label="mse = 0.0000\nsamples = 1\nvalue = [ 0.33374654]", shape="box"] ;
662 -> 664 ;
665 [label="mse = 0.0000\nsamples = 1\nvalue = [ 0.34386929]", shape="box"] ;
661 -> 665 ;
666 [label="X[0] <= 0.9750\nmse = 1.37957039761e-05\nsamples = 2", shape="box"] ;
656 -> 666 ;
667 [label="mse = 0.0000\nsamples = 1\nvalue = [ 0.38001589]", shape="box"] ;
666 -> 667 ;
668 [label="mse = 0.0000\nsamples = 1\nvalue = [ 0.38526864]", shape="box"] ;
666 -> 668 ;
669 [label="X[0] <= 0.9550\nmse = 0.0166059805872\nsamples = 7", shape="box"] ;
655 -> 669 ;
670 [label="X[0] <= 0.8400\nmse = 0.00322654621403\nsamples = 4", shape="box"] ;
669 -> 670 ;
671 [label="X[1] <= 0.2050\nmse = 0.00098461878553\nsamples = 2", shape="box"] ;
670 -> 671 ;
672 [label="mse = 0.0000\nsamples = 1\nvalue = [ 0.36796541]", shape="box"] ;
671 -> 672 ;
673 [label="mse = 0.0000\nsamples = 1\nvalue = [ 0.4123415]", shape="box"] ;
671 -> 673 ;
674 [label="X[1] <= 0.2050\nmse = 0.000171817852524\nsamples = 2", shape="box"] ;
670 -> 674 ;
675 [label="mse = 0.0000\nsamples = 1\nvalue = [ 0.4263832]", shape="box"] ;
674 -> 675 ;
676 [label="mse = 0.0000\nsamples = 1\nvalue = [ 0.44492062]", shape="box"] ;
674 -> 676 ;
677 [label="X[1] <= 0.2050\nmse = 0.00422892757442\nsamples = 3", shape="box"] ;
669 -> 677 ;
678 [label="X[0] <= 0.9850\nmse = 1.84488645024e-05\nsamples = 2", shape="box"] ;
677 -> 678 ;
679 [label="mse = 0.0000\nsamples = 1\nvalue = [ 0.45643523]", shape="box"] ;
678 -> 679 ;
680 [label="mse = 0.0000\nsamples = 1\nvalue = [ 0.46250958]", shape="box"] ;
678 -> 680 ;
681 [label="mse = 0.0000\nsamples = 1\nvalue = [ 0.5389439]", shape="box"] ;
677 -> 681 ;
682 [label="X[0] <= 0.3050\nmse = 166.677870618\nsamples = 1493", shape="box"] ;
0 -> 682 ;
683 [label="X[1] <= 0.3050\nmse = 16.2238394815\nsamples = 422", shape="box"] ;
682 -> 683 ;
684 [label="X[0] <= 0.1050\nmse = 0.505432660221\nsamples = 63", shape="box"] ;
683 -> 684 ;
685 [label="X[0] <= 0.0650\nmse = 0.0227013164925\nsamples = 23", shape="box"] ;
684 -> 685 ;
686 [label="X[0] <= 0.0150\nmse = 0.00316290174546\nsamples = 15", shape="box"] ;
685 -> 686 ;
687 [label="X[0] <= 0.0050\nmse = 0.000105583962946\nsamples = 3", shape="box"] ;
686 -> 687 ;
688 [label="mse = 0.0000\nsamples = 2\nvalue = [ 0.]", shape="box"] ;
687 -> 688 ;
689 [label="mse = 0.0000\nsamples = 1\nvalue = [ 0.01258475]", shape="box"] ;
687 -> 689 ;
690 [label="X[1] <= 0.2550\nmse = 0.00117401765993\nsamples = 12", shape="box"] ;
686 -> 690 ;
691 [label="X[0] <= 0.0350\nmse = 0.000199207225612\nsamples = 5", shape="box"] ;
690 -> 691 ;
692 [label="X[1] <= 0.2450\nmse = 4.95564389471e-06\nsamples = 2", shape="box"] ;
691 -> 692 ;
693 [label="mse = 0.0000\nsamples = 1\nvalue = [ 0.01799907]", shape="box"] ;
692 -> 693 ;
694 [label="mse = 0.0000\nsamples = 1\nvalue = [ 0.02114729]", shape="box"] ;
692 -> 694 ;
695 [label="X[1] <= 0.2350\nmse = 9.87461698694e-05\nsamples = 3", shape="box"] ;
691 -> 695 ;
696 [label="mse = 0.0000\nsamples = 1\nvalue = [ 0.02154712]", shape="box"] ;
695 -> 696 ;
697 [label="X[0] <= 0.0450\nmse = 2.63495709889e-05\nsamples = 2", shape="box"] ;
695 -> 697 ;
698 [label="mse = 0.0000\nsamples = 1\nvalue = [ 0.0283383]", shape="box"] ;
697 -> 698 ;
699 [label="mse = 0.0000\nsamples = 1\nvalue = [ 0.03559772]", shape="box"] ;
697 -> 699 ;
700 [label="X[0] <= 0.0350\nmse = 0.000520331092882\nsamples = 7", shape="box"] ;
690 -> 700 ;
701 [label="X[1] <= 0.2750\nmse = 5.69832760802e-05\nsamples = 4", shape="box"] ;
700 -> 701 ;
702 [label="mse = 0.0000\nsamples = 1\nvalue = [ 0.0286266]", shape="box"] ;
701 -> 702 ;
703 [label="X[1] <= 0.2950\nmse = 4.1141745275e-05\nsamples = 3", shape="box"] ;
701 -> 703 ;
704 [label="X[1] <= 0.2850\nmse = 1.17571406549e-05\nsamples = 2", shape="box"] ;
703 -> 704 ;
705 [label="mse = 0.0000\nsamples = 1\nvalue = [ 0.03301091]", shape="box"] ;
704 -> 705 ;
706 [label="mse = 0.0000\nsamples = 1\nvalue = [ 0.03786006]", shape="box"] ;
704 -> 706 ;
707 [label="mse = 0.0000\nsamples = 1\nvalue = [ 0.02879644]", shape="box"] ;
703 -> 707 ;
708 [label="X[1] <= 0.2750\nmse = 0.000197675558267\nsamples = 3", shape="box"] ;
700 -> 708 ;
709 [label="X[0] <= 0.0500\nmse = 0.000143313520715\nsamples = 2", shape="box"] ;
708 -> 709 ;
710 [label="mse = 0.0000\nsamples = 1\nvalue = [ 0.03304734]", shape="box"] ;
709 -> 710 ;
711 [label="mse = 0.0000\nsamples = 1\nvalue = [ 0.04997741]", shape="box"] ;
709 -> 711 ;
712 [label="mse = 0.0000\nsamples = 1\nvalue = [ 0.0505425]", shape="box"] ;
708 -> 712 ;
713 [label="X[1] <= 0.2800\nmse = 0.00514221340013\nsamples = 8", shape="box"] ;
685 -> 713 ;
714 [label="X[0] <= 0.0750\nmse = 0.000731405581009\nsamples = 5", shape="box"] ;
713 -> 714 ;
715 [label="X[1] <= 0.2500\nmse = 0.000121544842053\nsamples = 2", shape="box"] ;
714 -> 715 ;
716 [label="mse = 0.0000\nsamples = 1\nvalue = [ 0.04294577]", shape="box"] ;
715 -> 716 ;
717 [label="mse = 0.0000\nsamples = 1\nvalue = [ 0.0585371]", shape="box"] ;
715 -> 717 ;
718 [label="X[1] <= 0.2450\nmse = 0.000121542902366\nsamples = 3", shape="box"] ;
714 -> 718 ;
719 [label="mse = 0.0000\nsamples = 1\nvalue = [ 0.06232714]", shape="box"] ;
718 -> 719 ;
720 [label="X[1] <= 0.2600\nmse = 1.0942092325e-05\nsamples = 2", shape="box"] ;
718 -> 720 ;
721 [label="mse = 0.0000\nsamples = 1\nvalue = [ 0.07286838]", shape="box"] ;
720 -> 721 ;
722 [label="mse = 0.0000\nsamples = 1\nvalue = [ 0.07754643]", shape="box"] ;
720 -> 722 ;
723 [label="X[0] <= 0.0800\nmse = 0.000873122250144\nsamples = 3", shape="box"] ;
713 -> 723 ;
724 [label="X[1] <= 0.2950\nmse = 7.21503681637e-05\nsamples = 2", shape="box"] ;
723 -> 724 ;
725 [label="mse = 0.0000\nsamples = 1\nvalue = [ 0.0887216]", shape="box"] ;
724 -> 725 ;
726 [label="mse = 0.0000\nsamples = 1\nvalue = [ 0.10073412]", shape="box"] ;
724 -> 726 ;
727 [label="mse = 0.0000\nsamples = 1\nvalue = [ 0.12938991]", shape="box"] ;
723 -> 727 ;
728 [label="X[1] <= 0.2850\nmse = 0.198438356332\nsamples = 40", shape="box"] ;
684 -> 728 ;
729 [label="X[1] <= 0.2350\nmse = 0.0866779332454\nsamples = 32", shape="box"] ;
728 -> 729 ;
730 [label="X[0] <= 0.2350\nmse = 0.00779783790107\nsamples = 9", shape="box"] ;
729 -> 730 ;
731 [label="X[0] <= 0.1950\nmse = 0.00134493816286\nsamples = 5", shape="box"] ;
730 -> 731 ;
732 [label="X[0] <= 0.1700\nmse = 0.000215151608394\nsamples = 3", shape="box"] ;
731 -> 732 ;
733 [label="X[1] <= 0.2250\nmse = 2.36720987291e-05\nsamples = 2", shape="box"] ;
732 -> 733 ;
734 [label="mse = 0.0000\nsamples = 1\nvalue = [ 0.06884978]", shape="box"] ;
733 -> 734 ;
735 [label="mse = 0.0000\nsamples = 1\nvalue = [ 0.07573049]", shape="box"] ;
733 -> 735 ;
736 [label="mse = 0.0000\nsamples = 1\nvalue = [ 0.08923768]", shape="box"] ;
732 -> 736 ;
737 [label="X[1] <= 0.2250\nmse = 2.15705264562e-05\nsamples = 2", shape="box"] ;
731 -> 737 ;
738 [label="mse = 0.0000\nsamples = 1\nvalue = [ 0.10504459]", shape="box"] ;
737 -> 738 ;
739 [label="mse = 0.0000\nsamples = 1\nvalue = [ 0.11161277]", shape="box"] ;
737 -> 739 ;
740 [label="X[0] <= 0.2600\nmse = 0.000683935403338\nsamples = 4", shape="box"] ;
730 -> 740 ;
741 [label="mse = 0.0000\nsamples = 1\nvalue = [ 0.12127699]", shape="box"] ;
740 -> 741 ;
742 [label="X[1] <= 0.2250\nmse = 0.000162831901476\nsamples = 3", shape="box"] ;
740 -> 742 ;
743 [label="X[0] <= 0.2900\nmse = 6.40288153403e-05\nsamples = 2", shape="box"] ;
742 -> 743 ;
744 [label="mse = 0.0000\nsamples = 1\nvalue = [ 0.13792003]", shape="box"] ;
743 -> 744 ;
745 [label="mse = 0.0000\nsamples = 1\nvalue = [ 0.14923629]", shape="box"] ;
743 -> 745 ;
746 [label="mse = 0.0000\nsamples = 1\nvalue = [ 0.15575209]", shape="box"] ;
742 -> 746 ;
747 [label="X[0] <= 0.1750\nmse = 0.0475354317969\nsamples = 23", shape="box"] ;
729 -> 747 ;
748 [label="X[0] <= 0.1600\nmse = 0.000671101153831\nsamples = 6", shape="box"] ;
747 -> 748 ;
749 [label="X[1] <= 0.2750\nmse = 0.00039990913334\nsamples = 5", shape="box"] ;
748 -> 749 ;
750 [label="X[0] <= 0.1450\nmse = 4.71157064431e-05\nsamples = 3", shape="box"] ;
749 -> 750 ;
751 [label="X[1] <= 0.2650\nmse = 2.93723094861e-05\nsamples = 2", shape="box"] ;
750 -> 751 ;
752 [label="mse = 0.0000\nsamples = 1\nvalue = [ 0.1200435]", shape="box"] ;
751 -> 752 ;
753 [label="mse = 0.0000\nsamples = 1\nvalue = [ 0.127708]", shape="box"] ;
751 -> 753 ;
754 [label="mse = 0.0000\nsamples = 1\nvalue = [ 0.12903473]", shape="box"] ;
750 -> 754 ;
755 [label="X[0] <= 0.1200\nmse = 0.000259999253086\nsamples = 2", shape="box"] ;
749 -> 755 ;
756 [label="mse = 0.0000\nsamples = 1\nvalue = [ 0.12298734]", shape="box"] ;
755 -> 756 ;
757 [label="mse = 0.0000\nsamples = 1\nvalue = [ 0.14579081]", shape="box"] ;
755 -> 757 ;
758 [label="mse = 0.0000\nsamples = 1\nvalue = [ 0.14715257]", shape="box"] ;
748 -> 758 ;
759 [label="X[1] <= 0.2450\nmse = 0.0263826006125\nsamples = 17", shape="box"] ;
747 -> 759 ;
760 [label="X[0] <= 0.2650\nmse = 0.00282193451332\nsamples = 4", shape="box"] ;
759 -> 760 ;
761 [label="X[0] <= 0.2050\nmse = 0.000651207673984\nsamples = 3", shape="box"] ;
760 -> 761 ;
762 [label="mse = 0.0000\nsamples = 1\nvalue = [ 0.12360852]", shape="box"] ;
761 -> 762 ;
763 [label="X[0] <= 0.2300\nmse = 0.000105005683898\nsamples = 2", shape="box"] ;
761 -> 763 ;
764 [label="mse = 0.0000\nsamples = 1\nvalue = [ 0.14498611]", shape="box"] ;
763 -> 764 ;
765 [label="mse = 0.0000\nsamples = 1\nvalue = [ 0.15947787]", shape="box"] ;
763 -> 765 ;
766 [label="mse = 0.0000\nsamples = 1\nvalue = [ 0.19648956]", shape="box"] ;
760 -> 766 ;
767 [label="X[0] <= 0.2450\nmse = 0.0134624138046\nsamples = 13", shape="box"] ;
759 -> 767 ;
768 [label="X[1] <= 0.2750\nmse = 0.0026768881448\nsamples = 8", shape="box"] ;
767 -> 768 ;
769 [label="X[1] <= 0.2650\nmse = 0.00034918166317\nsamples = 5", shape="box"] ;
768 -> 769 ;
770 [label="X[0] <= 0.2100\nmse = 0.000171700222893\nsamples = 3", shape="box"] ;
769 -> 770 ;
771 [label="mse = 0.0000\nsamples = 1\nvalue = [ 0.1746415]", shape="box"] ;
770 -> 771 ;
772 [label="X[1] <= 0.2550\nmse = 3.67248011758e-05\nsamples = 2", shape="box"] ;
770 -> 772 ;
773 [label="mse = 0.0000\nsamples = 1\nvalue = [ 0.18458531]", shape="box"] ;
772 -> 773 ;
774 [label="mse = 0.0000\nsamples = 1\nvalue = [ 0.19315559]", shape="box"] ;
772 -> 774 ;
775 [label="X[0] <= 0.1950\nmse = 5.34113241591e-05\nsamples = 2", shape="box"] ;
769 -> 775 ;
776 [label="mse = 0.0000\nsamples = 1\nvalue = [ 0.18912789]", shape="box"] ;
775 -> 776 ;
777 [label="mse = 0.0000\nsamples = 1\nvalue = [ 0.19946339]", shape="box"] ;
775 -> 777 ;
778 [label="X[0] <= 0.2000\nmse = 0.000616107507632\nsamples = 3", shape="box"] ;
768 -> 778 ;
779 [label="X[0] <= 0.1850\nmse = 6.59824389469e-05\nsamples = 2", shape="box"] ;
778 -> 779 ;
780 [label="mse = 0.0000\nsamples = 1\nvalue = [ 0.20308903]", shape="box"] ;
779 -> 780 ;
781 [label="mse = 0.0000\nsamples = 1\nvalue = [ 0.21457663]", shape="box"] ;
779 -> 781 ;
782 [label="mse = 0.0000\nsamples = 1\nvalue = [ 0.23755891]", shape="box"] ;
778 -> 782 ;
783 [label="X[1] <= 0.2650\nmse = 0.00666602729481\nsamples = 5", shape="box"] ;
767 -> 783 ;
784 [label="X[1] <= 0.2550\nmse = 0.000782322205194\nsamples = 3", shape="box"] ;
783 -> 784 ;
785 [label="X[0] <= 0.2550\nmse = 3.49890840678e-05\nsamples = 2", shape="box"] ;
784 -> 785 ;
786 [label="mse = 0.0000\nsamples = 1\nvalue = [ 0.19291143]", shape="box"] ;
785 -> 786 ;
787 [label="mse = 0.0000\nsamples = 1\nvalue = [ 0.20127672]", shape="box"] ;
785 -> 787 ;
788 [label="mse = 0.0000\nsamples = 1\nvalue = [ 0.23057541]", shape="box"] ;
784 -> 788 ;
789 [label="X[1] <= 0.2750\nmse = 6.21981668001e-05\nsamples = 2", shape="box"] ;
783 -> 789 ;
790 [label="mse = 0.0000\nsamples = 1\nvalue = [ 0.27232882]", shape="box"] ;
789 -> 790 ;
791 [label="mse = 0.0000\nsamples = 1\nvalue = [ 0.28348213]", shape="box"] ;
789 -> 791 ;
792 [label="X[0] <= 0.2050\nmse = 0.0368962220047\nsamples = 8", shape="box"] ;
728 -> 792 ;
793 [label="X[0] <= 0.1600\nmse = 0.00887075103939\nsamples = 5", shape="box"] ;
792 -> 793 ;
794 [label="X[0] <= 0.1250\nmse = 0.000100380333614\nsamples = 2", shape="box"] ;
793 -> 794 ;
795 [label="mse = 0.0000\nsamples = 1\nvalue = [ 0.1721363]", shape="box"] ;
794 -> 795 ;
796 [label="mse = 0.0000\nsamples = 1\nvalue = [ 0.1863053]", shape="box"] ;
794 -> 796 ;
797 [label="X[1] <= 0.2950\nmse = 0.000943571508257\nsamples = 3", shape="box"] ;
793 -> 797 ;
798 [label="X[0] <= 0.1950\nmse = 7.99341068428e-05\nsamples = 2", shape="box"] ;
797 -> 798 ;
799 [label="mse = 0.0000\nsamples = 1\nvalue = [ 0.24166233]", shape="box"] ;
798 -> 799 ;
800 [label="mse = 0.0000\nsamples = 1\nvalue = [ 0.25430623]", shape="box"] ;
798 -> 800 ;
801 [label="mse = 0.0000\nsamples = 1\nvalue = [ 0.28397672]", shape="box"] ;
797 -> 801 ;
802 [label="X[0] <= 0.2350\nmse = 0.00308462124643\nsamples = 3", shape="box"] ;
792 -> 802 ;
803 [label="mse = 0.0000\nsamples = 1\nvalue = [ 0.29767079]", shape="box"] ;
802 -> 803 ;
804 [label="X[1] <= 0.2950\nmse = 1.05286902974e-06\nsamples = 2", shape="box"] ;
802 -> 804 ;
805 [label="mse = 0.0000\nsamples = 1\nvalue = [ 0.36640629]", shape="box"] ;
804 -> 805 ;
806 [label="mse = 0.0000\nsamples = 1\nvalue = [ 0.36495517]", shape="box"] ;
804 -> 806 ;
807 [label="X[0] <= 0.0050\nmse = 14.2872665353\nsamples = 359", shape="box"] ;
683 -> 807 ;
808 [label="mse = 0.0000\nsamples = 11\nvalue = [ 0.]", shape="box"] ;
807 -> 808 ;
809 [label="X[1] <= 0.5150\nmse = 13.2871383754\nsamples = 348", shape="box"] ;
807 -> 809 ;
810 [label="X[0] <= 0.0550\nmse = 2.90951792183\nsamples = 97", shape="box"] ;
809 -> 810 ;
811 [label="X[1] <= 0.4750\nmse = 0.23861608627\nsamples = 22", shape="box"] ;
810 -> 811 ;
812 [label="X[1] <= 0.3850\nmse = 0.0644247704098\nsamples = 18", shape="box"] ;
811 -> 812 ;
813 [label="X[0] <= 0.0350\nmse = 0.0124444094675\nsamples = 8", shape="box"] ;
812 -> 813 ;
814 [label="X[0] <= 0.0250\nmse = 0.00397927648458\nsamples = 6", shape="box"] ;
813 -> 814 ;
815 [label="X[1] <= 0.3700\nmse = 0.00102180301946\nsamples = 3", shape="box"] ;
814 -> 815 ;
816 [label="X[1] <= 0.3400\nmse = 2.83098154921e-05\nsamples = 2", shape="box"] ;
815 -> 816 ;
817 [label="mse = 0.0000\nsamples = 1\nvalue = [ 0.03706709]", shape="box"] ;
816 -> 817 ;
818 [label="mse = 0.0000\nsamples = 1\nvalue = [ 0.02954249]", shape="box"] ;
816 -> 818 ;
819 [label="mse = 0.0000\nsamples = 1\nvalue = [ 0.07190842]", shape="box"] ;
815 -> 819 ;
820 [label="X[1] <= 0.3650\nmse = 0.000725260889431\nsamples = 3", shape="box"] ;
814 -> 820 ;
821 [label="X[1] <= 0.3450\nmse = 3.31026489471e-05\nsamples = 2", shape="box"] ;
820 -> 821 ;
822 [label="mse = 0.0000\nsamples = 1\nvalue = [ 0.06994021]", shape="box"] ;
821 -> 822 ;
823 [label="mse = 0.0000\nsamples = 1\nvalue = [ 0.07807688]", shape="box"] ;
821 -> 823 ;
824 [label="mse = 0.0000\nsamples = 1\nvalue = [ 0.10623024]", shape="box"] ;
820 -> 824 ;
825 [label="X[1] <= 0.3700\nmse = 2.45046384186e-06\nsamples = 2", shape="box"] ;
813 -> 825 ;
826 [label="mse = 0.0000\nsamples = 1\nvalue = [ 0.14167963]", shape="box"] ;
825 -> 826 ;
827 [label="mse = 0.0000\nsamples = 1\nvalue = [ 0.13946583]", shape="box"] ;
825 -> 827 ;
828 [label="X[0] <= 0.0250\nmse = 0.0264074482313\nsamples = 10", shape="box"] ;
812 -> 828 ;
829 [label="X[0] <= 0.0150\nmse = 0.00399723141055\nsamples = 4", shape="box"] ;
828 -> 829 ;
830 [label="mse = 0.0000\nsamples = 1\nvalue = [ 0.07007263]", shape="box"] ;
829 -> 830 ;
831 [label="X[1] <= 0.4550\nmse = 0.00141573402381\nsamples = 3", shape="box"] ;
829 -> 831 ;
832 [label="X[1] <= 0.4300\nmse = 0.000190032742041\nsamples = 2", shape="box"] ;
831 -> 832 ;
833 [label="mse = 0.0000\nsamples = 1\nvalue = [ 0.10470074]", shape="box"] ;
832 -> 833 ;
834 [label="mse = 0.0000\nsamples = 1\nvalue = [ 0.12419601]", shape="box"] ;
832 -> 834 ;
835 [label="mse = 0.0000\nsamples = 1\nvalue = [ 0.15732672]", shape="box"] ;
831 -> 835 ;
836 [label="X[0] <= 0.0450\nmse = 0.00829169580333\nsamples = 6", shape="box"] ;
828 -> 836 ;
837 [label="X[1] <= 0.4450\nmse = 0.00251032294078\nsamples = 4", shape="box"] ;
836 -> 837 ;
838 [label="X[0] <= 0.0350\nmse = 0.000904166151401\nsamples = 3", shape="box"] ;
837 -> 838 ;
839 [label="X[1] <= 0.4200\nmse = 0.000332791224395\nsamples = 2", shape="box"] ;
838 -> 839 ;
840 [label="mse = 0.0000\nsamples = 1\nvalue = [ 0.14015747]", shape="box"] ;
839 -> 840 ;
841 [label="mse = 0.0000\nsamples = 1\nvalue = [ 0.16595635]", shape="box"] ;
839 -> 841 ;
842 [label="mse = 0.0000\nsamples = 1\nvalue = [ 0.18233254]", shape="box"] ;
838 -> 842 ;
843 [label="mse = 0.0000\nsamples = 1\nvalue = [ 0.20909225]", shape="box"] ;
837 -> 843 ;
844 [label="X[1] <= 0.4100\nmse = 0.0025584779074\nsamples = 2", shape="box"] ;
836 -> 844 ;
845 [label="mse = 0.0000\nsamples = 1\nvalue = [ 0.18778294]", shape="box"] ;
844 -> 845 ;
846 [label="mse = 0.0000\nsamples = 1\nvalue = [ 0.25931584]", shape="box"] ;
844 -> 846 ;
847 [label="X[1] <= 0.4900\nmse = 0.00445713145473\nsamples = 4", shape="box"] ;
811 -> 847 ;
848 [label="X[0] <= 0.0450\nmse = 0.0014967779431\nsamples = 2", shape="box"] ;
847 -> 848 ;
849 [label="mse = 0.0000\nsamples = 1\nvalue = [ 0.30305917]", shape="box"] ;
848 -> 849 ;
850 [label="mse = 0.0000\nsamples = 1\nvalue = [ 0.35777257]", shape="box"] ;
848 -> 850 ;
851 [label="X[1] <= 0.5050\nmse = 0.000713716315011\nsamples = 2", shape="box"] ;
847 -> 851 ;
852 [label="mse = 0.0000\nsamples = 1\nvalue = [ 0.39670526]", shape="box"] ;
851 -> 852 ;
853 [label="mse = 0.0000\nsamples = 1\nvalue = [ 0.35892388]", shape="box"] ;
851 -> 853 ;
854 [label="X[0] <= 0.1500\nmse = 1.276949461\nsamples = 75", shape="box"] ;
810 -> 854 ;
855 [label="X[1] <= 0.4150\nmse = 0.455963143914\nsamples = 26", shape="box"] ;
854 -> 855 ;
856 [label="X[1] <= 0.3350\nmse = 0.0334439817958\nsamples = 11", shape="box"] ;
855 -> 856 ;
857 [label="X[0] <= 0.0950\nmse = 0.00204267157505\nsamples = 4", shape="box"] ;
856 -> 857 ;
858 [label="X[1] <= 0.3250\nmse = 0.000188740202592\nsamples = 3", shape="box"] ;
857 -> 858 ;
859 [label="mse = 0.0000\nsamples = 2\nvalue = [ 0.14564797]", shape="box"] ;
858 -> 859 ;
860 [label="mse = 0.0000\nsamples = 1\nvalue = [ 0.16247344]", shape="box"] ;
858 -> 860 ;
861 [label="mse = 0.0000\nsamples = 1\nvalue = [ 0.20097475]", shape="box"] ;
857 -> 861 ;
862 [label="X[0] <= 0.0650\nmse = 0.0081568874788\nsamples = 7", shape="box"] ;
856 -> 862 ;
863 [label="mse = 0.0000\nsamples = 1\nvalue = [ 0.20268988]", shape="box"] ;
862 -> 863 ;
864 [label="X[1] <= 0.3550\nmse = 0.00442517279229\nsamples = 6", shape="box"] ;
862 -> 864 ;
865 [label="X[1] <= 0.3450\nmse = 0.000249884354561\nsamples = 2", shape="box"] ;
864 -> 865 ;
866 [label="mse = 0.0000\nsamples = 1\nvalue = [ 0.22234289]", shape="box"] ;
865 -> 866 ;
867 [label="mse = 0.0000\nsamples = 1\nvalue = [ 0.2446984]", shape="box"] ;
865 -> 867 ;
868 [label="X[1] <= 0.3650\nmse = 0.000468391434467\nsamples = 4", shape="box"] ;
864 -> 868 ;
869 [label="mse = 0.0000\nsamples = 1\nvalue = [ 0.26791427]", shape="box"] ;
868 -> 869 ;
870 [label="X[1] <= 0.3950\nmse = 2.02244019059e-05\nsamples = 3", shape="box"] ;
868 -> 870 ;
871 [label="X[1] <= 0.3750\nmse = 2.78871699014e-06\nsamples = 2", shape="box"] ;
870 -> 871 ;
872 [label="mse = 0.0000\nsamples = 1\nvalue = [ 0.29183537]", shape="box"] ;
871 -> 872 ;
873 [label="mse = 0.0000\nsamples = 1\nvalue = [ 0.28947371]", shape="box"] ;
871 -> 873 ;
874 [label="mse = 0.0000\nsamples = 1\nvalue = [ 0.29576859]", shape="box"] ;
870 -> 874 ;
875 [label="X[0] <= 0.0850\nmse = 0.0437884372527\nsamples = 15", shape="box"] ;
855 -> 875 ;
876 [label="X[1] <= 0.4800\nmse = 0.0167493116745\nsamples = 8", shape="box"] ;
875 -> 876 ;
877 [label="X[1] <= 0.4400\nmse = 0.00750464131923\nsamples = 5", shape="box"] ;
876 -> 877 ;
878 [label="mse = 0.0000\nsamples = 1\nvalue = [ 0.3524025]", shape="box"] ;
877 -> 878 ;
879 [label="X[0] <= 0.0750\nmse = 0.0035324735923\nsamples = 4", shape="box"] ;
877 -> 879 ;
880 [label="X[1] <= 0.4650\nmse = 0.000203598271072\nsamples = 2", shape="box"] ;
879 -> 880 ;
881 [label="mse = 0.0000\nsamples = 1\nvalue = [ 0.40497503]", shape="box"] ;
880 -> 881 ;
882 [label="mse = 0.0000\nsamples = 1\nvalue = [ 0.38479592]", shape="box"] ;
880 -> 882 ;
883 [label="X[1] <= 0.4650\nmse = 0.00019707083142\nsamples = 2", shape="box"] ;
879 -> 883 ;
884 [label="mse = 0.0000\nsamples = 1\nvalue = [ 0.4409215]", shape="box"] ;
883 -> 884 ;
885 [label="mse = 0.0000\nsamples = 1\nvalue = [ 0.4607745]", shape="box"] ;
883 -> 885 ;
886 [label="X[0] <= 0.0650\nmse = 0.00145734814077\nsamples = 3", shape="box"] ;
876 -> 886 ;
887 [label="mse = 0.0000\nsamples = 1\nvalue = [ 0.44325404]", shape="box"] ;
886 -> 887 ;
888 [label="X[1] <= 0.4950\nmse = 0.000110453248906\nsamples = 2", shape="box"] ;
886 -> 888 ;
889 [label="mse = 0.0000\nsamples = 1\nvalue = [ 0.49563372]", shape="box"] ;
888 -> 889 ;
890 [label="mse = 0.0000\nsamples = 1\nvalue = [ 0.48077079]", shape="box"] ;
888 -> 890 ;
891 [label="X[1] <= 0.4850\nmse = 0.00500867055352\nsamples = 7", shape="box"] ;
875 -> 891 ;
892 [label="X[1] <= 0.4700\nmse = 0.000772691849708\nsamples = 4", shape="box"] ;
891 -> 892 ;
893 [label="X[0] <= 0.0950\nmse = 0.000377181585501\nsamples = 3", shape="box"] ;
892 -> 893 ;
894 [label="mse = 0.0000\nsamples = 1\nvalue = [ 0.47217232]", shape="box"] ;
893 -> 894 ;
895 [label="X[1] <= 0.4550\nmse = 0.000172847740368\nsamples = 2", shape="box"] ;
893 -> 895 ;
896 [label="mse = 0.0000\nsamples = 1\nvalue = [ 0.48038304]", shape="box"] ;
895 -> 896 ;
897 [label="mse = 0.0000\nsamples = 1\nvalue = [ 0.49897593]", shape="box"] ;
895 -> 897 ;
898 [label="mse = 0.0000\nsamples = 1\nvalue = [ 0.5068078]", shape="box"] ;
892 -> 898 ;
899 [label="X[1] <= 0.5000\nmse = 0.000437293706316\nsamples = 3", shape="box"] ;
891 -> 899 ;
900 [label="mse = 0.0000\nsamples = 1\nvalue = [ 0.52063142]", shape="box"] ;
899 -> 900 ;
901 [label="X[0] <= 0.0950\nmse = 5.20114683351e-05\nsamples = 2", shape="box"] ;
899 -> 901 ;
902 [label="mse = 0.0000\nsamples = 1\nvalue = [ 0.53957188]", shape="box"] ;
901 -> 902 ;
903 [label="mse = 0.0000\nsamples = 1\nvalue = [ 0.54977104]", shape="box"] ;
901 -> 903 ;
904 [label="X[1] <= 0.4850\nmse = 0.508474339742\nsamples = 49", shape="box"] ;
854 -> 904 ;
905 [label="X[1] <= 0.3350\nmse = 0.265197470204\nsamples = 44", shape="box"] ;
904 -> 905 ;
906 [label="X[0] <= 0.2350\nmse = 0.0262089706622\nsamples = 9", shape="box"] ;
905 -> 906 ;
907 [label="X[0] <= 0.2150\nmse = 0.000106112542866\nsamples = 2", shape="box"] ;
906 -> 907 ;
908 [label="mse = 0.0000\nsamples = 1\nvalue = [ 0.32951291]", shape="box"] ;
907 -> 908 ;
909 [label="mse = 0.0000\nsamples = 1\nvalue = [ 0.34408086]", shape="box"] ;
907 -> 909 ;
910 [label="X[1] <= 0.3150\nmse = 0.0057035382197\nsamples = 7", shape="box"] ;
906 -> 910 ;
911 [label="X[0] <= 0.2700\nmse = 0.00264549008576\nsamples = 3", shape="box"] ;
910 -> 911 ;
912 [label="mse = 0.0000\nsamples = 1\nvalue = [ 0.38697814]", shape="box"] ;
911 -> 912 ;
913 [label="X[0] <= 0.2950\nmse = 9.01069654674e-05\nsamples = 2", shape="box"] ;
911 -> 913 ;
914 [label="mse = 0.0000\nsamples = 1\nvalue = [ 0.44217778]", shape="box"] ;
913 -> 914 ;
915 [label="mse = 0.0000\nsamples = 1\nvalue = [ 0.45560216]", shape="box"] ;
913 -> 915 ;
916 [label="X[0] <= 0.2550\nmse = 0.000266313436083\nsamples = 4", shape="box"] ;
910 -> 916 ;
917 [label="mse = 0.0000\nsamples = 1\nvalue = [ 0.45733801]", shape="box"] ;
916 -> 917 ;
918 [label="X[0] <= 0.2850\nmse = 9.6977570869e-05\nsamples = 3", shape="box"] ;
916 -> 918 ;
919 [label="X[1] <= 0.3250\nmse = 2.27542551596e-05\nsamples = 2", shape="box"] ;
918 -> 919 ;
920 [label="mse = 0.0000\nsamples = 1\nvalue = [ 0.46547385]", shape="box"] ;
919 -> 920 ;
921 [label="mse = 0.0000\nsamples = 1\nvalue = [ 0.47221985]", shape="box"] ;
919 -> 921 ;
922 [label="mse = 0.0000\nsamples = 1\nvalue = [ 0.47939838]", shape="box"] ;
918 -> 922 ;
923 [label="X[1] <= 0.4550\nmse = 0.130185584108\nsamples = 35", shape="box"] ;
905 -> 923 ;
924 [label="X[1] <= 0.3750\nmse = 0.0561184410125\nsamples = 26", shape="box"] ;
923 -> 924 ;
925 [label="X[0] <= 0.2350\nmse = 0.0150441359831\nsamples = 11", shape="box"] ;
924 -> 925 ;
926 [label="X[1] <= 0.3600\nmse = 0.00365944171792\nsamples = 5", shape="box"] ;
925 -> 926 ;
927 [label="X[0] <= 0.2250\nmse = 0.000129402767514\nsamples = 2", shape="box"] ;
926 -> 927 ;
928 [label="mse = 0.0000\nsamples = 1\nvalue = [ 0.47603192]", shape="box"] ;
927 -> 928 ;
929 [label="mse = 0.0000\nsamples = 1\nvalue = [ 0.49211936]", shape="box"] ;
927 -> 929 ;
930 [label="X[0] <= 0.2100\nmse = 0.00117924134709\nsamples = 3", shape="box"] ;
926 -> 930 ;
931 [label="mse = 0.0000\nsamples = 1\nvalue = [ 0.50168233]", shape="box"] ;
930 -> 931 ;
932 [label="X[0] <= 0.2250\nmse = 0.000113597034297\nsamples = 2", shape="box"] ;
930 -> 932 ;
933 [label="mse = 0.0000\nsamples = 1\nvalue = [ 0.53412667]", shape="box"] ;
932 -> 933 ;
934 [label="mse = 0.0000\nsamples = 1\nvalue = [ 0.54919963]", shape="box"] ;
932 -> 934 ;
935 [label="X[1] <= 0.3450\nmse = 0.00307873551043\nsamples = 6", shape="box"] ;
925 -> 935 ;
936 [label="X[0] <= 0.2850\nmse = 0.000851659726795\nsamples = 2", shape="box"] ;
935 -> 936 ;
937 [label="mse = 0.0000\nsamples = 1\nvalue = [ 0.52050419]", shape="box"] ;
936 -> 937 ;
938 [label="mse = 0.0000\nsamples = 1\nvalue = [ 0.56177548]", shape="box"] ;
936 -> 938 ;
939 [label="X[1] <= 0.3650\nmse = 0.000400011578155\nsamples = 4", shape="box"] ;
935 -> 939 ;
940 [label="X[1] <= 0.3550\nmse = 0.000114216391085\nsamples = 3", shape="box"] ;
939 -> 940 ;
941 [label="mse = 0.0000\nsamples = 1\nvalue = [ 0.57832719]", shape="box"] ;
940 -> 941 ;
942 [label="X[0] <= 0.2750\nmse = 8.09349196291e-05\nsamples = 2", shape="box"] ;
940 -> 942 ;
943 [label="mse = 0.0000\nsamples = 1\nvalue = [ 0.57903135]", shape="box"] ;
942 -> 943 ;
944 [label="mse = 0.0000\nsamples = 1\nvalue = [ 0.59175416]", shape="box"] ;
942 -> 944 ;
945 [label="mse = 0.0000\nsamples = 1\nvalue = [ 0.5635168]", shape="box"] ;
939 -> 945 ;
946 [label="X[1] <= 0.4450\nmse = 0.0209368494823\nsamples = 15", shape="box"] ;
924 -> 946 ;
947 [label="X[0] <= 0.2100\nmse = 0.00795711862966\nsamples = 13", shape="box"] ;
946 -> 947 ;
948 [label="X[1] <= 0.3950\nmse = 0.000190412067137\nsamples = 2", shape="box"] ;
947 -> 948 ;
949 [label="mse = 0.0000\nsamples = 1\nvalue = [ 0.55138926]", shape="box"] ;
948 -> 949 ;
950 [label="mse = 0.0000\nsamples = 1\nvalue = [ 0.57090398]", shape="box"] ;
948 -> 950 ;
951 [label="X[1] <= 0.4250\nmse = 0.00289145905012\nsamples = 11", shape="box"] ;
947 -> 951 ;
952 [label="X[0] <= 0.2800\nmse = 0.00127711851811\nsamples = 8", shape="box"] ;
951 -> 952 ;
953 [label="X[0] <= 0.2350\nmse = 0.000356545830391\nsamples = 6", shape="box"] ;
952 -> 953 ;
954 [label="mse = 0.0000\nsamples = 1\nvalue = [ 0.60553049]", shape="box"] ;
953 -> 954 ;
955 [label="X[1] <= 0.3950\nmse = 0.000230449167468\nsamples = 5", shape="box"] ;
953 -> 955 ;
956 [label="X[1] <= 0.3850\nmse = 8.55499376606e-06\nsamples = 2", shape="box"] ;
955 -> 956 ;
957 [label="mse = 0.0000\nsamples = 1\nvalue = [ 0.60915747]", shape="box"] ;
956 -> 957 ;
958 [label="mse = 0.0000\nsamples = 1\nvalue = [ 0.6132939]", shape="box"] ;
956 -> 958 ;
959 [label="X[1] <= 0.4100\nmse = 7.643593169e-05\nsamples = 3", shape="box"] ;
955 -> 959 ;
960 [label="mse = 0.0000\nsamples = 1\nvalue = [ 0.6293155]", shape="box"] ;
959 -> 960 ;
961 [label="X[0] <= 0.2550\nmse = 1.24558770476e-06\nsamples = 2", shape="box"] ;
959 -> 961 ;
962 [label="mse = 0.0000\nsamples = 1\nvalue = [ 0.61790627]", shape="box"] ;
961 -> 962 ;
963 [label="mse = 0.0000\nsamples = 1\nvalue = [ 0.61948462]", shape="box"] ;
961 -> 963 ;
964 [label="X[1] <= 0.4050\nmse = 7.8296839883e-05\nsamples = 2", shape="box"] ;
952 -> 964 ;
965 [label="mse = 0.0000\nsamples = 1\nvalue = [ 0.6457346]", shape="box"] ;
964 -> 965 ;
966 [label="mse = 0.0000\nsamples = 1\nvalue = [ 0.63322086]", shape="box"] ;
964 -> 966 ;
967 [label="X[0] <= 0.2250\nmse = 0.000223645831894\nsamples = 3", shape="box"] ;
951 -> 967 ;
968 [label="mse = 0.0000\nsamples = 1\nvalue = [ 0.60750903]", shape="box"] ;
967 -> 968 ;
969 [label="X[1] <= 0.4350\nmse = 4.04792842246e-05\nsamples = 2", shape="box"] ;
967 -> 969 ;
970 [label="mse = 0.0000\nsamples = 1\nvalue = [ 0.5864346]", shape="box"] ;
969 -> 970 ;
971 [label="mse = 0.0000\nsamples = 1\nvalue = [ 0.5954323]", shape="box"] ;
969 -> 971 ;
972 [label="X[0] <= 0.2600\nmse = 0.00418399182937\nsamples = 2", shape="box"] ;
946 -> 972 ;
973 [label="mse = 0.0000\nsamples = 1\nvalue = [ 0.58106559]", shape="box"] ;
972 -> 973 ;
974 [label="mse = 0.0000\nsamples = 1\nvalue = [ 0.48958891]", shape="box"] ;
972 -> 974 ;
975 [label="X[0] <= 0.2700\nmse = 0.0153998501759\nsamples = 9", shape="box"] ;
923 -> 975 ;
976 [label="X[0] <= 0.2250\nmse = 0.00767758387889\nsamples = 7", shape="box"] ;
975 -> 976 ;
977 [label="X[1] <= 0.4700\nmse = 0.00135417341943\nsamples = 2", shape="box"] ;
976 -> 977 ;
978 [label="mse = 0.0000\nsamples = 1\nvalue = [ 0.55672496]", shape="box"] ;
977 -> 978 ;
979 [label="mse = 0.0000\nsamples = 1\nvalue = [ 0.50468318]", shape="box"] ;
977 -> 979 ;
980 [label="X[1] <= 0.4750\nmse = 0.00276381645542\nsamples = 5", shape="box"] ;
976 -> 980 ;
981 [label="X[0] <= 0.2400\nmse = 0.00068488985507\nsamples = 3", shape="box"] ;
980 -> 981 ;
982 [label="mse = 0.0000\nsamples = 1\nvalue = [ 0.50992493]", shape="box"] ;
981 -> 982 ;
983 [label="X[1] <= 0.4650\nmse = 0.000417310907315\nsamples = 2", shape="box"] ;
981 -> 983 ;
984 [label="mse = 0.0000\nsamples = 1\nvalue = [ 0.50433566]", shape="box"] ;
983 -> 984 ;
985 [label="mse = 0.0000\nsamples = 1\nvalue = [ 0.47544584]", shape="box"] ;
983 -> 985 ;
986 [label="X[0] <= 0.2350\nmse = 0.000210930220159\nsamples = 2", shape="box"] ;
980 -> 986 ;
987 [label="mse = 0.0000\nsamples = 1\nvalue = [ 0.46738386]", shape="box"] ;
986 -> 987 ;
988 [label="mse = 0.0000\nsamples = 1\nvalue = [ 0.44684462]", shape="box"] ;
986 -> 988 ;
989 [label="X[1] <= 0.4650\nmse = 0.000162274087555\nsamples = 2", shape="box"] ;
975 -> 989 ;
990 [label="mse = 0.0000\nsamples = 1\nvalue = [ 0.43434295]", shape="box"] ;
989 -> 990 ;
991 [label="mse = 0.0000\nsamples = 1\nvalue = [ 0.41632773]", shape="box"] ;
989 -> 991 ;
992 [label="X[0] <= 0.2600\nmse = 0.0180249426233\nsamples = 5", shape="box"] ;
904 -> 992 ;
993 [label="X[1] <= 0.5000\nmse = 0.000481449902697\nsamples = 2", shape="box"] ;
992 -> 993 ;
994 [label="mse = 0.0000\nsamples = 1\nvalue = [ 0.37047794]", shape="box"] ;
993 -> 994 ;
995 [label="mse = 0.0000\nsamples = 1\nvalue = [ 0.33944732]", shape="box"] ;
993 -> 995 ;
996 [label="X[1] <= 0.5000\nmse = 0.0074525797477\nsamples = 3", shape="box"] ;
992 -> 996 ;
997 [label="X[0] <= 0.2800\nmse = 0.0012450772182\nsamples = 2", shape="box"] ;
996 -> 997 ;
998 [label="mse = 0.0000\nsamples = 1\nvalue = [ 0.32037719]", shape="box"] ;
997 -> 998 ;
999 [label="mse = 0.0000\nsamples = 1\nvalue = [ 0.27047574]", shape="box"] ;
997 -> 999 ;
1000 [label="mse = 0.0000\nsamples = 1\nvalue = [ 0.19893162]", shape="box"] ;
996 -> 1000 ;
1001 [label="X[0] <= 0.0550\nmse = 9.45413160283\nsamples = 251", shape="box"] ;
809 -> 1001 ;
1002 [label="X[1] <= 0.7950\nmse = 1.41134185111\nsamples = 51", shape="box"] ;
1001 -> 1002 ;
1003 [label="X[1] <= 0.5600\nmse = 0.286343037114\nsamples = 28", shape="box"] ;
1002 -> 1003 ;
1004 [label="X[0] <= 0.0250\nmse = 0.0680260922172\nsamples = 7", shape="box"] ;
1003 -> 1004 ;
1005 [label="X[1] <= 0.5450\nmse = 0.00573735981249\nsamples = 3", shape="box"] ;
1004 -> 1005 ;
1006 [label="X[1] <= 0.5300\nmse = 0.000412721694401\nsamples = 2", shape="box"] ;
1005 -> 1006 ;
1007 [label="mse = 0.0000\nsamples = 1\nvalue = [ 0.22215325]", shape="box"] ;
1006 -> 1007 ;
1008 [label="mse = 0.0000\nsamples = 1\nvalue = [ 0.25088378]", shape="box"] ;
1006 -> 1008 ;
1009 [label="mse = 0.0000\nsamples = 1\nvalue = [ 0.14714874]", shape="box"] ;
1005 -> 1009 ;
1010 [label="X[0] <= 0.0350\nmse = 0.0120177377385\nsamples = 4", shape="box"] ;
1004 -> 1010 ;
1011 [label="X[1] <= 0.5300\nmse = 0.000591083816284\nsamples = 2", shape="box"] ;
1010 -> 1011 ;
1012 [label="mse = 0.0000\nsamples = 1\nvalue = [ 0.30735156]", shape="box"] ;
1011 -> 1012 ;
1013 [label="mse = 0.0000\nsamples = 1\nvalue = [ 0.34173423]", shape="box"] ;
1011 -> 1013 ;
1014 [label="X[1] <= 0.5350\nmse = 7.42600820552e-06\nsamples = 2", shape="box"] ;
1010 -> 1014 ;
1015 [label="mse = 0.0000\nsamples = 1\nvalue = [ 0.4333306]", shape="box"] ;
1014 -> 1015 ;
1016 [label="mse = 0.0000\nsamples = 1\nvalue = [ 0.42947677]", shape="box"] ;
1014 -> 1016 ;
1017 [label="X[0] <= 0.0150\nmse = 0.109772095799\nsamples = 21", shape="box"] ;
1003 -> 1017 ;
1018 [label="X[1] <= 0.7450\nmse = 0.0168490563005\nsamples = 5", shape="box"] ;
1017 -> 1018 ;
1019 [label="X[1] <= 0.6800\nmse = 0.00303140368968\nsamples = 3", shape="box"] ;
1018 -> 1019 ;
1020 [label="mse = 0.0000\nsamples = 1\nvalue = [ 0.27050739]", shape="box"] ;
1019 -> 1020 ;
1021 [label="X[1] <= 0.7100\nmse = 0.000326738305097\nsamples = 2", shape="box"] ;
1019 -> 1021 ;
1022 [label="mse = 0.0000\nsamples = 1\nvalue = [ 0.32142036]", shape="box"] ;
1021 -> 1022 ;
1023 [label="mse = 0.0000\nsamples = 1\nvalue = [ 0.34698355]", shape="box"] ;
1021 -> 1023 ;
1024 [label="X[1] <= 0.7800\nmse = 0.000247590023482\nsamples = 2", shape="box"] ;
1018 -> 1024 ;
1025 [label="mse = 0.0000\nsamples = 1\nvalue = [ 0.40818501]", shape="box"] ;
1024 -> 1025 ;
1026 [label="mse = 0.0000\nsamples = 1\nvalue = [ 0.43043765]", shape="box"] ;
1024 -> 1026 ;
1027 [label="X[0] <= 0.0350\nmse = 0.0363290324689\nsamples = 16", shape="box"] ;
1017 -> 1027 ;
1028 [label="X[1] <= 0.6800\nmse = 0.0120209012314\nsamples = 5", shape="box"] ;
1027 -> 1028 ;
1029 [label="X[1] <= 0.6050\nmse = 4.47127184868e-05\nsamples = 2", shape="box"] ;
1028 -> 1029 ;
1030 [label="mse = 0.0000\nsamples = 1\nvalue = [ 0.39224471]", shape="box"] ;
1029 -> 1030 ;
1031 [label="mse = 0.0000\nsamples = 1\nvalue = [ 0.40170121]", shape="box"] ;
1029 -> 1031 ;
1032 [label="X[1] <= 0.7400\nmse = 0.000407082145066\nsamples = 3", shape="box"] ;
1028 -> 1032 ;
1033 [label="X[1] <= 0.7250\nmse = 3.90213607271e-05\nsamples = 2", shape="box"] ;
1032 -> 1033 ;
1034 [label="mse = 0.0000\nsamples = 1\nvalue = [ 0.50741045]", shape="box"] ;
1033 -> 1034 ;
1035 [label="mse = 0.0000\nsamples = 1\nvalue = [ 0.49857628]", shape="box"] ;
1033 -> 1035 ;
1036 [label="mse = 0.0000\nsamples = 1\nvalue = [ 0.47949674]", shape="box"] ;
1032 -> 1036 ;
1037 [label="X[1] <= 0.6650\nmse = 0.0209444974362\nsamples = 11", shape="box"] ;
1027 -> 1037 ;
1038 [label="X[1] <= 0.5800\nmse = 0.00333163045394\nsamples = 9", shape="box"] ;
1037 -> 1038 ;
1039 [label="X[0] <= 0.0450\nmse = 0.000958661445456\nsamples = 2", shape="box"] ;
1038 -> 1039 ;
1040 [label="mse = 0.0000\nsamples = 1\nvalue = [ 0.46020843]", shape="box"] ;
1039 -> 1040 ;
1041 [label="mse = 0.0000\nsamples = 1\nvalue = [ 0.50399567]", shape="box"] ;
1039 -> 1041 ;
1042 [label="X[1] <= 0.5950\nmse = 0.000989035772617\nsamples = 7", shape="box"] ;
1038 -> 1042 ;
1043 [label="X[0] <= 0.0450\nmse = 0.000556577623438\nsamples = 2", shape="box"] ;
1042 -> 1043 ;
1044 [label="mse = 0.0000\nsamples = 1\nvalue = [ 0.48602204]", shape="box"] ;
1043 -> 1044 ;
1045 [label="mse = 0.0000\nsamples = 1\nvalue = [ 0.51938603]", shape="box"] ;
1043 -> 1045 ;
1046 [label="X[1] <= 0.6050\nmse = 0.000194157013857\nsamples = 5", shape="box"] ;
1042 -> 1046 ;
1047 [label="mse = 0.0000\nsamples = 1\nvalue = [ 0.52350232]", shape="box"] ;
1046 -> 1047 ;
1048 [label="X[1] <= 0.6200\nmse = 0.000116484673399\nsamples = 4", shape="box"] ;
1046 -> 1048 ;
1049 [label="mse = 0.0000\nsamples = 1\nvalue = [ 0.50545896]", shape="box"] ;
1048 -> 1049 ;
1050 [label="X[0] <= 0.0450\nmse = 2.70517205855e-05\nsamples = 3", shape="box"] ;
1048 -> 1050 ;
1051 [label="X[1] <= 0.6350\nmse = 3.15823235342e-06\nsamples = 2", shape="box"] ;
1050 -> 1051 ;
1052 [label="mse = 0.0000\nsamples = 1\nvalue = [ 0.51711777]", shape="box"] ;
1051 -> 1052 ;
1053 [label="mse = 0.0000\nsamples = 1\nvalue = [ 0.51963103]", shape="box"] ;
1051 -> 1053 ;
1054 [label="mse = 0.0000\nsamples = 1\nvalue = [ 0.51238773]", shape="box"] ;
1050 -> 1054 ;
1055 [label="X[1] <= 0.7000\nmse = 0.00133508468915\nsamples = 2", shape="box"] ;
1037 -> 1055 ;
1056 [label="mse = 0.0000\nsamples = 1\nvalue = [ 0.43140063]", shape="box"] ;
1055 -> 1056 ;
1057 [label="mse = 0.0000\nsamples = 1\nvalue = [ 0.37972694]", shape="box"] ;
1055 -> 1057 ;
1058 [label="X[0] <= 0.0250\nmse = 0.670369902003\nsamples = 23", shape="box"] ;
1002 -> 1058 ;
1059 [label="X[0] <= 0.0150\nmse = 0.0204960170478\nsamples = 6", shape="box"] ;
1058 -> 1059 ;
1060 [label="X[1] <= 0.8650\nmse = 0.00198400117532\nsamples = 4", shape="box"] ;
1059 -> 1060 ;
1061 [label="X[1] <= 0.8200\nmse = 0.000158079468693\nsamples = 2", shape="box"] ;
1060 -> 1061 ;
1062 [label="mse = 0.0000\nsamples = 1\nvalue = [ 0.4507041]", shape="box"] ;
1061 -> 1062 ;
1063 [label="mse = 0.0000\nsamples = 1\nvalue = [ 0.46848495]", shape="box"] ;
1061 -> 1063 ;
1064 [label="X[1] <= 0.9200\nmse = 6.2795988176e-06\nsamples = 2", shape="box"] ;
1060 -> 1064 ;
1065 [label="mse = 0.0000\nsamples = 1\nvalue = [ 0.50402374]", shape="box"] ;
1064 -> 1065 ;
1066 [label="mse = 0.0000\nsamples = 1\nvalue = [ 0.50047984]", shape="box"] ;
1064 -> 1066 ;
1067 [label="X[1] <= 0.8950\nmse = 0.000241831351817\nsamples = 2", shape="box"] ;
1059 -> 1067 ;
1068 [label="mse = 0.0000\nsamples = 1\nvalue = [ 0.37486105]", shape="box"] ;
1067 -> 1068 ;
1069 [label="mse = 0.0000\nsamples = 1\nvalue = [ 0.35286872]", shape="box"] ;
1067 -> 1069 ;
1070 [label="X[1] <= 0.9950\nmse = 0.259744426314\nsamples = 17", shape="box"] ;
1058 -> 1070 ;
1071 [label="X[1] <= 0.8350\nmse = 0.187849682161\nsamples = 16", shape="box"] ;
1070 -> 1071 ;
1072 [label="X[0] <= 0.0350\nmse = 0.0442676030068\nsamples = 4", shape="box"] ;
1071 -> 1072 ;
1073 [label="X[1] <= 0.8250\nmse = 0.000357512191052\nsamples = 2", shape="box"] ;
1072 -> 1073 ;
1074 [label="mse = 0.0000\nsamples = 1\nvalue = [ 0.33894896]", shape="box"] ;
1073 -> 1074 ;
1075 [label="mse = 0.0000\nsamples = 1\nvalue = [ 0.31220902]", shape="box"] ;
1073 -> 1075 ;
1076 [label="X[1] <= 0.8150\nmse = 0.000908489272948\nsamples = 2", shape="box"] ;
1072 -> 1076 ;
1077 [label="mse = 0.0000\nsamples = 1\nvalue = [ 0.0968977]", shape="box"] ;
1076 -> 1077 ;
1078 [label="mse = 0.0000\nsamples = 1\nvalue = [ 0.13952373]", shape="box"] ;
1076 -> 1078 ;
