digraph Tree {
0 [label="X[1] <= 0.7150\nmse = 518.550128609\nsamples = 2000", shape="box"] ;
1 [label="X[1] <= 0.1650\nmse = 303.952731041\nsamples = 1402", shape="box"] ;
0 -> 1 ;
2 [label="X[1] <= 0.0850\nmse = 3.0289939765\nsamples = 326", shape="box"] ;
1 -> 2 ;
3 [label="X[1] <= 0.0550\nmse = 0.102917651775\nsamples = 173", shape="box"] ;
2 -> 3 ;
4 [label="X[1] <= 0.0350\nmse = 0.0148632244427\nsamples = 129", shape="box"] ;
3 -> 4 ;
5 [label="X[1] <= 0.0250\nmse = 0.00214287315237\nsamples = 88", shape="box"] ;
4 -> 5 ;
6 [label="X[1] <= 0.0150\nmse = 0.000234906041485\nsamples = 65", shape="box"] ;
5 -> 6 ;
7 [label="X[0] <= 0.5150\nmse = 1.62419775146e-05\nsamples = 41", shape="box"] ;
6 -> 7 ;
8 [label="X[1] <= 0.0050\nmse = 3.77059004726e-06\nsamples = 28", shape="box"] ;
7 -> 8 ;
9 [label="mse = 0.0000\nsamples = 15\nvalue = [ 0.]", shape="box"] ;
8 -> 9 ;
10 [label="X[0] <= 0.2450\nmse = 6.58271782856e-07\nsamples = 13", shape="box"] ;
8 -> 10 ;
11 [label="X[0] <= 0.1000\nmse = 1.22157552985e-07\nsamples = 5", shape="box"] ;
10 -> 11 ;
12 [label="mse = 0.0000\nsamples = 1\nvalue = [ 0.00013595]", shape="box"] ;
11 -> 12 ;
13 [label="mse = 0.0000\nsamples = 4\nvalue = [ 0.00051819]", shape="box"] ;
11 -> 13 ;
14 [label="X[0] <= 0.2850\nmse = 1.18312240004e-07\nsamples = 8", shape="box"] ;
10 -> 14 ;
15 [label="mse = 0.0000\nsamples = 1\nvalue = [ 0.00058905]", shape="box"] ;
14 -> 15 ;
16 [label="mse = 0.0000\nsamples = 7\nvalue = [ 0.00084183]", shape="box"] ;
14 -> 16 ;
17 [label="X[0] <= 0.7100\nmse = 8.68378092157e-07\nsamples = 13", shape="box"] ;
7 -> 17 ;
18 [label="mse = 0.0000\nsamples = 5\nvalue = [ 0.00117902]", shape="box"] ;
17 -> 18 ;
19 [label="X[0] <= 0.7400\nmse = 2.04077349997e-07\nsamples = 8", shape="box"] ;
17 -> 19 ;
20 [label="mse = 0.0000\nsamples = 1\nvalue = [ 0.00139309]", shape="box"] ;
19 -> 20 ;
21 [label="X[0] <= 0.7750\nmse = 1.42507389485e-07\nsamples = 7", shape="box"] ;
19 -> 21 ;
22 [label="mse = 0.0000\nsamples = 1\nvalue = [ 0.00142837]", shape="box"] ;
21 -> 22 ;
23 [label="mse = 0.0000\nsamples = 6\nvalue = [ 0.00169668]", shape="box"] ;
21 -> 23 ;
24 [label="X[0] <= 0.4800\nmse = 6.83129384258e-05\nsamples = 24", shape="box"] ;
6 -> 24 ;
25 [label="X[0] <= 0.2600\nmse = 7.9985938973e-06\nsamples = 13", shape="box"] ;
24 -> 25 ;
26 [label="X[0] <= 0.0900\nmse = 1.46615462375e-06\nsamples = 6", shape="box"] ;
25 -> 26 ;
27 [label="mse = 0.0000\nsamples = 1\nvalue = [ 0.00078414]", shape="box"] ;
26 -> 27 ;
28 [label="X[0] <= 0.1600\nmse = 2.75125666544e-07\nsamples = 5", shape="box"] ;
26 -> 28 ;
29 [label="mse = 0.0000\nsamples = 1\nvalue = [ 0.00160805]", shape="box"] ;
28 -> 29 ;
30 [label="X[0] <= 0.1850\nmse = 1.02519511668e-07\nsamples = 4", shape="box"] ;
28 -> 30 ;
31 [label="mse = 0.0000\nsamples = 1\nvalue = [ 0.00188733]", shape="box"] ;
30 -> 31 ;
32 [label="mse = 0.0000\nsamples = 3\nvalue = [ 0.00213428]", shape="box"] ;
30 -> 32 ;
33 [label="X[0] <= 0.3750\nmse = 1.02377167716e-06\nsamples = 7", shape="box"] ;
25 -> 33 ;
34 [label="X[0] <= 0.2950\nmse = 1.0679006249e-07\nsamples = 4", shape="box"] ;
33 -> 34 ;
35 [label="mse = 0.0000\nsamples = 1\nvalue = [ 0.0025534]", shape="box"] ;
34 -> 35 ;
36 [label="mse = 0.0000\nsamples = 3\nvalue = [ 0.00285853]", shape="box"] ;
34 -> 36 ;
37 [label="mse = 0.0000\nsamples = 3\nvalue = [ 0.00349142]", shape="box"] ;
33 -> 37 ;
38 [label="X[0] <= 0.6650\nmse = 9.32269596173e-06\nsamples = 11", shape="box"] ;
24 -> 38 ;
39 [label="X[0] <= 0.5900\nmse = 3.61402000349e-07\nsamples = 4", shape="box"] ;
38 -> 39 ;
40 [label="mse = 0.0000\nsamples = 3\nvalue = [ 0.00422169]", shape="box"] ;
39 -> 40 ;
41 [label="mse = 0.0000\nsamples = 1\nvalue = [ 0.00487738]", shape="box"] ;
39 -> 41 ;
42 [label="X[0] <= 0.8300\nmse = 2.3791227769e-06\nsamples = 7", shape="box"] ;
38 -> 42 ;
43 [label="X[0] <= 0.7300\nmse = 2.73231824068e-07\nsamples = 5", shape="box"] ;
42 -> 43 ;
44 [label="mse = 0.0000\nsamples = 2\nvalue = [ 0.00539696]", shape="box"] ;
43 -> 44 ;
45 [label="mse = 0.0000\nsamples = 3\nvalue = [ 0.00583184]", shape="box"] ;
43 -> 45 ;
46 [label="X[0] <= 0.9050\nmse = 1.3274753645e-07\nsamples = 2", shape="box"] ;
42 -> 46 ;
47 [label="mse = 0.0000\nsamples = 1\nvalue = [ 0.0065755]", shape="box"] ;
46 -> 47 ;
48 [label="mse = 0.0000\nsamples = 1\nvalue = [ 0.00709076]", shape="box"] ;
46 -> 48 ;
49 [label="X[0] <= 0.5300\nmse = 0.000573836282409\nsamples = 23", shape="box"] ;
5 -> 49 ;
50 [label="X[0] <= 0.1950\nmse = 3.90259669262e-05\nsamples = 9", shape="box"] ;
49 -> 50 ;
51 [label="X[0] <= 0.0550\nmse = 6.11204759714e-06\nsamples = 4", shape="box"] ;
50 -> 51 ;
52 [label="mse = 0.0000\nsamples = 1\nvalue = [ 0.00085671]", shape="box"] ;
51 -> 52 ;
53 [label="X[0] <= 0.1200\nmse = 6.57538442736e-07\nsamples = 3", shape="box"] ;
51 -> 53 ;
54 [label="mse = 0.0000\nsamples = 1\nvalue = [ 0.00295056]", shape="box"] ;
53 -> 54 ;
55 [label="X[0] <= 0.1550\nmse = 1.12226568089e-07\nsamples = 2", shape="box"] ;
53 -> 55 ;
56 [label="mse = 0.0000\nsamples = 1\nvalue = [ 0.00361809]", shape="box"] ;
55 -> 56 ;
57 [label="mse = 0.0000\nsamples = 1\nvalue = [ 0.00409186]", shape="box"] ;
55 -> 57 ;
58 [label="X[0] <= 0.2650\nmse = 4.58872755009e-06\nsamples = 5", shape="box"] ;
50 -> 58 ;
59 [label="mse = 0.0000\nsamples = 1\nvalue = [ 0.00485378]", shape="box"] ;
58 -> 59 ;
60 [label="X[0] <= 0.3550\nmse = 1.40580715244e-06\nsamples = 4", shape="box"] ;
58 -> 60 ;
61 [label="mse = 0.0000\nsamples = 2\nvalue = [ 0.00626019]", shape="box"] ;
60 -> 61 ;
62 [label="mse = 0.0000\nsamples = 2\nvalue = [ 0.00743668]", shape="box"] ;
60 -> 62 ;
63 [label="X[0] <= 0.8300\nmse = 3.13139871473e-05\nsamples = 14", shape="box"] ;
49 -> 63 ;
64 [label="X[0] <= 0.7000\nmse = 3.45053292095e-06\nsamples = 6", shape="box"] ;
63 -> 64 ;
65 [label="mse = 0.0000\nsamples = 1\nvalue = [ 0.01143879]", shape="box"] ;
64 -> 65 ;
66 [label="X[0] <= 0.7650\nmse = 7.49356362232e-07\nsamples = 5", shape="box"] ;
64 -> 66 ;
67 [label="mse = 0.0000\nsamples = 2\nvalue = [ 0.01285504]", shape="box"] ;
66 -> 67 ;
68 [label="X[0] <= 0.7800\nmse = 2.06836602555e-07\nsamples = 3", shape="box"] ;
66 -> 68 ;
69 [label="mse = 0.0000\nsamples = 1\nvalue = [ 0.01317396]", shape="box"] ;
68 -> 69 ;
70 [label="mse = 0.0000\nsamples = 2\nvalue = [ 0.01365592]", shape="box"] ;
68 -> 70 ;
71 [label="X[0] <= 0.9200\nmse = 3.90635697883e-06\nsamples = 8", shape="box"] ;
63 -> 71 ;
72 [label="X[0] <= 0.8850\nmse = 6.16113005922e-07\nsamples = 4", shape="box"] ;
71 -> 72 ;
73 [label="mse = 0.0000\nsamples = 2\nvalue = [ 0.01463067]", shape="box"] ;
72 -> 73 ;
74 [label="mse = 0.0000\nsamples = 2\nvalue = [ 0.01537148]", shape="box"] ;
72 -> 74 ;
75 [label="X[0] <= 0.9700\nmse = 5.85780771306e-07\nsamples = 4", shape="box"] ;
71 -> 75 ;
76 [label="mse = 0.0000\nsamples = 3\nvalue = [ 0.01595378]", shape="box"] ;
75 -> 76 ;
77 [label="mse = 0.0000\nsamples = 1\nvalue = [ 0.01679437]", shape="box"] ;
75 -> 77 ;
78 [label="X[0] <= 0.4550\nmse = 0.00501144206105\nsamples = 41", shape="box"] ;
4 -> 78 ;
79 [label="X[0] <= 0.2050\nmse = 0.000353936624945\nsamples = 16", shape="box"] ;
78 -> 79 ;
80 [label="X[0] <= 0.1250\nmse = 8.51265303627e-05\nsamples = 10", shape="box"] ;
79 -> 80 ;
81 [label="X[0] <= 0.0250\nmse = 6.4853065582e-06\nsamples = 5", shape="box"] ;
80 -> 81 ;
82 [label="mse = 0.0000\nsamples = 1\nvalue = [ 0.00217523]", shape="box"] ;
81 -> 82 ;
83 [label="X[0] <= 0.0850\nmse = 1.6143916553e-06\nsamples = 4", shape="box"] ;
81 -> 83 ;
84 [label="X[1] <= 0.0450\nmse = 5.13502950785e-07\nsamples = 3", shape="box"] ;
83 -> 84 ;
85 [label="mse = 0.0000\nsamples = 1\nvalue = [ 0.00391533]", shape="box"] ;
84 -> 85 ;
86 [label="X[0] <= 0.0350\nmse = 2.43168477479e-07\nsamples = 2", shape="box"] ;
84 -> 86 ;
87 [label="mse = 0.0000\nsamples = 1\nvalue = [ 0.00420343]", shape="box"] ;
86 -> 87 ;
88 [label="mse = 0.0000\nsamples = 1\nvalue = [ 0.00490081]", shape="box"] ;
86 -> 88 ;
89 [label="mse = 0.0000\nsamples = 1\nvalue = [ 0.00555141]", shape="box"] ;
83 -> 89 ;
90 [label="X[1] <= 0.0450\nmse = 9.09874337219e-06\nsamples = 5", shape="box"] ;
80 -> 90 ;
91 [label="X[0] <= 0.1900\nmse = 1.47533403703e-07\nsamples = 2", shape="box"] ;
90 -> 91 ;
92 [label="mse = 0.0000\nsamples = 1\nvalue = [ 0.00754914]", shape="box"] ;
91 -> 92 ;
93 [label="mse = 0.0000\nsamples = 1\nvalue = [ 0.00809234]", shape="box"] ;
91 -> 93 ;
94 [label="X[0] <= 0.1450\nmse = 3.89225784835e-07\nsamples = 3", shape="box"] ;
90 -> 94 ;
95 [label="mse = 0.0000\nsamples = 1\nvalue = [ 0.0100498]", shape="box"] ;
94 -> 95 ;
96 [label="mse = 0.0000\nsamples = 2\nvalue = [ 0.01071292]", shape="box"] ;
94 -> 96 ;
97 [label="X[0] <= 0.3550\nmse = 3.15555643016e-05\nsamples = 6", shape="box"] ;
79 -> 97 ;
98 [label="X[1] <= 0.0450\nmse = 6.58617856706e-06\nsamples = 4", shape="box"] ;
97 -> 98 ;
99 [label="mse = 0.0000\nsamples = 1\nvalue = [ 0.01204303]", shape="box"] ;
98 -> 99 ;
100 [label="X[0] <= 0.2500\nmse = 3.1944229607e-06\nsamples = 3", shape="box"] ;
98 -> 100 ;
101 [label="X[0] <= 0.2200\nmse = 3.47629490017e-07\nsamples = 2", shape="box"] ;
100 -> 101 ;
102 [label="mse = 0.0000\nsamples = 1\nvalue = [ 0.01306389]", shape="box"] ;
101 -> 102 ;
103 [label="mse = 0.0000\nsamples = 1\nvalue = [ 0.01389771]", shape="box"] ;
101 -> 103 ;
104 [label="mse = 0.0000\nsamples = 1\nvalue = [ 0.01554724]", shape="box"] ;
100 -> 104 ;
105 [label="X[1] <= 0.0450\nmse = 1.03839121656e-05\nsamples = 2", shape="box"] ;
97 -> 105 ;
106 [label="mse = 0.0000\nsamples = 1\nvalue = [ 0.01466681]", shape="box"] ;
105 -> 106 ;
107 [label="mse = 0.0000\nsamples = 1\nvalue = [ 0.01922399]", shape="box"] ;
105 -> 107 ;
108 [label="X[1] <= 0.0450\nmse = 0.00149088671008\nsamples = 25", shape="box"] ;
78 -> 108 ;
109 [label="X[0] <= 0.6750\nmse = 0.000239181701477\nsamples = 11", shape="box"] ;
108 -> 109 ;
110 [label="X[0] <= 0.5300\nmse = 1.18117927849e-05\nsamples = 5", shape="box"] ;
109 -> 110 ;
111 [label="X[0] <= 0.4850\nmse = 3.17816665692e-07\nsamples = 2", shape="box"] ;
110 -> 111 ;
112 [label="mse = 0.0000\nsamples = 1\nvalue = [ 0.0151959]", shape="box"] ;
111 -> 112 ;
113 [label="mse = 0.0000\nsamples = 1\nvalue = [ 0.01599317]", shape="box"] ;
111 -> 113 ;
114 [label="X[0] <= 0.6050\nmse = 1.92800963809e-06\nsamples = 3", shape="box"] ;
110 -> 114 ;
115 [label="X[0] <= 0.5700\nmse = 1.46439833117e-07\nsamples = 2", shape="box"] ;
114 -> 115 ;
116 [label="mse = 0.0000\nsamples = 1\nvalue = [ 0.01760244]", shape="box"] ;
115 -> 116 ;
117 [label="mse = 0.0000\nsamples = 1\nvalue = [ 0.01814362]", shape="box"] ;
115 -> 117 ;
118 [label="mse = 0.0000\nsamples = 1\nvalue = [ 0.01950776]", shape="box"] ;
114 -> 118 ;
119 [label="X[0] <= 0.7750\nmse = 2.60049191879e-05\nsamples = 6", shape="box"] ;
109 -> 119 ;
120 [label="mse = 0.0000\nsamples = 1\nvalue = [ 0.02200586]", shape="box"] ;
119 -> 120 ;
121 [label="X[0] <= 0.8900\nmse = 7.98266120291e-06\nsamples = 5", shape="box"] ;
119 -> 121 ;
122 [label="X[0] <= 0.8400\nmse = 6.73945675052e-07\nsamples = 3", shape="box"] ;
121 -> 122 ;
123 [label="mse = 0.0000\nsamples = 1\nvalue = [ 0.02513776]", shape="box"] ;
122 -> 123 ;
124 [label="X[0] <= 0.8600\nmse = 1.69351665324e-07\nsamples = 2", shape="box"] ;
122 -> 124 ;
125 [label="mse = 0.0000\nsamples = 1\nvalue = [ 0.02571677]", shape="box"] ;
124 -> 125 ;
126 [label="mse = 0.0000\nsamples = 1\nvalue = [ 0.02629875]", shape="box"] ;
124 -> 126 ;
127 [label="X[0] <= 0.9300\nmse = 7.02039279552e-07\nsamples = 2", shape="box"] ;
121 -> 127 ;
128 [label="mse = 0.0000\nsamples = 1\nvalue = [ 0.02747168]", shape="box"] ;
127 -> 128 ;
129 [label="mse = 0.0000\nsamples = 1\nvalue = [ 0.02865662]", shape="box"] ;
127 -> 129 ;
130 [label="X[0] <= 0.6350\nmse = 0.0005887071016\nsamples = 14", shape="box"] ;
108 -> 130 ;
131 [label="X[0] <= 0.5450\nmse = 2.2724153637e-05\nsamples = 6", shape="box"] ;
130 -> 131 ;
132 [label="X[0] <= 0.4750\nmse = 4.32623531944e-06\nsamples = 4", shape="box"] ;
131 -> 132 ;
133 [label="mse = 0.0000\nsamples = 1\nvalue = [ 0.02332754]", shape="box"] ;
132 -> 133 ;
134 [label="X[0] <= 0.5150\nmse = 1.50925029529e-06\nsamples = 3", shape="box"] ;
132 -> 134 ;
135 [label="mse = 0.0000\nsamples = 2\nvalue = [ 0.02477862]", shape="box"] ;
134 -> 135 ;
136 [label="mse = 0.0000\nsamples = 1\nvalue = [ 0.02623949]", shape="box"] ;
134 -> 136 ;
137 [label="X[0] <= 0.5800\nmse = 1.43596433701e-06\nsamples = 2", shape="box"] ;
131 -> 137 ;
138 [label="mse = 0.0000\nsamples = 1\nvalue = [ 0.02750045]", shape="box"] ;
137 -> 138 ;
139 [label="mse = 0.0000\nsamples = 1\nvalue = [ 0.02919512]", shape="box"] ;
137 -> 139 ;
140 [label="X[0] <= 0.7850\nmse = 0.000138589817613\nsamples = 8", shape="box"] ;
130 -> 140 ;
141 [label="X[0] <= 0.7100\nmse = 9.02877651292e-06\nsamples = 5", shape="box"] ;
140 -> 141 ;
142 [label="X[0] <= 0.6800\nmse = 3.76853641361e-07\nsamples = 2", shape="box"] ;
141 -> 142 ;
143 [label="mse = 0.0000\nsamples = 1\nvalue = [ 0.03220011]", shape="box"] ;
142 -> 143 ;
144 [label="mse = 0.0000\nsamples = 1\nvalue = [ 0.03306827]", shape="box"] ;
142 -> 144 ;
145 [label="X[0] <= 0.7350\nmse = 3.88489302951e-07\nsamples = 3", shape="box"] ;
141 -> 145 ;
146 [label="mse = 0.0000\nsamples = 1\nvalue = [ 0.0348178]", shape="box"] ;
145 -> 146 ;
147 [label="mse = 0.0000\nsamples = 2\nvalue = [ 0.03547862]", shape="box"] ;
145 -> 147 ;
148 [label="X[0] <= 0.8700\nmse = 1.53884304113e-05\nsamples = 3", shape="box"] ;
140 -> 148 ;
149 [label="mse = 0.0000\nsamples = 1\nvalue = [ 0.03882019]", shape="box"] ;
148 -> 149 ;
150 [label="X[0] <= 0.9250\nmse = 1.06763739631e-07\nsamples = 2", shape="box"] ;
148 -> 150 ;
151 [label="mse = 0.0000\nsamples = 1\nvalue = [ 0.04337689]", shape="box"] ;
150 -> 151 ;
152 [label="mse = 0.0000\nsamples = 1\nvalue = [ 0.04383898]", shape="box"] ;
150 -> 152 ;
153 [label="X[0] <= 0.6700\nmse = 0.0336819980991\nsamples = 44", shape="box"] ;
3 -> 153 ;
154 [label="X[0] <= 0.2250\nmse = 0.00622803649588\nsamples = 29", shape="box"] ;
153 -> 154 ;
155 [label="X[0] <= 0.0800\nmse = 0.000261500341732\nsamples = 9", shape="box"] ;
154 -> 155 ;
156 [label="X[1] <= 0.0650\nmse = 1.82527390371e-05\nsamples = 3", shape="box"] ;
155 -> 156 ;
157 [label="mse = 0.0000\nsamples = 1\nvalue = [ 0.00705706]", shape="box"] ;
156 -> 157 ;
158 [label="X[1] <= 0.0750\nmse = 1.54154177555e-07\nsamples = 2", shape="box"] ;
156 -> 158 ;
159 [label="mse = 0.0000\nsamples = 1\nvalue = [ 0.01198979]", shape="box"] ;
158 -> 159 ;
160 [label="mse = 0.0000\nsamples = 1\nvalue = [ 0.01254505]", shape="box"] ;
158 -> 160 ;
161 [label="X[1] <= 0.0650\nmse = 6.49548435375e-05\nsamples = 6", shape="box"] ;
155 -> 161 ;
162 [label="X[0] <= 0.1750\nmse = 1.45360868307e-05\nsamples = 3", shape="box"] ;
161 -> 162 ;
163 [label="mse = 0.0000\nsamples = 1\nvalue = [ 0.01447091]", shape="box"] ;
162 -> 163 ;
164 [label="X[0] <= 0.2150\nmse = 1.8097707919e-07\nsamples = 2", shape="box"] ;
162 -> 164 ;
165 [label="mse = 0.0000\nsamples = 1\nvalue = [ 0.01881043]", shape="box"] ;
164 -> 165 ;
166 [label="mse = 0.0000\nsamples = 1\nvalue = [ 0.01941205]", shape="box"] ;
164 -> 166 ;
167 [label="X[0] <= 0.1800\nmse = 1.56307196115e-05\nsamples = 3", shape="box"] ;
161 -> 167 ;
168 [label="mse = 0.0000\nsamples = 2\nvalue = [ 0.02077063]", shape="box"] ;
167 -> 168 ;
169 [label="mse = 0.0000\nsamples = 1\nvalue = [ 0.02559956]", shape="box"] ;
167 -> 169 ;
170 [label="X[0] <= 0.3200\nmse = 0.00219130440294\nsamples = 20", shape="box"] ;
154 -> 170 ;
171 [label="X[1] <= 0.0650\nmse = 0.000408389212451\nsamples = 8", shape="box"] ;
170 -> 171 ;
172 [label="X[0] <= 0.2850\nmse = 1.73564083489e-07\nsamples = 2", shape="box"] ;
171 -> 172 ;
173 [label="mse = 0.0000\nsamples = 1\nvalue = [ 0.02297573]", shape="box"] ;
172 -> 173 ;
174 [label="mse = 0.0000\nsamples = 1\nvalue = [ 0.0235649]", shape="box"] ;
172 -> 174 ;
175 [label="X[1] <= 0.0750\nmse = 0.000111461328565\nsamples = 6", shape="box"] ;
171 -> 175 ;
176 [label="X[0] <= 0.2950\nmse = 2.88487955178e-06\nsamples = 2", shape="box"] ;
175 -> 176 ;
177 [label="mse = 0.0000\nsamples = 1\nvalue = [ 0.03126679]", shape="box"] ;
176 -> 177 ;
178 [label="mse = 0.0000\nsamples = 1\nvalue = [ 0.03366882]", shape="box"] ;
176 -> 178 ;
179 [label="X[0] <= 0.2700\nmse = 3.74860136199e-05\nsamples = 4", shape="box"] ;
175 -> 179 ;
180 [label="X[0] <= 0.2450\nmse = 5.01658006749e-06\nsamples = 2", shape="box"] ;
179 -> 180 ;
181 [label="mse = 0.0000\nsamples = 1\nvalue = [ 0.03556132]", shape="box"] ;
180 -> 181 ;
182 [label="mse = 0.0000\nsamples = 1\nvalue = [ 0.03872883]", shape="box"] ;
180 -> 182 ;
183 [label="X[0] <= 0.2950\nmse = 4.91455791339e-06\nsamples = 2", shape="box"] ;
179 -> 183 ;
184 [label="mse = 0.0000\nsamples = 1\nvalue = [ 0.04082678]", shape="box"] ;
183 -> 184 ;
185 [label="mse = 0.0000\nsamples = 1\nvalue = [ 0.04396192]", shape="box"] ;
183 -> 185 ;
186 [label="X[1] <= 0.0650\nmse = 0.000998919927946\nsamples = 12", shape="box"] ;
170 -> 186 ;
187 [label="X[0] <= 0.5650\nmse = 9.225370301e-05\nsamples = 5", shape="box"] ;
186 -> 187 ;
188 [label="X[0] <= 0.5150\nmse = 1.45871431228e-05\nsamples = 3", shape="box"] ;
187 -> 188 ;
189 [label="X[0] <= 0.4700\nmse = 2.84093362244e-06\nsamples = 2", shape="box"] ;
188 -> 189 ;
190 [label="mse = 0.0000\nsamples = 1\nvalue = [ 0.03299118]", shape="box"] ;
189 -> 190 ;
191 [label="mse = 0.0000\nsamples = 1\nvalue = [ 0.03537485]", shape="box"] ;
189 -> 191 ;
192 [label="mse = 0.0000\nsamples = 1\nvalue = [ 0.03838055]", shape="box"] ;
188 -> 192 ;
193 [label="X[0] <= 0.6200\nmse = 6.82106475457e-06\nsamples = 2", shape="box"] ;
187 -> 193 ;
194 [label="mse = 0.0000\nsamples = 1\nvalue = [ 0.04141905]", shape="box"] ;
193 -> 194 ;
195 [label="mse = 0.0000\nsamples = 1\nvalue = [ 0.04511257]", shape="box"] ;
193 -> 195 ;
196 [label="X[0] <= 0.4200\nmse = 0.000365761613378\nsamples = 7", shape="box"] ;
186 -> 196 ;
197 [label="X[1] <= 0.0750\nmse = 2.79959074798e-05\nsamples = 3", shape="box"] ;
196 -> 197 ;
198 [label="mse = 0.0000\nsamples = 1\nvalue = [ 0.04086751]", shape="box"] ;
197 -> 198 ;
199 [label="X[0] <= 0.3400\nmse = 2.17499937568e-06\nsamples = 2", shape="box"] ;
197 -> 199 ;
200 [label="mse = 0.0000\nsamples = 1\nvalue = [ 0.04604813]", shape="box"] ;
199 -> 200 ;
201 [label="mse = 0.0000\nsamples = 1\nvalue = [ 0.0481338]", shape="box"] ;
199 -> 201 ;
202 [label="X[0] <= 0.5850\nmse = 6.12587250935e-05\nsamples = 4", shape="box"] ;
196 -> 202 ;
203 [label="X[1] <= 0.0750\nmse = 1.89320589694e-05\nsamples = 2", shape="box"] ;
202 -> 203 ;
204 [label="mse = 0.0000\nsamples = 1\nvalue = [ 0.05140073]", shape="box"] ;
203 -> 204 ;
205 [label="mse = 0.0000\nsamples = 1\nvalue = [ 0.05755411]", shape="box"] ;
203 -> 205 ;
206 [label="X[0] <= 0.6450\nmse = 3.54659269469e-07\nsamples = 2", shape="box"] ;
202 -> 206 ;
207 [label="mse = 0.0000\nsamples = 1\nvalue = [ 0.06053489]", shape="box"] ;
206 -> 207 ;
208 [label="mse = 0.0000\nsamples = 1\nvalue = [ 0.0613771]", shape="box"] ;
206 -> 208 ;
209 [label="X[1] <= 0.0750\nmse = 0.0048397733658\nsamples = 15", shape="box"] ;
153 -> 209 ;
210 [label="X[0] <= 0.8950\nmse = 0.00108975803885\nsamples = 8", shape="box"] ;
209 -> 210 ;
211 [label="X[1] <= 0.0650\nmse = 0.00013213775488\nsamples = 5", shape="box"] ;
210 -> 211 ;
212 [label="X[0] <= 0.8150\nmse = 2.54000321964e-05\nsamples = 3", shape="box"] ;
211 -> 212 ;
213 [label="mse = 0.0000\nsamples = 1\nvalue = [ 0.05266664]", shape="box"] ;
212 -> 213 ;
214 [label="X[0] <= 0.8650\nmse = 2.14419243472e-07\nsamples = 2", shape="box"] ;
212 -> 214 ;
215 [label="mse = 0.0000\nsamples = 1\nvalue = [ 0.05848562]", shape="box"] ;
214 -> 215 ;
216 [label="mse = 0.0000\nsamples = 1\nvalue = [ 0.05914048]", shape="box"] ;
214 -> 216 ;
217 [label="X[0] <= 0.7050\nmse = 3.28846862545e-06\nsamples = 2", shape="box"] ;
211 -> 217 ;
218 [label="mse = 0.0000\nsamples = 1\nvalue = [ 0.06476678]", shape="box"] ;
217 -> 218 ;
219 [label="mse = 0.0000\nsamples = 1\nvalue = [ 0.06733133]", shape="box"] ;
217 -> 219 ;
220 [label="X[1] <= 0.0650\nmse = 0.00026614211539\nsamples = 3", shape="box"] ;
210 -> 220 ;
221 [label="mse = 0.0000\nsamples = 1\nvalue = [ 0.06645462]", shape="box"] ;
220 -> 221 ;
222 [label="X[0] <= 0.9350\nmse = 3.69533860672e-06\nsamples = 2", shape="box"] ;
220 -> 222 ;
223 [label="mse = 0.0000\nsamples = 1\nvalue = [ 0.08493645]", shape="box"] ;
222 -> 223 ;
224 [label="mse = 0.0000\nsamples = 1\nvalue = [ 0.08765503]", shape="box"] ;
222 -> 224 ;
225 [label="X[0] <= 0.8250\nmse = 0.000399166499824\nsamples = 7", shape="box"] ;
209 -> 225 ;
226 [label="X[0] <= 0.7250\nmse = 6.7326802084e-05\nsamples = 4", shape="box"] ;
225 -> 226 ;
227 [label="mse = 0.0000\nsamples = 1\nvalue = [ 0.08564685]", shape="box"] ;
226 -> 227 ;
228 [label="X[0] <= 0.7850\nmse = 1.631504977e-05\nsamples = 3", shape="box"] ;
226 -> 228 ;
229 [label="X[0] <= 0.7600\nmse = 2.55555116651e-06\nsamples = 2", shape="box"] ;
228 -> 229 ;
230 [label="mse = 0.0000\nsamples = 1\nvalue = [ 0.09124928]", shape="box"] ;
229 -> 230 ;
231 [label="mse = 0.0000\nsamples = 1\nvalue = [ 0.09351005]", shape="box"] ;
229 -> 231 ;
232 [label="mse = 0.0000\nsamples = 1\nvalue = [ 0.09692271]", shape="box"] ;
228 -> 232 ;
233 [label="X[0] <= 0.8850\nmse = 1.71606747268e-05\nsamples = 3", shape="box"] ;
225 -> 233 ;
234 [label="X[0] <= 0.8600\nmse = 2.6880752036e-06\nsamples = 2", shape="box"] ;
233 -> 234 ;
235 [label="mse = 0.0000\nsamples = 1\nvalue = [ 0.10266834]", shape="box"] ;
234 -> 235 ;
236 [label="mse = 0.0000\nsamples = 1\nvalue = [ 0.10498699]", shape="box"] ;
234 -> 236 ;
237 [label="mse = 0.0000\nsamples = 1\nvalue = [ 0.10848694]", shape="box"] ;
233 -> 237 ;
238 [label="X[0] <= 0.3450\nmse = 1.24686717449\nsamples = 153", shape="box"] ;
2 -> 238 ;
239 [label="X[0] <= 0.1350\nmse = 0.0672652039288\nsamples = 46", shape="box"] ;
238 -> 239 ;
240 [label="X[0] <= 0.0650\nmse = 0.00527775504938\nsamples = 20", shape="box"] ;
239 -> 240 ;
241 [label="X[0] <= 0.0350\nmse = 0.000759050422438\nsamples = 8", shape="box"] ;
240 -> 241 ;
242 [label="X[1] <= 0.1550\nmse = 7.48947448752e-05\nsamples = 4", shape="box"] ;
241 -> 242 ;
243 [label="X[0] <= 0.0200\nmse = 5.91222961054e-05\nsamples = 3", shape="box"] ;
242 -> 243 ;
244 [label="X[1] <= 0.1350\nmse = 2.96887037281e-05\nsamples = 2", shape="box"] ;
243 -> 244 ;
245 [label="mse = 0.0000\nsamples = 1\nvalue = [ 0.01370571]", shape="box"] ;
244 -> 245 ;
246 [label="mse = 0.0000\nsamples = 1\nvalue = [ 0.02141139]", shape="box"] ;
244 -> 246 ;
247 [label="mse = 0.0000\nsamples = 1\nvalue = [ 0.02420313]", shape="box"] ;
243 -> 247 ;
248 [label="mse = 0.0000\nsamples = 1\nvalue = [ 0.02435925]", shape="box"] ;
242 -> 248 ;
249 [label="X[1] <= 0.1050\nmse = 0.000322446466534\nsamples = 4", shape="box"] ;
241 -> 249 ;
250 [label="mse = 0.0000\nsamples = 1\nvalue = [ 0.01981693]", shape="box"] ;
249 -> 250 ;
251 [label="X[1] <= 0.1450\nmse = 4.01315257935e-05\nsamples = 3", shape="box"] ;
249 -> 251 ;
252 [label="X[1] <= 0.1300\nmse = 5.04229501489e-06\nsamples = 2", shape="box"] ;
251 -> 252 ;
253 [label="mse = 0.0000\nsamples = 1\nvalue = [ 0.03521236]", shape="box"] ;
252 -> 253 ;
254 [label="mse = 0.0000\nsamples = 1\nvalue = [ 0.03838798]", shape="box"] ;
252 -> 254 ;
255 [label="mse = 0.0000\nsamples = 1\nvalue = [ 0.04405509]", shape="box"] ;
251 -> 255 ;
256 [label="X[1] <= 0.1300\nmse = 0.00238734302579\nsamples = 12", shape="box"] ;
240 -> 256 ;
257 [label="X[1] <= 0.0950\nmse = 0.000255762495054\nsamples = 7", shape="box"] ;
256 -> 257 ;
258 [label="mse = 0.0000\nsamples = 1\nvalue = [ 0.02809246]", shape="box"] ;
257 -> 258 ;
259 [label="X[0] <= 0.0750\nmse = 0.000132639611679\nsamples = 6", shape="box"] ;
257 -> 259 ;
260 [label="mse = 0.0000\nsamples = 1\nvalue = [ 0.03226456]", shape="box"] ;
259 -> 260 ;
261 [label="X[1] <= 0.1050\nmse = 5.93872997306e-05\nsamples = 5", shape="box"] ;
259 -> 261 ;
262 [label="mse = 0.0000\nsamples = 1\nvalue = [ 0.03654022]", shape="box"] ;
261 -> 262 ;
263 [label="X[0] <= 0.1100\nmse = 2.6874962404e-05\nsamples = 4", shape="box"] ;
261 -> 263 ;
264 [label="X[1] <= 0.1150\nmse = 1.58827663327e-06\nsamples = 2", shape="box"] ;
263 -> 264 ;
265 [label="mse = 0.0000\nsamples = 1\nvalue = [ 0.03963443]", shape="box"] ;
264 -> 265 ;
266 [label="mse = 0.0000\nsamples = 1\nvalue = [ 0.04141672]", shape="box"] ;
264 -> 266 ;
267 [label="X[0] <= 0.1250\nmse = 2.44537479797e-06\nsamples = 2", shape="box"] ;
263 -> 267 ;
268 [label="mse = 0.0000\nsamples = 1\nvalue = [ 0.04419908]", shape="box"] ;
267 -> 268 ;
269 [label="mse = 0.0000\nsamples = 1\nvalue = [ 0.04641058]", shape="box"] ;
267 -> 269 ;
270 [label="X[0] <= 0.0950\nmse = 0.000331695940909\nsamples = 5", shape="box"] ;
256 -> 270 ;
271 [label="X[1] <= 0.1450\nmse = 7.99228956722e-05\nsamples = 3", shape="box"] ;
270 -> 271 ;
272 [label="X[0] <= 0.0750\nmse = 8.46161673178e-06\nsamples = 2", shape="box"] ;
271 -> 272 ;
273 [label="mse = 0.0000\nsamples = 1\nvalue = [ 0.05221174]", shape="box"] ;
272 -> 273 ;
274 [label="mse = 0.0000\nsamples = 1\nvalue = [ 0.05632553]", shape="box"] ;
272 -> 274 ;
275 [label="mse = 0.0000\nsamples = 1\nvalue = [ 0.06462199]", shape="box"] ;
271 -> 275 ;
276 [label="X[0] <= 0.1200\nmse = 2.59491733926e-05\nsamples = 2", shape="box"] ;
270 -> 276 ;
277 [label="mse = 0.0000\nsamples = 1\nvalue = [ 0.06783584]", shape="box"] ;
276 -> 277 ;
278 [label="mse = 0.0000\nsamples = 1\nvalue = [ 0.07503989]", shape="box"] ;
276 -> 278 ;
279 [label="X[1] <= 0.1350\nmse = 0.0277250923442\nsamples = 26", shape="box"] ;
239 -> 279 ;
280 [label="X[1] <= 0.1050\nmse = 0.00257942137061\nsamples = 16", shape="box"] ;
279 -> 280 ;
281 [label="X[0] <= 0.3100\nmse = 0.000302226315071\nsamples = 4", shape="box"] ;
280 -> 281 ;
282 [label="X[0] <= 0.2200\nmse = 5.03389834077e-05\nsamples = 3", shape="box"] ;
281 -> 282 ;
283 [label="mse = 0.0000\nsamples = 1\nvalue = [ 0.04883218]", shape="box"] ;
282 -> 283 ;
284 [label="X[1] <= 0.0950\nmse = 1.7079632475e-05\nsamples = 2", shape="box"] ;
282 -> 284 ;
285 [label="mse = 0.0000\nsamples = 1\nvalue = [ 0.0529731]", shape="box"] ;
284 -> 285 ;
286 [label="mse = 0.0000\nsamples = 1\nvalue = [ 0.0588177]", shape="box"] ;
284 -> 286 ;
287 [label="mse = 0.0000\nsamples = 1\nvalue = [ 0.0718672]", shape="box"] ;
281 -> 287 ;
288 [label="X[0] <= 0.2550\nmse = 0.000901844483641\nsamples = 12", shape="box"] ;
280 -> 288 ;
289 [label="X[1] <= 0.1150\nmse = 0.000522434029951\nsamples = 8", shape="box"] ;
288 -> 289 ;
290 [label="X[0] <= 0.2300\nmse = 3.20115003516e-05\nsamples = 2", shape="box"] ;
289 -> 290 ;
291 [label="mse = 0.0000\nsamples = 1\nvalue = [ 0.06311906]", shape="box"] ;
290 -> 291 ;
292 [label="mse = 0.0000\nsamples = 1\nvalue = [ 0.07112049]", shape="box"] ;
290 -> 292 ;
293 [label="X[0] <= 0.2000\nmse = 0.00026819489511\nsamples = 6", shape="box"] ;
289 -> 293 ;
294 [label="X[1] <= 0.1250\nmse = 9.38568756634e-05\nsamples = 3", shape="box"] ;
293 -> 294 ;
295 [label="mse = 0.0000\nsamples = 1\nvalue = [ 0.0702334]", shape="box"] ;
294 -> 295 ;
296 [label="X[0] <= 0.1700\nmse = 6.71902685347e-05\nsamples = 2", shape="box"] ;
294 -> 296 ;
297 [label="mse = 0.0000\nsamples = 1\nvalue = [ 0.07076181]", shape="box"] ;
296 -> 297 ;
298 [label="mse = 0.0000\nsamples = 1\nvalue = [ 0.08235407]", shape="box"] ;
296 -> 298 ;
299 [label="X[1] <= 0.1250\nmse = 3.36812777774e-05\nsamples = 3", shape="box"] ;
293 -> 299 ;
300 [label="X[0] <= 0.2400\nmse = 1.11918643223e-05\nsamples = 2", shape="box"] ;
299 -> 300 ;
301 [label="mse = 0.0000\nsamples = 1\nvalue = [ 0.0798317]", shape="box"] ;
300 -> 301 ;
302 [label="mse = 0.0000\nsamples = 1\nvalue = [ 0.08456285]", shape="box"] ;
300 -> 302 ;
303 [label="mse = 0.0000\nsamples = 1\nvalue = [ 0.08800538]", shape="box"] ;
299 -> 303 ;
304 [label="X[1] <= 0.1150\nmse = 0.000120358161585\nsamples = 4", shape="box"] ;
288 -> 304 ;
305 [label="X[0] <= 0.3100\nmse = 6.94914203345e-05\nsamples = 2", shape="box"] ;
304 -> 305 ;
306 [label="mse = 0.0000\nsamples = 1\nvalue = [ 0.0770532]", shape="box"] ;
305 -> 306 ;
307 [label="mse = 0.0000\nsamples = 1\nvalue = [ 0.0888423]", shape="box"] ;
305 -> 307 ;
308 [label="X[0] <= 0.2700\nmse = 1.09990064529e-05\nsamples = 2", shape="box"] ;
304 -> 308 ;
309 [label="mse = 0.0000\nsamples = 1\nvalue = [ 0.08691674]", shape="box"] ;
308 -> 309 ;
310 [label="mse = 0.0000\nsamples = 1\nvalue = [ 0.09160694]", shape="box"] ;
308 -> 310 ;
311 [label="X[0] <= 0.2350\nmse = 0.00651993341705\nsamples = 10", shape="box"] ;
279 -> 311 ;
312 [label="X[0] <= 0.1600\nmse = 0.000388529128296\nsamples = 5", shape="box"] ;
311 -> 312 ;
313 [label="mse = 0.0000\nsamples = 1\nvalue = [ 0.09007375]", shape="box"] ;
312 -> 313 ;
314 [label="X[0] <= 0.1850\nmse = 6.92509076853e-05\nsamples = 4", shape="box"] ;
312 -> 314 ;
315 [label="mse = 0.0000\nsamples = 1\nvalue = [ 0.10559074]", shape="box"] ;
314 -> 315 ;
316 [label="X[1] <= 0.1450\nmse = 4.2723548365e-05\nsamples = 3", shape="box"] ;
314 -> 316 ;
317 [label="mse = 0.0000\nsamples = 1\nvalue = [ 0.10839806]", shape="box"] ;
316 -> 317 ;
318 [label="X[0] <= 0.2000\nmse = 2.7934761909e-05\nsamples = 2", shape="box"] ;
316 -> 318 ;
319 [label="mse = 0.0000\nsamples = 1\nvalue = [ 0.10937066]", shape="box"] ;
318 -> 319 ;
320 [label="mse = 0.0000\nsamples = 1\nvalue = [ 0.11684525]", shape="box"] ;
318 -> 320 ;
321 [label="X[0] <= 0.2600\nmse = 0.000776469148449\nsamples = 5", shape="box"] ;
311 -> 321 ;
322 [label="X[1] <= 0.1550\nmse = 9.33189946816e-05\nsamples = 2", shape="box"] ;
321 -> 322 ;
323 [label="mse = 0.0000\nsamples = 1\nvalue = [ 0.13154485]", shape="box"] ;
322 -> 323 ;
324 [label="mse = 0.0000\nsamples = 1\nvalue = [ 0.1452064]", shape="box"] ;
322 -> 324 ;
325 [label="X[0] <= 0.2750\nmse = 3.34022590085e-05\nsamples = 3", shape="box"] ;
321 -> 325 ;
326 [label="mse = 0.0000\nsamples = 1\nvalue = [ 0.15755653]", shape="box"] ;
325 -> 326 ;
327 [label="X[0] <= 0.2850\nmse = 8.33079924992e-06\nsamples = 2", shape="box"] ;
325 -> 327 ;
328 [label="mse = 0.0000\nsamples = 1\nvalue = [ 0.16164807]", shape="box"] ;
327 -> 328 ;
329 [label="mse = 0.0000\nsamples = 1\nvalue = [ 0.16572993]", shape="box"] ;
327 -> 329 ;
330 [label="X[1] <= 0.1350\nmse = 0.620580017137\nsamples = 107", shape="box"] ;
238 -> 330 ;
331 [label="X[1] <= 0.1150\nmse = 0.143899941179\nsamples = 66", shape="box"] ;
330 -> 331 ;
332 [label="X[0] <= 0.7600\nmse = 0.0386253509527\nsamples = 38", shape="box"] ;
331 -> 332 ;
333 [label="X[0] <= 0.5100\nmse = 0.00775515842781\nsamples = 21", shape="box"] ;
332 -> 333 ;
334 [label="X[0] <= 0.4300\nmse = 0.000551338861973\nsamples = 6", shape="box"] ;
333 -> 334 ;
335 [label="X[1] <= 0.1050\nmse = 0.000134230816095\nsamples = 3", shape="box"] ;
334 -> 335 ;
336 [label="mse = 0.0000\nsamples = 1\nvalue = [ 0.08488427]", shape="box"] ;
335 -> 336 ;
337 [label="X[0] <= 0.3900\nmse = 7.73113301604e-06\nsamples = 2", shape="box"] ;
335 -> 337 ;
338 [label="mse = 0.0000\nsamples = 1\nvalue = [ 0.09669313]", shape="box"] ;
337 -> 338 ;
339 [label="mse = 0.0000\nsamples = 1\nvalue = [ 0.10062534]", shape="box"] ;
337 -> 339 ;
340 [label="X[1] <= 0.1050\nmse = 0.000117214015704\nsamples = 3", shape="box"] ;
334 -> 340 ;
341 [label="mse = 0.0000\nsamples = 1\nvalue = [ 0.09966914]", shape="box"] ;
340 -> 341 ;
342 [label="X[0] <= 0.4600\nmse = 7.8660455872e-06\nsamples = 2", shape="box"] ;
340 -> 342 ;
343 [label="mse = 0.0000\nsamples = 1\nvalue = [ 0.11049307]", shape="box"] ;
342 -> 343 ;
344 [label="mse = 0.0000\nsamples = 1\nvalue = [ 0.11445944]", shape="box"] ;
342 -> 344 ;
345 [label="X[1] <= 0.1050\nmse = 0.0040807094961\nsamples = 15", shape="box"] ;
333 -> 345 ;
346 [label="X[0] <= 0.6850\nmse = 0.00141256724109\nsamples = 8", shape="box"] ;
345 -> 346 ;
347 [label="X[1] <= 0.0950\nmse = 0.000143961548467\nsamples = 5", shape="box"] ;
346 -> 347 ;
348 [label="mse = 0.0000\nsamples = 1\nvalue = [ 0.10129767]", shape="box"] ;
347 -> 348 ;
349 [label="X[0] <= 0.5800\nmse = 4.16818194432e-05\nsamples = 4", shape="box"] ;
347 -> 349 ;
350 [label="X[0] <= 0.5600\nmse = 5.61504039322e-06\nsamples = 2", shape="box"] ;
349 -> 350 ;
351 [label="mse = 0.0000\nsamples = 1\nvalue = [ 0.10798633]", shape="box"] ;
350 -> 351 ;
352 [label="mse = 0.0000\nsamples = 1\nvalue = [ 0.11133746]", shape="box"] ;
350 -> 352 ;
353 [label="X[0] <= 0.5950\nmse = 1.42562949443e-06\nsamples = 2", shape="box"] ;
349 -> 353 ;
354 [label="mse = 0.0000\nsamples = 1\nvalue = [ 0.11470328]", shape="box"] ;
353 -> 354 ;
355 [label="mse = 0.0000\nsamples = 1\nvalue = [ 0.11639185]", shape="box"] ;
353 -> 355 ;
356 [label="X[1] <= 0.0950\nmse = 0.000502026780442\nsamples = 3", shape="box"] ;
346 -> 356 ;
357 [label="mse = 0.0000\nsamples = 1\nvalue = [ 0.11252039]", shape="box"] ;
356 -> 357 ;
358 [label="X[0] <= 0.7350\nmse = 1.37142898153e-05\nsamples = 2", shape="box"] ;
356 -> 358 ;
359 [label="mse = 0.0000\nsamples = 1\nvalue = [ 0.13696593]", shape="box"] ;
358 -> 359 ;
360 [label="mse = 0.0000\nsamples = 1\nvalue = [ 0.14220316]", shape="box"] ;
358 -> 360 ;
361 [label="X[0] <= 0.6300\nmse = 0.000882304833195\nsamples = 7", shape="box"] ;
345 -> 361 ;
362 [label="X[0] <= 0.5750\nmse = 0.00020141738993\nsamples = 5", shape="box"] ;
361 -> 362 ;
363 [label="X[0] <= 0.5350\nmse = 3.50802181224e-05\nsamples = 3", shape="box"] ;
362 -> 363 ;
364 [label="mse = 0.0000\nsamples = 1\nvalue = [ 0.12443484]", shape="box"] ;
363 -> 364 ;
365 [label="X[0] <= 0.5550\nmse = 2.03723758772e-06\nsamples = 2", shape="box"] ;
363 -> 365 ;
366 [label="mse = 0.0000\nsamples = 1\nvalue = [ 0.13046578]", shape="box"] ;
365 -> 366 ;
367 [label="mse = 0.0000\nsamples = 1\nvalue = [ 0.13248431]", shape="box"] ;
365 -> 367 ;
368 [label="X[0] <= 0.6000\nmse = 8.30880853767e-06\nsamples = 2", shape="box"] ;
362 -> 368 ;
369 [label="mse = 0.0000\nsamples = 1\nvalue = [ 0.13856572]", shape="box"] ;
368 -> 369 ;
370 [label="mse = 0.0000\nsamples = 1\nvalue = [ 0.14264219]", shape="box"] ;
368 -> 370 ;
371 [label="X[0] <= 0.6700\nmse = 3.43186372137e-05\nsamples = 2", shape="box"] ;
361 -> 371 ;
372 [label="mse = 0.0000\nsamples = 1\nvalue = [ 0.15085054]", shape="box"] ;
371 -> 372 ;
373 [label="mse = 0.0000\nsamples = 1\nvalue = [ 0.1591353]", shape="box"] ;
371 -> 373 ;
374 [label="X[1] <= 0.1050\nmse = 0.0108924575391\nsamples = 17", shape="box"] ;
332 -> 374 ;
375 [label="X[1] <= 0.0950\nmse = 0.00430685756617\nsamples = 13", shape="box"] ;
374 -> 375 ;
376 [label="X[0] <= 0.8850\nmse = 0.000161811388412\nsamples = 4", shape="box"] ;
375 -> 376 ;
377 [label="X[0] <= 0.8400\nmse = 4.24111293078e-06\nsamples = 2", shape="box"] ;
376 -> 377 ;
378 [label="mse = 0.0000\nsamples = 1\nvalue = [ 0.12686589]", shape="box"] ;
377 -> 378 ;
379 [label="mse = 0.0000\nsamples = 1\nvalue = [ 0.12977832]", shape="box"] ;
377 -> 379 ;
380 [label="X[0] <= 0.9250\nmse = 1.1061056813e-06\nsamples = 2", shape="box"] ;
376 -> 380 ;
381 [label="mse = 0.0000\nsamples = 1\nvalue = [ 0.14008699]", shape="box"] ;
380 -> 381 ;
382 [label="mse = 0.0000\nsamples = 1\nvalue = [ 0.14157434]", shape="box"] ;
380 -> 382 ;
383 [label="X[0] <= 0.9000\nmse = 0.00133062190068\nsamples = 9", shape="box"] ;
375 -> 383 ;
384 [label="X[0] <= 0.8300\nmse = 0.000245813536717\nsamples = 5", shape="box"] ;
383 -> 384 ;
385 [label="X[0] <= 0.7900\nmse = 2.50499167195e-05\nsamples = 2", shape="box"] ;
384 -> 385 ;
386 [label="mse = 0.0000\nsamples = 1\nvalue = [ 0.14571614]", shape="box"] ;
385 -> 386 ;
387 [label="mse = 0.0000\nsamples = 1\nvalue = [ 0.15279427]", shape="box"] ;
385 -> 387 ;
388 [label="X[0] <= 0.8700\nmse = 1.51681569174e-05\nsamples = 3", shape="box"] ;
384 -> 388 ;
389 [label="X[0] <= 0.8550\nmse = 1.61660925775e-06\nsamples = 2", shape="box"] ;
388 -> 389 ;
390 [label="mse = 0.0000\nsamples = 1\nvalue = [ 0.15994258]", shape="box"] ;
389 -> 390 ;
391 [label="mse = 0.0000\nsamples = 1\nvalue = [ 0.16174069]", shape="box"] ;
389 -> 391 ;
392 [label="mse = 0.0000\nsamples = 1\nvalue = [ 0.16535022]", shape="box"] ;
388 -> 392 ;
393 [label="X[0] <= 0.9450\nmse = 0.000101856666028\nsamples = 4", shape="box"] ;
383 -> 393 ;
394 [label="X[0] <= 0.9250\nmse = 1.673034115e-06\nsamples = 2", shape="box"] ;
393 -> 394 ;
395 [label="mse = 0.0000\nsamples = 1\nvalue = [ 0.17262259]", shape="box"] ;
394 -> 395 ;
396 [label="mse = 0.0000\nsamples = 1\nvalue = [ 0.17445182]", shape="box"] ;
394 -> 396 ;
397 [label="X[0] <= 0.9750\nmse = 1.54267804497e-05\nsamples = 2", shape="box"] ;
393 -> 397 ;
398 [label="mse = 0.0000\nsamples = 1\nvalue = [ 0.17996626]", shape="box"] ;
397 -> 398 ;
399 [label="mse = 0.0000\nsamples = 1\nvalue = [ 0.18552086]", shape="box"] ;
397 -> 399 ;
400 [label="X[0] <= 0.8650\nmse = 0.00118555361773\nsamples = 4", shape="box"] ;
374 -> 400 ;
401 [label="X[0] <= 0.8050\nmse = 5.72048751845e-05\nsamples = 2", shape="box"] ;
400 -> 401 ;
402 [label="mse = 0.0000\nsamples = 1\nvalue = [ 0.17806675]", shape="box"] ;
401 -> 402 ;
403 [label="mse = 0.0000\nsamples = 1\nvalue = [ 0.188763]", shape="box"] ;
401 -> 403 ;
404 [label="X[0] <= 0.9450\nmse = 0.000198247493235\nsamples = 2", shape="box"] ;
400 -> 404 ;
405 [label="mse = 0.0000\nsamples = 1\nvalue = [ 0.20395635]", shape="box"] ;
404 -> 405 ;
406 [label="mse = 0.0000\nsamples = 1\nvalue = [ 0.22386853]", shape="box"] ;
404 -> 406 ;
407 [label="X[0] <= 0.7800\nmse = 0.0568746469917\nsamples = 28", shape="box"] ;
331 -> 407 ;
408 [label="X[0] <= 0.5900\nmse = 0.0167199953114\nsamples = 21", shape="box"] ;
407 -> 408 ;
409 [label="X[0] <= 0.4950\nmse = 0.00167955176589\nsamples = 9", shape="box"] ;
408 -> 409 ;
410 [label="X[1] <= 0.1250\nmse = 0.000744611419969\nsamples = 7", shape="box"] ;
409 -> 410 ;
411 [label="X[0] <= 0.4700\nmse = 0.0001032742114\nsamples = 3", shape="box"] ;
410 -> 411 ;
412 [label="X[0] <= 0.4400\nmse = 1.09955778871e-05\nsamples = 2", shape="box"] ;
411 -> 412 ;
413 [label="mse = 0.0000\nsamples = 1\nvalue = [ 0.1265926]", shape="box"] ;
412 -> 413 ;
414 [label="mse = 0.0000\nsamples = 1\nvalue = [ 0.13128208]", shape="box"] ;
412 -> 414 ;
415 [label="mse = 0.0000\nsamples = 1\nvalue = [ 0.14070245]", shape="box"] ;
411 -> 415 ;
416 [label="X[0] <= 0.4250\nmse = 0.000334441345458\nsamples = 4", shape="box"] ;
410 -> 416 ;
417 [label="X[0] <= 0.3900\nmse = 1.4860490475e-05\nsamples = 2", shape="box"] ;
416 -> 417 ;
418 [label="mse = 0.0000\nsamples = 1\nvalue = [ 0.13462754]", shape="box"] ;
417 -> 418 ;
419 [label="mse = 0.0000\nsamples = 1\nvalue = [ 0.14007924]", shape="box"] ;
417 -> 419 ;
420 [label="X[0] <= 0.4550\nmse = 3.76613305033e-06\nsamples = 2", shape="box"] ;
416 -> 420 ;
421 [label="mse = 0.0000\nsamples = 1\nvalue = [ 0.15375232]", shape="box"] ;
420 -> 421 ;
422 [label="mse = 0.0000\nsamples = 1\nvalue = [ 0.15649681]", shape="box"] ;
420 -> 422 ;
423 [label="X[1] <= 0.1250\nmse = 1.44142444475e-05\nsamples = 2", shape="box"] ;
409 -> 423 ;
424 [label="mse = 0.0000\nsamples = 1\nvalue = [ 0.16214637]", shape="box"] ;
423 -> 424 ;
425 [label="mse = 0.0000\nsamples = 1\nvalue = [ 0.16751559]", shape="box"] ;
423 -> 425 ;
426 [label="X[1] <= 0.1250\nmse = 0.00175001394431\nsamples = 12", shape="box"] ;
408 -> 426 ;
427 [label="X[0] <= 0.6750\nmse = 0.000543356767748\nsamples = 7", shape="box"] ;
426 -> 427 ;
428 [label="X[0] <= 0.6450\nmse = 2.67560584887e-05\nsamples = 2", shape="box"] ;
427 -> 428 ;
429 [label="mse = 0.0000\nsamples = 1\nvalue = [ 0.17423146]", shape="box"] ;
428 -> 429 ;
430 [label="mse = 0.0000\nsamples = 1\nvalue = [ 0.18154666]", shape="box"] ;
428 -> 430 ;
431 [label="X[0] <= 0.7200\nmse = 0.000105620648792\nsamples = 5", shape="box"] ;
427 -> 431 ;
432 [label="X[0] <= 0.6950\nmse = 1.21935455739e-05\nsamples = 3", shape="box"] ;
431 -> 432 ;
433 [label="mse = 0.0000\nsamples = 1\nvalue = [ 0.18891174]", shape="box"] ;
432 -> 433 ;
434 [label="X[0] <= 0.7050\nmse = 3.05543267769e-06\nsamples = 2", shape="box"] ;
432 -> 434 ;
435 [label="mse = 0.0000\nsamples = 1\nvalue = [ 0.19137805]", shape="box"] ;
434 -> 435 ;
436 [label="mse = 0.0000\nsamples = 1\nvalue = [ 0.19385006]", shape="box"] ;
434 -> 436 ;
437 [label="X[0] <= 0.7350\nmse = 3.09836466197e-06\nsamples = 2", shape="box"] ;
431 -> 437 ;
438 [label="mse = 0.0000\nsamples = 1\nvalue = [ 0.19881134]", shape="box"] ;
437 -> 438 ;
439 [label="mse = 0.0000\nsamples = 1\nvalue = [ 0.20130067]", shape="box"] ;
437 -> 439 ;
440 [label="X[0] <= 0.6450\nmse = 0.000443067486074\nsamples = 5", shape="box"] ;
426 -> 440 ;
441 [label="X[0] <= 0.6200\nmse = 3.72627817677e-05\nsamples = 3", shape="box"] ;
440 -> 441 ;
442 [label="X[0] <= 0.6050\nmse = 3.9745257339e-06\nsamples = 2", shape="box"] ;
441 -> 442 ;
443 [label="mse = 0.0000\nsamples = 1\nvalue = [ 0.19540573]", shape="box"] ;
442 -> 443 ;
444 [label="mse = 0.0000\nsamples = 1\nvalue = [ 0.19822513]", shape="box"] ;
442 -> 444 ;
445 [label="mse = 0.0000\nsamples = 1\nvalue = [ 0.20388172]", shape="box"] ;
441 -> 445 ;
446 [label="X[0] <= 0.6750\nmse = 3.68620162733e-05\nsamples = 2", shape="box"] ;
440 -> 446 ;
447 [label="mse = 0.0000\nsamples = 1\nvalue = [ 0.21241204]", shape="box"] ;
446 -> 447 ;
448 [label="mse = 0.0000\nsamples = 1\nvalue = [ 0.22099831]", shape="box"] ;
446 -> 448 ;
449 [label="X[0] <= 0.8550\nmse = 0.00352325256445\nsamples = 7", shape="box"] ;
407 -> 449 ;
450 [label="X[0] <= 0.8350\nmse = 2.92261794387e-05\nsamples = 2", shape="box"] ;
449 -> 450 ;
451 [label="mse = 0.0000\nsamples = 1\nvalue = [ 0.22142678]", shape="box"] ;
450 -> 451 ;
452 [label="mse = 0.0000\nsamples = 1\nvalue = [ 0.2290722]", shape="box"] ;
450 -> 452 ;
453 [label="X[1] <= 0.1250\nmse = 0.000400159732818\nsamples = 5", shape="box"] ;
449 -> 453 ;
454 [label="X[0] <= 0.9800\nmse = 5.55858906881e-05\nsamples = 2", shape="box"] ;
453 -> 454 ;
455 [label="mse = 0.0000\nsamples = 1\nvalue = [ 0.25756903]", shape="box"] ;
454 -> 455 ;
456 [label="mse = 0.0000\nsamples = 1\nvalue = [ 0.26811283]", shape="box"] ;
454 -> 456 ;
457 [label="X[0] <= 0.8750\nmse = 7.78211620148e-05\nsamples = 3", shape="box"] ;
453 -> 457 ;
458 [label="mse = 0.0000\nsamples = 1\nvalue = [ 0.27076004]", shape="box"] ;
457 -> 458 ;
459 [label="X[0] <= 0.8950\nmse = 4.52247947377e-06\nsamples = 2", shape="box"] ;
457 -> 459 ;
460 [label="mse = 0.0000\nsamples = 1\nvalue = [ 0.27974191]", shape="box"] ;
459 -> 460 ;
461 [label="mse = 0.0000\nsamples = 1\nvalue = [ 0.2827494]", shape="box"] ;
459 -> 461 ;
462 [label="X[0] <= 0.6800\nmse = 0.215607553301\nsamples = 41", shape="box"] ;
330 -> 462 ;
463 [label="X[0] <= 0.4900\nmse = 0.0358996043311\nsamples = 26", shape="box"] ;
462 -> 463 ;
464 [label="X[1] <= 0.1450\nmse = 0.00616825248767\nsamples = 12", shape="box"] ;
463 -> 464 ;
465 [label="X[0] <= 0.4450\nmse = 0.000386571606175\nsamples = 5", shape="box"] ;
464 -> 465 ;
466 [label="X[0] <= 0.4050\nmse = 4.95479851478e-05\nsamples = 4", shape="box"] ;
465 -> 466 ;
467 [label="X[0] <= 0.3950\nmse = 4.94761336021e-06\nsamples = 2", shape="box"] ;
466 -> 467 ;
468 [label="mse = 0.0000\nsamples = 1\nvalue = [ 0.15893309]", shape="box"] ;
467 -> 468 ;
469 [label="mse = 0.0000\nsamples = 1\nvalue = [ 0.16207876]", shape="box"] ;
467 -> 469 ;
470 [label="X[0] <= 0.4150\nmse = 4.96247830402e-06\nsamples = 2", shape="box"] ;
466 -> 470 ;
471 [label="mse = 0.0000\nsamples = 1\nvalue = [ 0.16522659]", shape="box"] ;
470 -> 471 ;
472 [label="mse = 0.0000\nsamples = 1\nvalue = [ 0.16837698]", shape="box"] ;
470 -> 472 ;
473 [label="mse = 0.0000\nsamples = 1\nvalue = [ 0.18417895]", shape="box"] ;
465 -> 473 ;
474 [label="X[0] <= 0.4500\nmse = 0.00178352961972\nsamples = 7", shape="box"] ;
464 -> 474 ;
475 [label="X[0] <= 0.3950\nmse = 0.000488228449896\nsamples = 5", shape="box"] ;
474 -> 475 ;
476 [label="X[1] <= 0.1550\nmse = 0.000208753528055\nsamples = 3", shape="box"] ;
475 -> 476 ;
477 [label="mse = 0.0000\nsamples = 1\nvalue = [ 0.18193286]", shape="box"] ;
476 -> 477 ;
478 [label="X[0] <= 0.3650\nmse = 7.37380098508e-05\nsamples = 2", shape="box"] ;
476 -> 478 ;
479 [label="mse = 0.0000\nsamples = 1\nvalue = [ 0.19009194]", shape="box"] ;
478 -> 479 ;
480 [label="mse = 0.0000\nsamples = 1\nvalue = [ 0.20223591]", shape="box"] ;
478 -> 480 ;
481 [label="X[1] <= 0.1550\nmse = 5.44860436691e-05\nsamples = 2", shape="box"] ;
475 -> 481 ;
482 [label="mse = 0.0000\nsamples = 1\nvalue = [ 0.19989348]", shape="box"] ;
481 -> 482 ;
483 [label="mse = 0.0000\nsamples = 1\nvalue = [ 0.21033245]", shape="box"] ;
481 -> 483 ;
484 [label="X[1] <= 0.1550\nmse = 0.00020705148753\nsamples = 2", shape="box"] ;
474 -> 484 ;
485 [label="mse = 0.0000\nsamples = 1\nvalue = [ 0.21432284]", shape="box"] ;
484 -> 485 ;
486 [label="mse = 0.0000\nsamples = 1\nvalue = [ 0.23467236]", shape="box"] ;
484 -> 486 ;
487 [label="X[1] <= 0.1450\nmse = 0.0106460354021\nsamples = 14", shape="box"] ;
463 -> 487 ;
488 [label="X[0] <= 0.5900\nmse = 0.00185155934882\nsamples = 5", shape="box"] ;
487 -> 488 ;
489 [label="X[0] <= 0.5250\nmse = 2.04802009147e-05\nsamples = 3", shape="box"] ;
488 -> 489 ;
490 [label="mse = 0.0000\nsamples = 1\nvalue = [ 0.20008879]", shape="box"] ;
489 -> 490 ;
491 [label="X[0] <= 0.5350\nmse = 5.12884958855e-06\nsamples = 2", shape="box"] ;
489 -> 491 ;
492 [label="mse = 0.0000\nsamples = 1\nvalue = [ 0.20328606]", shape="box"] ;
491 -> 492 ;
493 [label="mse = 0.0000\nsamples = 1\nvalue = [ 0.20648882]", shape="box"] ;
491 -> 493 ;
494 [label="X[0] <= 0.6500\nmse = 2.14437713025e-05\nsamples = 2", shape="box"] ;
488 -> 494 ;
495 [label="mse = 0.0000\nsamples = 1\nvalue = [ 0.23884682]", shape="box"] ;
494 -> 495 ;
496 [label="mse = 0.0000\nsamples = 1\nvalue = [ 0.24539567]", shape="box"] ;
494 -> 496 ;
497 [label="X[0] <= 0.5850\nmse = 0.00397880241231\nsamples = 9", shape="box"] ;
487 -> 497 ;
498 [label="X[1] <= 0.1550\nmse = 0.0012880118345\nsamples = 6", shape="box"] ;
497 -> 498 ;
499 [label="X[0] <= 0.5400\nmse = 6.20255082566e-05\nsamples = 3", shape="box"] ;
498 -> 499 ;
500 [label="X[0] <= 0.5250\nmse = 6.62293050141e-06\nsamples = 2", shape="box"] ;
499 -> 500 ;
501 [label="mse = 0.0000\nsamples = 1\nvalue = [ 0.22882709]", shape="box"] ;
500 -> 501 ;
502 [label="mse = 0.0000\nsamples = 1\nvalue = [ 0.23246658]", shape="box"] ;
500 -> 502 ;
503 [label="mse = 0.0000\nsamples = 1\nvalue = [ 0.23976296]", shape="box"] ;
499 -> 503 ;
504 [label="X[0] <= 0.5150\nmse = 0.000145324864191\nsamples = 3", shape="box"] ;
498 -> 504 ;
505 [label="mse = 0.0000\nsamples = 1\nvalue = [ 0.2509731]", shape="box"] ;
504 -> 505 ;
506 [label="X[0] <= 0.5350\nmse = 8.42140993962e-06\nsamples = 2", shape="box"] ;
504 -> 506 ;
507 [label="mse = 0.0000\nsamples = 1\nvalue = [ 0.26325131]", shape="box"] ;
506 -> 507 ;
508 [label="mse = 0.0000\nsamples = 1\nvalue = [ 0.26735531]", shape="box"] ;
506 -> 508 ;
509 [label="X[1] <= 0.1550\nmse = 0.000735707967197\nsamples = 3", shape="box"] ;
497 -> 509 ;
510 [label="X[0] <= 0.6250\nmse = 6.8570986575e-06\nsamples = 2", shape="box"] ;
509 -> 510 ;
511 [label="mse = 0.0000\nsamples = 1\nvalue = [ 0.26549851]", shape="box"] ;
510 -> 511 ;
512 [label="mse = 0.0000\nsamples = 1\nvalue = [ 0.26920177]", shape="box"] ;
510 -> 512 ;
513 [label="mse = 0.0000\nsamples = 1\nvalue = [ 0.30041487]", shape="box"] ;
509 -> 513 ;
514 [label="X[0] <= 0.9550\nmse = 0.0208609935757\nsamples = 15", shape="box"] ;
462 -> 514 ;
515 [label="X[0] <= 0.8150\nmse = 0.00659678773161\nsamples = 12", shape="box"] ;
514 -> 515 ;
516 [label="X[0] <= 0.7350\nmse = 0.00145341782406\nsamples = 6", shape="box"] ;
515 -> 516 ;
517 [label="mse = 0.0000\nsamples = 1\nvalue = [ 0.29532435]", shape="box"] ;
516 -> 517 ;
518 [label="X[1] <= 0.1450\nmse = 0.000899222663284\nsamples = 5", shape="box"] ;
516 -> 518 ;
519 [label="mse = 0.0000\nsamples = 1\nvalue = [ 0.29540372]", shape="box"] ;
518 -> 519 ;
520 [label="X[0] <= 0.7850\nmse = 7.30392145673e-05\nsamples = 4", shape="box"] ;
518 -> 520 ;
521 [label="X[0] <= 0.7750\nmse = 7.27441466308e-06\nsamples = 2", shape="box"] ;
520 -> 521 ;
522 [label="mse = 0.0000\nsamples = 1\nvalue = [ 0.32181066]", shape="box"] ;
521 -> 522 ;
523 [label="mse = 0.0000\nsamples = 1\nvalue = [ 0.32562495]", shape="box"] ;
521 -> 523 ;
524 [label="X[0] <= 0.7950\nmse = 7.33350982329e-06\nsamples = 2", shape="box"] ;
520 -> 524 ;
525 [label="mse = 0.0000\nsamples = 1\nvalue = [ 0.32944696]", shape="box"] ;
524 -> 525 ;
526 [label="mse = 0.0000\nsamples = 1\nvalue = [ 0.33327672]", shape="box"] ;
524 -> 526 ;
527 [label="X[1] <= 0.1450\nmse = 0.00136519817358\nsamples = 6", shape="box"] ;
515 -> 527 ;
528 [label="X[0] <= 0.9400\nmse = 2.42732819956e-05\nsamples = 2", shape="box"] ;
527 -> 528 ;
529 [label="mse = 0.0000\nsamples = 1\nvalue = [ 0.33658797]", shape="box"] ;
528 -> 529 ;
530 [label="mse = 0.0000\nsamples = 1\nvalue = [ 0.34355551]", shape="box"] ;
528 -> 530 ;
531 [label="X[0] <= 0.8600\nmse = 0.000892153640586\nsamples = 4", shape="box"] ;
527 -> 531 ;
532 [label="X[0] <= 0.8300\nmse = 2.97528005312e-05\nsamples = 2", shape="box"] ;
531 -> 532 ;
533 [label="mse = 0.0000\nsamples = 1\nvalue = [ 0.34095953]", shape="box"] ;
532 -> 533 ;
534 [label="mse = 0.0000\nsamples = 1\nvalue = [ 0.34867352]", shape="box"] ;
532 -> 534 ;
535 [label="X[0] <= 0.9000\nmse = 0.000122420811113\nsamples = 2", shape="box"] ;
531 -> 535 ;
536 [label="mse = 0.0000\nsamples = 1\nvalue = [ 0.36419539]", shape="box"] ;
535 -> 536 ;
537 [label="mse = 0.0000\nsamples = 1\nvalue = [ 0.37984281]", shape="box"] ;
535 -> 537 ;
538 [label="X[1] <= 0.1550\nmse = 0.00367029948238\nsamples = 3", shape="box"] ;
514 -> 538 ;
539 [label="X[1] <= 0.1450\nmse = 0.000595541053397\nsamples = 2", shape="box"] ;
538 -> 539 ;
540 [label="mse = 0.0000\nsamples = 1\nvalue = [ 0.36110381]", shape="box"] ;
539 -> 540 ;
541 [label="mse = 0.0000\nsamples = 1\nvalue = [ 0.39561586]", shape="box"] ;
539 -> 541 ;
542 [label="mse = 0.0000\nsamples = 1\nvalue = [ 0.44627256]", shape="box"] ;
538 -> 542 ;
543 [label="X[0] <= 0.3250\nmse = 270.12530398\nsamples = 1076", shape="box"] ;
1 -> 543 ;
544 [label="X[1] <= 0.5950\nmse = 40.8891394152\nsamples = 367", shape="box"] ;
543 -> 544 ;
545 [label="X[1] <= 0.3050\nmse = 12.9804626713\nsamples = 284", shape="box"] ;
544 -> 545 ;
546 [label="X[0] <= 0.1150\nmse = 1.21696310929\nsamples = 97", shape="box"] ;
545 -> 546 ;
547 [label="X[0] <= 0.0150\nmse = 0.129829451722\nsamples = 36", shape="box"] ;
546 -> 547 ;
548 [label="X[0] <= 0.0050\nmse = 0.00436178507279\nsamples = 6", shape="box"] ;
547 -> 548 ;
549 [label="mse = 0.0000\nsamples = 2\nvalue = [ 0.]", shape="box"] ;
548 -> 549 ;
550 [label="X[1] <= 0.2450\nmse = 0.00167395984632\nsamples = 4", shape="box"] ;
548 -> 550 ;
551 [label="X[1] <= 0.1800\nmse = 5.72254397074e-05\nsamples = 3", shape="box"] ;
550 -> 551 ;
552 [label="mse = 0.0000\nsamples = 1\nvalue = [ 0.02749638]", shape="box"] ;
551 -> 552 ;
553 [label="X[1] <= 0.1950\nmse = 6.85561280884e-06\nsamples = 2", shape="box"] ;
551 -> 553 ;
554 [label="mse = 0.0000\nsamples = 1\nvalue = [ 0.03433717]", shape="box"] ;
553 -> 554 ;
555 [label="mse = 0.0000\nsamples = 1\nvalue = [ 0.03804004]", shape="box"] ;
553 -> 555 ;
556 [label="mse = 0.0000\nsamples = 1\nvalue = [ 0.07972013]", shape="box"] ;
550 -> 556 ;
557 [label="X[1] <= 0.2300\nmse = 0.0637702350481\nsamples = 30", shape="box"] ;
547 -> 557 ;
558 [label="X[0] <= 0.0950\nmse = 0.00421760400349\nsamples = 11", shape="box"] ;
557 -> 558 ;
559 [label="X[0] <= 0.0650\nmse = 0.00221471181796\nsamples = 8", shape="box"] ;
558 -> 559 ;
560 [label="X[1] <= 0.2150\nmse = 0.000609671245631\nsamples = 3", shape="box"] ;
559 -> 560 ;
561 [label="X[1] <= 0.1950\nmse = 1.29914517952e-05\nsamples = 2", shape="box"] ;
560 -> 561 ;
562 [label="mse = 0.0000\nsamples = 1\nvalue = [ 0.07899081]", shape="box"] ;
561 -> 562 ;
563 [label="mse = 0.0000\nsamples = 1\nvalue = [ 0.07389347]", shape="box"] ;
561 -> 563 ;
564 [label="mse = 0.0000\nsamples = 1\nvalue = [ 0.10635902]", shape="box"] ;
560 -> 564 ;
565 [label="X[1] <= 0.1850\nmse = 0.000872258993179\nsamples = 5", shape="box"] ;
559 -> 565 ;
566 [label="X[1] <= 0.1750\nmse = 8.59040569767e-06\nsamples = 2", shape="box"] ;
565 -> 566 ;
567 [label="mse = 0.0000\nsamples = 1\nvalue = [ 0.08867104]", shape="box"] ;
566 -> 567 ;
568 [label="mse = 0.0000\nsamples = 1\nvalue = [ 0.09281602]", shape="box"] ;
566 -> 568 ;
569 [label="X[1] <= 0.1950\nmse = 6.90243459897e-05\nsamples = 3", shape="box"] ;
565 -> 569 ;
570 [label="mse = 0.0000\nsamples = 1\nvalue = [ 0.11048554]", shape="box"] ;
569 -> 570 ;
571 [label="X[1] <= 0.2050\nmse = 1.51808109335e-05\nsamples = 2", shape="box"] ;
569 -> 571 ;
572 [label="mse = 0.0000\nsamples = 1\nvalue = [ 0.12222756]", shape="box"] ;
571 -> 572 ;
573 [label="mse = 0.0000\nsamples = 1\nvalue = [ 0.11671743]", shape="box"] ;
571 -> 573 ;
574 [label="X[1] <= 0.1900\nmse = 0.000349547535671\nsamples = 3", shape="box"] ;
558 -> 574 ;
575 [label="mse = 0.0000\nsamples = 1\nvalue = [ 0.11165075]", shape="box"] ;
574 -> 575 ;
576 [label="X[0] <= 0.1050\nmse = 2.77360662648e-05\nsamples = 2", shape="box"] ;
574 -> 576 ;
577 [label="mse = 0.0000\nsamples = 1\nvalue = [ 0.1298976]", shape="box"] ;
576 -> 577 ;
578 [label="mse = 0.0000\nsamples = 1\nvalue = [ 0.13734556]", shape="box"] ;
576 -> 578 ;
579 [label="X[0] <= 0.0650\nmse = 0.0385938794376\nsamples = 19", shape="box"] ;
557 -> 579 ;
580 [label="X[0] <= 0.0350\nmse = 0.00426269834522\nsamples = 11", shape="box"] ;
579 -> 580 ;
581 [label="X[1] <= 0.2600\nmse = 0.00129662283797\nsamples = 6", shape="box"] ;
580 -> 581 ;
582 [label="X[1] <= 0.2450\nmse = 3.26504999315e-05\nsamples = 2", shape="box"] ;
581 -> 582 ;
583 [label="mse = 0.0000\nsamples = 1\nvalue = [ 0.09627836]", shape="box"] ;
582 -> 583 ;
584 [label="mse = 0.0000\nsamples = 1\nvalue = [ 0.10435926]", shape="box"] ;
582 -> 584 ;
585 [label="X[1] <= 0.2950\nmse = 0.000230695287302\nsamples = 4", shape="box"] ;
581 -> 585 ;
586 [label="X[1] <= 0.2850\nmse = 0.000165915113597\nsamples = 3", shape="box"] ;
585 -> 586 ;
587 [label="X[1] <= 0.2750\nmse = 4.02026973413e-05\nsamples = 2", shape="box"] ;
586 -> 587 ;
588 [label="mse = 0.0000\nsamples = 1\nvalue = [ 0.12141951]", shape="box"] ;
587 -> 588 ;
589 [label="mse = 0.0000\nsamples = 1\nvalue = [ 0.13038642]", shape="box"] ;
587 -> 589 ;
590 [label="mse = 0.0000\nsamples = 1\nvalue = [ 0.13963499]", shape="box"] ;
586 -> 590 ;
591 [label="mse = 0.0000\nsamples = 1\nvalue = [ 0.12118657]", shape="box"] ;
585 -> 591 ;
592 [label="X[1] <= 0.2550\nmse = 0.00140379216627\nsamples = 5", shape="box"] ;
580 -> 592 ;
593 [label="X[0] <= 0.0450\nmse = 0.000117280891031\nsamples = 2", shape="box"] ;
592 -> 593 ;
594 [label="mse = 0.0000\nsamples = 1\nvalue = [ 0.12139159]", shape="box"] ;
593 -> 594 ;
595 [label="mse = 0.0000\nsamples = 1\nvalue = [ 0.136707]", shape="box"] ;
593 -> 595 ;
596 [label="X[0] <= 0.0500\nmse = 0.000655180385656\nsamples = 3", shape="box"] ;
592 -> 596 ;
597 [label="X[1] <= 0.2750\nmse = 0.000481350530901\nsamples = 2", shape="box"] ;
596 -> 597 ;
598 [label="mse = 0.0000\nsamples = 1\nvalue = [ 0.13109012]", shape="box"] ;
597 -> 598 ;
599 [label="mse = 0.0000\nsamples = 1\nvalue = [ 0.16211754]", shape="box"] ;
597 -> 599 ;
600 [label="mse = 0.0000\nsamples = 1\nvalue = [ 0.16275142]", shape="box"] ;
596 -> 600 ;
601 [label="X[1] <= 0.2800\nmse = 0.00862171481268\nsamples = 8", shape="box"] ;
579 -> 601 ;
602 [label="X[0] <= 0.0750\nmse = 0.0017895137839\nsamples = 5", shape="box"] ;
601 -> 602 ;
603 [label="X[1] <= 0.2500\nmse = 0.000322294796083\nsamples = 2", shape="box"] ;
602 -> 603 ;
604 [label="mse = 0.0000\nsamples = 1\nvalue = [ 0.15157832]", shape="box"] ;
603 -> 604 ;
605 [label="mse = 0.0000\nsamples = 1\nvalue = [ 0.17696709]", shape="box"] ;
603 -> 605 ;
606 [label="X[1] <= 0.2450\nmse = 0.000208590389621\nsamples = 3", shape="box"] ;
602 -> 606 ;
607 [label="mse = 0.0000\nsamples = 1\nvalue = [ 0.18514839]", shape="box"] ;
606 -> 607 ;
608 [label="X[1] <= 0.2600\nmse = 9.85712011342e-06\nsamples = 2", shape="box"] ;
606 -> 608 ;
609 [label="mse = 0.0000\nsamples = 1\nvalue = [ 0.20019392]", shape="box"] ;
608 -> 609 ;
610 [label="mse = 0.0000\nsamples = 1\nvalue = [ 0.20463399]", shape="box"] ;
608 -> 610 ;
611 [label="X[0] <= 0.0800\nmse = 0.00119783677355\nsamples = 3", shape="box"] ;
601 -> 611 ;
612 [label="X[1] <= 0.2950\nmse = 0.000101974541375\nsamples = 2", shape="box"] ;
611 -> 612 ;
613 [label="mse = 0.0000\nsamples = 1\nvalue = [ 0.21786706]", shape="box"] ;
612 -> 613 ;
614 [label="mse = 0.0000\nsamples = 1\nvalue = [ 0.23214813]", shape="box"] ;
612 -> 614 ;
615 [label="mse = 0.0000\nsamples = 1\nvalue = [ 0.26555132]", shape="box"] ;
611 -> 615 ;
616 [label="X[1] <= 0.2350\nmse = 0.521230078304\nsamples = 61", shape="box"] ;
546 -> 616 ;
617 [label="X[1] <= 0.2050\nmse = 0.0965723796556\nsamples = 31", shape="box"] ;
616 -> 617 ;
618 [label="X[0] <= 0.2150\nmse = 0.022028742426\nsamples = 18", shape="box"] ;
617 -> 618 ;
619 [label="X[1] <= 0.1900\nmse = 0.00243927887469\nsamples = 7", shape="box"] ;
618 -> 619 ;
620 [label="X[0] <= 0.1500\nmse = 0.00104046858014\nsamples = 4", shape="box"] ;
619 -> 620 ;
621 [label="X[1] <= 0.1750\nmse = 8.64461100837e-05\nsamples = 2", shape="box"] ;
620 -> 621 ;
622 [label="mse = 0.0000\nsamples = 1\nvalue = [ 0.1102613]", shape="box"] ;
621 -> 622 ;
623 [label="mse = 0.0000\nsamples = 1\nvalue = [ 0.12341015]", shape="box"] ;
621 -> 623 ;
624 [label="X[1] <= 0.1750\nmse = 6.88298765032e-06\nsamples = 2", shape="box"] ;
620 -> 624 ;
625 [label="mse = 0.0000\nsamples = 1\nvalue = [ 0.14946648]", shape="box"] ;
624 -> 625 ;
626 [label="mse = 0.0000\nsamples = 1\nvalue = [ 0.14575623]", shape="box"] ;
624 -> 626 ;
627 [label="X[0] <= 0.1450\nmse = 0.000413232242705\nsamples = 3", shape="box"] ;
619 -> 627 ;
628 [label="X[0] <= 0.1250\nmse = 2.5234234402e-05\nsamples = 2", shape="box"] ;
627 -> 628 ;
629 [label="mse = 0.0000\nsamples = 1\nvalue = [ 0.14460744]", shape="box"] ;
628 -> 629 ;
630 [label="mse = 0.0000\nsamples = 1\nvalue = [ 0.15171156]", shape="box"] ;
628 -> 630 ;
631 [label="mse = 0.0000\nsamples = 1\nvalue = [ 0.17228412]", shape="box"] ;
627 -> 631 ;
632 [label="X[1] <= 0.1950\nmse = 0.0063238774972\nsamples = 11", shape="box"] ;
618 -> 632 ;
633 [label="X[1] <= 0.1850\nmse = 0.00210752438334\nsamples = 9", shape="box"] ;
632 -> 633 ;
634 [label="X[0] <= 0.2650\nmse = 0.000886232581058\nsamples = 6", shape="box"] ;
633 -> 634 ;
635 [label="X[1] <= 0.1750\nmse = 0.000185189001189\nsamples = 3", shape="box"] ;
634 -> 635 ;
636 [label="X[0] <= 0.2500\nmse = 4.27756199427e-05\nsamples = 2", shape="box"] ;
635 -> 636 ;
637 [label="mse = 0.0000\nsamples = 1\nvalue = [ 0.16350417]", shape="box"] ;
636 -> 637 ;
638 [label="mse = 0.0000\nsamples = 1\nvalue = [ 0.17275356]", shape="box"] ;
636 -> 638 ;
639 [label="mse = 0.0000\nsamples = 1\nvalue = [ 0.18274461]", shape="box"] ;
635 -> 639 ;
640 [label="X[1] <= 0.1750\nmse = 7.49400903919e-05\nsamples = 3", shape="box"] ;
634 -> 640 ;
641 [label="X[0] <= 0.3000\nmse = 4.1580321214e-05\nsamples = 2", shape="box"] ;
640 -> 641 ;
642 [label="mse = 0.0000\nsamples = 1\nvalue = [ 0.18651362]", shape="box"] ;
641 -> 642 ;
643 [label="mse = 0.0000\nsamples = 1\nvalue = [ 0.19563287]", shape="box"] ;
641 -> 643 ;
644 [label="mse = 0.0000\nsamples = 1\nvalue = [ 0.19814712]", shape="box"] ;
640 -> 644 ;
645 [label="X[0] <= 0.2500\nmse = 0.000453288421315\nsamples = 3", shape="box"] ;
633 -> 645 ;
646 [label="X[0] <= 0.2250\nmse = 1.6546289633e-05\nsamples = 2", shape="box"] ;
645 -> 646 ;
647 [label="mse = 0.0000\nsamples = 1\nvalue = [ 0.19140392]", shape="box"] ;
646 -> 647 ;
648 [label="mse = 0.0000\nsamples = 1\nvalue = [ 0.19715653]", shape="box"] ;
646 -> 648 ;
649 [label="mse = 0.0000\nsamples = 1\nvalue = [ 0.2198754]", shape="box"] ;
645 -> 649 ;
650 [label="X[0] <= 0.2600\nmse = 0.000691399255962\nsamples = 2", shape="box"] ;
632 -> 650 ;
651 [label="mse = 0.0000\nsamples = 1\nvalue = [ 0.21756767]", shape="box"] ;
650 -> 651 ;
652 [label="mse = 0.0000\nsamples = 1\nvalue = [ 0.25475367]", shape="box"] ;
650 -> 652 ;
653 [label="X[0] <= 0.2350\nmse = 0.0261663914087\nsamples = 13", shape="box"] ;
617 -> 653 ;
654 [label="X[0] <= 0.1350\nmse = 0.00577094848944\nsamples = 7", shape="box"] ;
653 -> 654 ;
655 [label="mse = 0.0000\nsamples = 1\nvalue = [ 0.16681616]", shape="box"] ;
654 -> 655 ;
656 [label="X[0] <= 0.1950\nmse = 0.00236775862975\nsamples = 6", shape="box"] ;
654 -> 656 ;
657 [label="X[1] <= 0.2250\nmse = 0.000301488559249\nsamples = 3", shape="box"] ;
656 -> 657 ;
658 [label="X[1] <= 0.2150\nmse = 0.000190531809972\nsamples = 2", shape="box"] ;
657 -> 658 ;
659 [label="mse = 0.0000\nsamples = 1\nvalue = [ 0.21090575]", shape="box"] ;
658 -> 659 ;
660 [label="mse = 0.0000\nsamples = 1\nvalue = [ 0.2304266]", shape="box"] ;
658 -> 660 ;
661 [label="mse = 0.0000\nsamples = 1\nvalue = [ 0.2077652]", shape="box"] ;
657 -> 661 ;
662 [label="X[1] <= 0.2150\nmse = 0.000979026403619\nsamples = 3", shape="box"] ;
656 -> 662 ;
663 [label="mse = 0.0000\nsamples = 1\nvalue = [ 0.21794966]", shape="box"] ;
662 -> 663 ;
664 [label="X[1] <= 0.2250\nmse = 1.59407336244e-05\nsamples = 2", shape="box"] ;
662 -> 664 ;
665 [label="mse = 0.0000\nsamples = 1\nvalue = [ 0.25313474]", shape="box"] ;
664 -> 665 ;
666 [label="mse = 0.0000\nsamples = 1\nvalue = [ 0.25878111]", shape="box"] ;
664 -> 666 ;
667 [label="X[0] <= 0.2600\nmse = 0.000999670441887\nsamples = 6", shape="box"] ;
653 -> 667 ;
668 [label="mse = 0.0000\nsamples = 1\nvalue = [ 0.27531458]", shape="box"] ;
667 -> 668 ;
669 [label="X[1] <= 0.2150\nmse = 0.000365258040534\nsamples = 5", shape="box"] ;
667 -> 669 ;
670 [label="X[0] <= 0.3150\nmse = 2.17657522216e-05\nsamples = 2", shape="box"] ;
669 -> 670 ;
671 [label="mse = 0.0000\nsamples = 1\nvalue = [ 0.29244522]", shape="box"] ;
670 -> 671 ;
672 [label="mse = 0.0000\nsamples = 1\nvalue = [ 0.29904306]", shape="box"] ;
670 -> 672 ;
673 [label="X[1] <= 0.2250\nmse = 0.000172510950399\nsamples = 3", shape="box"] ;
669 -> 673 ;
674 [label="X[0] <= 0.2900\nmse = 0.000103008569943\nsamples = 2", shape="box"] ;
673 -> 674 ;
675 [label="mse = 0.0000\nsamples = 1\nvalue = [ 0.29710069]", shape="box"] ;
674 -> 675 ;
676 [label="mse = 0.0000\nsamples = 1\nvalue = [ 0.31145399]", shape="box"] ;
674 -> 676 ;
677 [label="mse = 0.0000\nsamples = 1\nvalue = [ 0.3144878]", shape="box"] ;
673 -> 677 ;
678 [label="X[0] <= 0.1950\nmse = 0.111343805057\nsamples = 30", shape="box"] ;
616 -> 678 ;
679 [label="X[1] <= 0.2650\nmse = 0.0115734156056\nsamples = 11", shape="box"] ;
678 -> 679 ;
680 [label="X[0] <= 0.1600\nmse = 0.000539447811231\nsamples = 4", shape="box"] ;
679 -> 680 ;
681 [label="X[0] <= 0.1450\nmse = 5.83870309004e-05\nsamples = 2", shape="box"] ;
680 -> 681 ;
682 [label="mse = 0.0000\nsamples = 1\nvalue = [ 0.26158134]", shape="box"] ;
681 -> 682 ;
683 [label="mse = 0.0000\nsamples = 1\nvalue = [ 0.27238754]", shape="box"] ;
681 -> 683 ;
684 [label="X[1] <= 0.2500\nmse = 0.000246543187603\nsamples = 2", shape="box"] ;
680 -> 684 ;
685 [label="mse = 0.0000\nsamples = 1\nvalue = [ 0.27119563]", shape="box"] ;
684 -> 685 ;
686 [label="mse = 0.0000\nsamples = 1\nvalue = [ 0.29340118]", shape="box"] ;
684 -> 686 ;
687 [label="X[0] <= 0.1550\nmse = 0.00613870079508\nsamples = 7", shape="box"] ;
679 -> 687 ;
688 [label="X[1] <= 0.2900\nmse = 0.00183858874059\nsamples = 4", shape="box"] ;
687 -> 688 ;
689 [label="X[1] <= 0.2750\nmse = 0.000169059719055\nsamples = 2", shape="box"] ;
688 -> 689 ;
690 [label="mse = 0.0000\nsamples = 1\nvalue = [ 0.26861687]", shape="box"] ;
689 -> 690 ;
691 [label="mse = 0.0000\nsamples = 1\nvalue = [ 0.28700489]", shape="box"] ;
689 -> 691 ;
692 [label="X[0] <= 0.1250\nmse = 9.75000367024e-05\nsamples = 2", shape="box"] ;
688 -> 692 ;
693 [label="mse = 0.0000\nsamples = 1\nvalue = [ 0.31047758]", shape="box"] ;
692 -> 693 ;
694 [label="mse = 0.0000\nsamples = 1\nvalue = [ 0.32444182]", shape="box"] ;
692 -> 694 ;
695 [label="X[1] <= 0.2750\nmse = 0.00023890367683\nsamples = 3", shape="box"] ;
687 -> 695 ;
696 [label="mse = 0.0000\nsamples = 1\nvalue = [ 0.33545654]", shape="box"] ;
695 -> 696 ;
697 [label="X[0] <= 0.1850\nmse = 6.22706815669e-05\nsamples = 2", shape="box"] ;
695 -> 697 ;
698 [label="mse = 0.0000\nsamples = 1\nvalue = [ 0.34615391]", shape="box"] ;
697 -> 698 ;
699 [label="mse = 0.0000\nsamples = 1\nvalue = [ 0.35731372]", shape="box"] ;
697 -> 699 ;
700 [label="X[1] <= 0.2650\nmse = 0.0547556918439\nsamples = 19", shape="box"] ;
678 -> 700 ;
701 [label="X[0] <= 0.2450\nmse = 0.00500619586505\nsamples = 9", shape="box"] ;
700 -> 701 ;
702 [label="X[1] <= 0.2450\nmse = 0.00137283126937\nsamples = 5", shape="box"] ;
701 -> 702 ;
703 [label="X[0] <= 0.2300\nmse = 0.000145433015202\nsamples = 2", shape="box"] ;
702 -> 703 ;
704 [label="mse = 0.0000\nsamples = 1\nvalue = [ 0.2973912]", shape="box"] ;
703 -> 704 ;
705 [label="mse = 0.0000\nsamples = 1\nvalue = [ 0.31444599]", shape="box"] ;
703 -> 705 ;
706 [label="X[0] <= 0.2100\nmse = 0.000206574353853\nsamples = 3", shape="box"] ;
702 -> 706 ;
707 [label="mse = 0.0000\nsamples = 1\nvalue = [ 0.32370496]", shape="box"] ;
706 -> 707 ;
708 [label="X[1] <= 0.2550\nmse = 1.23118941832e-05\nsamples = 2", shape="box"] ;
706 -> 708 ;
709 [label="mse = 0.0000\nsamples = 1\nvalue = [ 0.33829409]", shape="box"] ;
708 -> 709 ;
710 [label="mse = 0.0000\nsamples = 1\nvalue = [ 0.34325633]", shape="box"] ;
708 -> 710 ;
711 [label="X[1] <= 0.2550\nmse = 0.000640840120332\nsamples = 4", shape="box"] ;
701 -> 711 ;
712 [label="X[0] <= 0.2550\nmse = 5.18241439711e-05\nsamples = 3", shape="box"] ;
711 -> 712 ;
713 [label="mse = 0.0000\nsamples = 1\nvalue = [ 0.3472314]", shape="box"] ;
712 -> 713 ;
714 [label="mse = 0.0000\nsamples = 2\nvalue = [ 0.35604782]", shape="box"] ;
712 -> 714 ;
715 [label="mse = 0.0000\nsamples = 1\nvalue = [ 0.38113319]", shape="box"] ;
711 -> 715 ;
716 [label="X[0] <= 0.2550\nmse = 0.0178319619675\nsamples = 10", shape="box"] ;
700 -> 716 ;
717 [label="X[1] <= 0.2750\nmse = 0.00452651868866\nsamples = 6", shape="box"] ;
716 -> 717 ;
718 [label="mse = 0.0000\nsamples = 1\nvalue = [ 0.34594513]", shape="box"] ;
717 -> 718 ;
719 [label="X[1] <= 0.2950\nmse = 0.00156489354187\nsamples = 5", shape="box"] ;
717 -> 719 ;
720 [label="X[0] <= 0.2300\nmse = 0.000933098111513\nsamples = 3", shape="box"] ;
719 -> 720 ;
721 [label="X[1] <= 0.2850\nmse = 6.62554279411e-05\nsamples = 2", shape="box"] ;
720 -> 721 ;
722 [label="mse = 0.0000\nsamples = 1\nvalue = [ 0.37910835]", shape="box"] ;
721 -> 722 ;
723 [label="mse = 0.0000\nsamples = 1\nvalue = [ 0.39061968]", shape="box"] ;
721 -> 723 ;
724 [label="mse = 0.0000\nsamples = 1\nvalue = [ 0.42092319]", shape="box"] ;
720 -> 724 ;
725 [label="X[0] <= 0.2050\nmse = 6.71948905004e-05\nsamples = 2", shape="box"] ;
719 -> 725 ;
726 [label="mse = 0.0000\nsamples = 1\nvalue = [ 0.41277843]", shape="box"] ;
725 -> 726 ;
727 [label="mse = 0.0000\nsamples = 1\nvalue = [ 0.42437109]", shape="box"] ;
725 -> 727 ;
728 [label="X[1] <= 0.2800\nmse = 0.00301671380791\nsamples = 4", shape="box"] ;
716 -> 728 ;
729 [label="X[0] <= 0.2950\nmse = 0.00110738754226\nsamples = 2", shape="box"] ;
728 -> 729 ;
730 [label="mse = 0.0000\nsamples = 1\nvalue = [ 0.41584709]", shape="box"] ;
729 -> 730 ;
731 [label="mse = 0.0000\nsamples = 1\nvalue = [ 0.46290849]", shape="box"] ;
729 -> 731 ;
732 [label="X[1] <= 0.2950\nmse = 2.20340588536e-05\nsamples = 2", shape="box"] ;
728 -> 732 ;
733 [label="mse = 0.0000\nsamples = 1\nvalue = [ 0.48613995]", shape="box"] ;
732 -> 733 ;
734 [label="mse = 0.0000\nsamples = 1\nvalue = [ 0.47950157]", shape="box"] ;
732 -> 734 ;
735 [label="X[0] <= 0.3050\nmse = 8.16137441952\nsamples = 187", shape="box"] ;
545 -> 735 ;
736 [label="X[0] <= 0.0150\nmse = 4.67627744585\nsamples = 174", shape="box"] ;
735 -> 736 ;
737 [label="X[0] <= 0.0050\nmse = 0.0697514162629\nsamples = 8", shape="box"] ;
736 -> 737 ;
738 [label="mse = 0.0000\nsamples = 6\nvalue = [ 0.]", shape="box"] ;
737 -> 738 ;
739 [label="X[1] <= 0.4550\nmse = 0.0113184473988\nsamples = 2", shape="box"] ;
737 -> 739 ;
740 [label="mse = 0.0000\nsamples = 1\nvalue = [ 0.12214319]", shape="box"] ;
739 -> 740 ;
741 [label="mse = 0.0000\nsamples = 1\nvalue = [ 0.27259881]", shape="box"] ;
739 -> 741 ;
742 [label="X[1] <= 0.5350\nmse = 3.43245439938\nsamples = 166", shape="box"] ;
736 -> 742 ;
743 [label="X[0] <= 0.0550\nmse = 1.61858470662\nsamples = 129", shape="box"] ;
742 -> 743 ;
744 [label="X[1] <= 0.4750\nmse = 0.153402740723\nsamples = 21", shape="box"] ;
743 -> 744 ;
745 [label="X[1] <= 0.3850\nmse = 0.0365006682791\nsamples = 14", shape="box"] ;
744 -> 745 ;
746 [label="X[0] <= 0.0350\nmse = 0.00720147166572\nsamples = 5", shape="box"] ;
745 -> 746 ;
747 [label="X[1] <= 0.3450\nmse = 6.65251901358e-05\nsamples = 3", shape="box"] ;
746 -> 747 ;
748 [label="mse = 0.0000\nsamples = 1\nvalue = [ 0.18978727]", shape="box"] ;
747 -> 748 ;
749 [label="X[1] <= 0.3650\nmse = 4.06853458404e-05\nsamples = 2", shape="box"] ;
747 -> 749 ;
750 [label="mse = 0.0000\nsamples = 1\nvalue = [ 0.20052329]", shape="box"] ;
749 -> 750 ;
751 [label="mse = 0.0000\nsamples = 1\nvalue = [ 0.19150272]", shape="box"] ;
749 -> 751 ;
752 [label="X[1] <= 0.3700\nmse = 5.88506994273e-06\nsamples = 2", shape="box"] ;
746 -> 752 ;
753 [label="mse = 0.0000\nsamples = 1\nvalue = [ 0.27273028]", shape="box"] ;
752 -> 753 ;
754 [label="mse = 0.0000\nsamples = 1\nvalue = [ 0.26929952]", shape="box"] ;
752 -> 754 ;
755 [label="X[0] <= 0.0250\nmse = 0.013890631701\nsamples = 9", shape="box"] ;
745 -> 755 ;
756 [label="X[1] <= 0.4550\nmse = 0.00138161199295\nsamples = 3", shape="box"] ;
755 -> 756 ;
757 [label="X[1] <= 0.4300\nmse = 0.000212089281508\nsamples = 2", shape="box"] ;
756 -> 757 ;
758 [label="mse = 0.0000\nsamples = 1\nvalue = [ 0.23107873]", shape="box"] ;
757 -> 758 ;
759 [label="mse = 0.0000\nsamples = 1\nvalue = [ 0.25167433]", shape="box"] ;
757 -> 759 ;
760 [label="mse = 0.0000\nsamples = 1\nvalue = [ 0.2832607]", shape="box"] ;
756 -> 760 ;
761 [label="X[0] <= 0.0450\nmse = 0.00578062686954\nsamples = 6", shape="box"] ;
755 -> 761 ;
762 [label="X[1] <= 0.4450\nmse = 0.00189338573156\nsamples = 4", shape="box"] ;
761 -> 762 ;
763 [label="X[0] <= 0.0350\nmse = 0.00078131988266\nsamples = 3", shape="box"] ;
762 -> 763 ;
764 [label="X[1] <= 0.4200\nmse = 0.000280439646631\nsamples = 2", shape="box"] ;
763 -> 764 ;
765 [label="mse = 0.0000\nsamples = 1\nvalue = [ 0.2686654]", shape="box"] ;
764 -> 765 ;
766 [label="mse = 0.0000\nsamples = 1\nvalue = [ 0.29234829]", shape="box"] ;
764 -> 766 ;
767 [label="mse = 0.0000\nsamples = 1\nvalue = [ 0.30791707]", shape="box"] ;
763 -> 767 ;
768 [label="mse = 0.0000\nsamples = 1\nvalue = [ 0.32815014]", shape="box"] ;
762 -> 768 ;
769 [label="X[1] <= 0.4100\nmse = 0.00151186780777\nsamples = 2", shape="box"] ;
761 -> 769 ;
770 [label="mse = 0.0000\nsamples = 1\nvalue = [ 0.31398414]", shape="box"] ;
769 -> 770 ;
771 [label="mse = 0.0000\nsamples = 1\nvalue = [ 0.36897265]", shape="box"] ;
769 -> 771 ;
772 [label="X[0] <= 0.0250\nmse = 0.0128544551854\nsamples = 7", shape="box"] ;
744 -> 772 ;
773 [label="mse = 0.0000\nsamples = 1\nvalue = [ 0.33659792]", shape="box"] ;
772 -> 773 ;
774 [label="X[0] <= 0.0450\nmse = 0.00501008711396\nsamples = 6", shape="box"] ;
772 -> 774 ;
775 [label="X[1] <= 0.4950\nmse = 0.000798700786256\nsamples = 3", shape="box"] ;
774 -> 775 ;
776 [label="mse = 0.0000\nsamples = 1\nvalue = [ 0.39697704]", shape="box"] ;
775 -> 776 ;
777 [label="X[1] <= 0.5150\nmse = 0.000583698883519\nsamples = 2", shape="box"] ;
775 -> 777 ;
778 [label="mse = 0.0000\nsamples = 1\nvalue = [ 0.432019]", shape="box"] ;
777 -> 778 ;
779 [label="mse = 0.0000\nsamples = 1\nvalue = [ 0.3978518]", shape="box"] ;
777 -> 779 ;
780 [label="X[1] <= 0.4900\nmse = 0.000950275350932\nsamples = 3", shape="box"] ;
774 -> 780 ;
781 [label="mse = 0.0000\nsamples = 1\nvalue = [ 0.43339428]", shape="box"] ;
780 -> 781 ;
782 [label="X[1] <= 0.5100\nmse = 0.000212215566605\nsamples = 2", shape="box"] ;
780 -> 782 ;
783 [label="mse = 0.0000\nsamples = 1\nvalue = [ 0.45636637]", shape="box"] ;
782 -> 783 ;
784 [label="mse = 0.0000\nsamples = 1\nvalue = [ 0.4769681]", shape="box"] ;
782 -> 784 ;
785 [label="X[0] <= 0.1250\nmse = 0.875828262651\nsamples = 108", shape="box"] ;
743 -> 785 ;
786 [label="X[1] <= 0.4350\nmse = 0.244852830336\nsamples = 37", shape="box"] ;
785 -> 786 ;
787 [label="X[1] <= 0.3550\nmse = 0.058650071786\nsamples = 19", shape="box"] ;
786 -> 787 ;
788 [label="X[0] <= 0.0950\nmse = 0.0106460253545\nsamples = 9", shape="box"] ;
787 -> 788 ;
789 [label="X[1] <= 0.3250\nmse = 0.000153192054151\nsamples = 3", shape="box"] ;
788 -> 789 ;
790 [label="X[1] <= 0.3150\nmse = 1.01773719796e-06\nsamples = 2", shape="box"] ;
789 -> 790 ;
791 [label="mse = 0.0000\nsamples = 1\nvalue = [ 0.28180708]", shape="box"] ;
790 -> 791 ;
792 [label="mse = 0.0000\nsamples = 1\nvalue = [ 0.28038038]", shape="box"] ;
790 -> 792 ;
793 [label="mse = 0.0000\nsamples = 1\nvalue = [ 0.29620205]", shape="box"] ;
789 -> 793 ;
794 [label="X[1] <= 0.3350\nmse = 0.000964263578335\nsamples = 6", shape="box"] ;
788 -> 794 ;
795 [label="X[0] <= 0.1050\nmse = 0.000545125098049\nsamples = 3", shape="box"] ;
794 -> 795 ;
796 [label="mse = 0.0000\nsamples = 1\nvalue = [ 0.33246972]", shape="box"] ;
795 -> 796 ;
797 [label="X[0] <= 0.1150\nmse = 0.000130524072616\nsamples = 2", shape="box"] ;
795 -> 797 ;
798 [label="mse = 0.0000\nsamples = 1\nvalue = [ 0.34932918]", shape="box"] ;
797 -> 798 ;
799 [label="mse = 0.0000\nsamples = 1\nvalue = [ 0.36548616]", shape="box"] ;
797 -> 799 ;
800 [label="X[0] <= 0.1050\nmse = 0.000198897422091\nsamples = 3", shape="box"] ;
794 -> 800 ;
801 [label="X[1] <= 0.3450\nmse = 0.000147219542582\nsamples = 2", shape="box"] ;
800 -> 801 ;
802 [label="mse = 0.0000\nsamples = 1\nvalue = [ 0.34969785]", shape="box"] ;
801 -> 802 ;
803 [label="mse = 0.0000\nsamples = 1\nvalue = [ 0.36685708]", shape="box"] ;
801 -> 803 ;
804 [label="mse = 0.0000\nsamples = 1\nvalue = [ 0.36708183]", shape="box"] ;
800 -> 804 ;
805 [label="X[0] <= 0.1050\nmse = 0.00754626517299\nsamples = 10", shape="box"] ;
787 -> 805 ;
806 [label="X[1] <= 0.4150\nmse = 0.00153675756832\nsamples = 5", shape="box"] ;
805 -> 806 ;
807 [label="X[1] <= 0.3650\nmse = 0.000168268719277\nsamples = 4", shape="box"] ;
806 -> 807 ;
808 [label="mse = 0.0000\nsamples = 1\nvalue = [ 0.38386566]", shape="box"] ;
807 -> 808 ;
809 [label="X[1] <= 0.3750\nmse = 6.76969641977e-06\nsamples = 3", shape="box"] ;
807 -> 809 ;
810 [label="mse = 0.0000\nsamples = 1\nvalue = [ 0.40063631]", shape="box"] ;
809 -> 810 ;
811 [label="X[1] <= 0.3950\nmse = 1.77019585157e-07\nsamples = 2", shape="box"] ;
809 -> 811 ;
812 [label="mse = 0.0000\nsamples = 1\nvalue = [ 0.39719412]", shape="box"] ;
811 -> 812 ;
813 [label="mse = 0.0000\nsamples = 1\nvalue = [ 0.39778914]", shape="box"] ;
811 -> 813 ;
814 [label="mse = 0.0000\nsamples = 1\nvalue = [ 0.43623084]", shape="box"] ;
806 -> 814 ;
815 [label="X[1] <= 0.3750\nmse = 0.00142113316536\nsamples = 5", shape="box"] ;
805 -> 815 ;
816 [label="X[1] <= 0.3650\nmse = 0.000148080183305\nsamples = 2", shape="box"] ;
815 -> 816 ;
817 [label="mse = 0.0000\nsamples = 1\nvalue = [ 0.41932671]", shape="box"] ;
816 -> 817 ;
818 [label="mse = 0.0000\nsamples = 1\nvalue = [ 0.43653602]", shape="box"] ;
816 -> 818 ;
819 [label="X[0] <= 0.1150\nmse = 0.000186703617208\nsamples = 3", shape="box"] ;
815 -> 819 ;
820 [label="mse = 0.0000\nsamples = 1\nvalue = [ 0.45173021]", shape="box"] ;
819 -> 820 ;
821 [label="X[1] <= 0.3850\nmse = 0.000127372310881\nsamples = 2", shape="box"] ;
819 -> 821 ;
822 [label="mse = 0.0000\nsamples = 1\nvalue = [ 0.45318367]", shape="box"] ;
821 -> 822 ;
823 [label="mse = 0.0000\nsamples = 1\nvalue = [ 0.46914439]", shape="box"] ;
821 -> 823 ;
824 [label="X[0] <= 0.0850\nmse = 0.0121536341421\nsamples = 18", shape="box"] ;
786 -> 824 ;
825 [label="X[1] <= 0.4800\nmse = 0.0029932345171\nsamples = 8", shape="box"] ;
824 -> 825 ;
826 [label="X[0] <= 0.0700\nmse = 0.00122303309682\nsamples = 3", shape="box"] ;
825 -> 826 ;
827 [label="mse = 0.0000\nsamples = 1\nvalue = [ 0.4515992]", shape="box"] ;
826 -> 827 ;
828 [label="X[1] <= 0.4650\nmse = 5.90172010209e-05\nsamples = 2", shape="box"] ;
826 -> 828 ;
829 [label="mse = 0.0000\nsamples = 1\nvalue = [ 0.48795247]", shape="box"] ;
828 -> 829 ;
830 [label="mse = 0.0000\nsamples = 1\nvalue = [ 0.49881683]", shape="box"] ;
828 -> 830 ;
831 [label="X[1] <= 0.4950\nmse = 0.000600698526171\nsamples = 5", shape="box"] ;
825 -> 831 ;
832 [label="mse = 0.0000\nsamples = 1\nvalue = [ 0.51734148]", shape="box"] ;
831 -> 832 ;
833 [label="X[1] <= 0.5100\nmse = 0.000392343122221\nsamples = 4", shape="box"] ;
831 -> 833 ;
834 [label="X[0] <= 0.0650\nmse = 0.000252469372896\nsamples = 2", shape="box"] ;
833 -> 834 ;
835 [label="mse = 0.0000\nsamples = 1\nvalue = [ 0.48469025]", shape="box"] ;
834 -> 835 ;
836 [label="mse = 0.0000\nsamples = 1\nvalue = [ 0.50716109]", shape="box"] ;
834 -> 836 ;
837 [label="X[1] <= 0.5250\nmse = 2.84647654124e-05\nsamples = 2", shape="box"] ;
833 -> 837 ;
838 [label="mse = 0.0000\nsamples = 1\nvalue = [ 0.50270813]", shape="box"] ;
837 -> 838 ;
839 [label="mse = 0.0000\nsamples = 1\nvalue = [ 0.5102533]", shape="box"] ;
837 -> 839 ;
840 [label="X[1] <= 0.4950\nmse = 0.0015802399003\nsamples = 10", shape="box"] ;
824 -> 840 ;
841 [label="X[1] <= 0.4850\nmse = 0.000200630348773\nsamples = 5", shape="box"] ;
840 -> 841 ;
842 [label="X[0] <= 0.1050\nmse = 0.000128986001583\nsamples = 4", shape="box"] ;
841 -> 842 ;
843 [label="X[1] <= 0.4550\nmse = 7.77237246852e-05\nsamples = 3", shape="box"] ;
842 -> 843 ;
844 [label="mse = 0.0000\nsamples = 1\nvalue = [ 0.51401427]", shape="box"] ;
843 -> 844 ;
845 [label="X[1] <= 0.4700\nmse = 1.42799191127e-06\nsamples = 2", shape="box"] ;
843 -> 845 ;
846 [label="mse = 0.0000\nsamples = 1\nvalue = [ 0.52386712]", shape="box"] ;
845 -> 846 ;
847 [label="mse = 0.0000\nsamples = 1\nvalue = [ 0.52555709]", shape="box"] ;
845 -> 847 ;
848 [label="mse = 0.0000\nsamples = 1\nvalue = [ 0.52941355]", shape="box"] ;
842 -> 848 ;
849 [label="mse = 0.0000\nsamples = 1\nvalue = [ 0.53267638]", shape="box"] ;
841 -> 849 ;
850 [label="X[1] <= 0.5200\nmse = 0.000112229417656\nsamples = 5", shape="box"] ;
840 -> 850 ;
851 [label="X[1] <= 0.5050\nmse = 1.29911657931e-05\nsamples = 2", shape="box"] ;
850 -> 851 ;
852 [label="mse = 0.0000\nsamples = 1\nvalue = [ 0.5549828]", shape="box"] ;
851 -> 852 ;
853 [label="mse = 0.0000\nsamples = 1\nvalue = [ 0.54988551]", shape="box"] ;
851 -> 853 ;
854 [label="X[0] <= 0.1150\nmse = 2.20256940777e-05\nsamples = 3", shape="box"] ;
850 -> 854 ;
855 [label="X[0] <= 0.1050\nmse = 1.20691650196e-06\nsamples = 2", shape="box"] ;
854 -> 855 ;
856 [label="mse = 0.0000\nsamples = 1\nvalue = [ 0.54705226]", shape="box"] ;
855 -> 856 ;
857 [label="mse = 0.0000\nsamples = 1\nvalue = [ 0.54549861]", shape="box"] ;
855 -> 857 ;
858 [label="mse = 0.0000\nsamples = 1\nvalue = [ 0.54068722]", shape="box"] ;
854 -> 858 ;
859 [label="X[1] <= 0.5000\nmse = 0.463214575115\nsamples = 71", shape="box"] ;
785 -> 859 ;
860 [label="X[1] <= 0.3450\nmse = 0.200622378099\nsamples = 61", shape="box"] ;
859 -> 860 ;
861 [label="X[0] <= 0.2350\nmse = 0.0330683777089\nsamples = 11", shape="box"] ;
860 -> 861 ;
862 [label="X[0] <= 0.1800\nmse = 0.00377954843978\nsamples = 6", shape="box"] ;
861 -> 862 ;
863 [label="X[0] <= 0.1600\nmse = 0.000439608526284\nsamples = 3", shape="box"] ;
862 -> 863 ;
864 [label="X[1] <= 0.3350\nmse = 9.89151343189e-06\nsamples = 2", shape="box"] ;
863 -> 864 ;
865 [label="mse = 0.0000\nsamples = 1\nvalue = [ 0.4104771]", shape="box"] ;
864 -> 865 ;
866 [label="mse = 0.0000\nsamples = 1\nvalue = [ 0.41492492]", shape="box"] ;
864 -> 866 ;
867 [label="mse = 0.0000\nsamples = 1\nvalue = [ 0.4380895]", shape="box"] ;
863 -> 867 ;
868 [label="X[1] <= 0.3250\nmse = 0.000733555324742\nsamples = 3", shape="box"] ;
862 -> 868 ;
869 [label="X[0] <= 0.2150\nmse = 6.77979582637e-05\nsamples = 2", shape="box"] ;
868 -> 869 ;
870 [label="mse = 0.0000\nsamples = 1\nvalue = [ 0.44649223]", shape="box"] ;
869 -> 870 ;
871 [label="mse = 0.0000\nsamples = 1\nvalue = [ 0.45813679]", shape="box"] ;
869 -> 871 ;
872 [label="mse = 0.0000\nsamples = 1\nvalue = [ 0.48391572]", shape="box"] ;
868 -> 872 ;
873 [label="X[0] <= 0.2550\nmse = 0.000231146334348\nsamples = 5", shape="box"] ;
861 -> 873 ;
874 [label="mse = 0.0000\nsamples = 1\nvalue = [ 0.53463656]", shape="box"] ;
873 -> 874 ;
875 [label="X[0] <= 0.2850\nmse = 9.09602147274e-05\nsamples = 4", shape="box"] ;
873 -> 875 ;
876 [label="mse = 0.0000\nsamples = 2\nvalue = [ 0.54561969]", shape="box"] ;
875 -> 876 ;
877 [label="X[1] <= 0.3150\nmse = 7.05617889648e-05\nsamples = 2", shape="box"] ;
875 -> 877 ;
878 [label="mse = 0.0000\nsamples = 1\nvalue = [ 0.54418876]", shape="box"] ;
877 -> 878 ;
879 [label="mse = 0.0000\nsamples = 1\nvalue = [ 0.5560683]", shape="box"] ;
877 -> 879 ;
880 [label="X[1] <= 0.4850\nmse = 0.115896789\nsamples = 50", shape="box"] ;
860 -> 880 ;
881 [label="X[0] <= 0.2350\nmse = 0.0709387267808\nsamples = 44", shape="box"] ;
880 -> 881 ;
882 [label="X[1] <= 0.3800\nmse = 0.0363453092324\nsamples = 31", shape="box"] ;
881 -> 882 ;
883 [label="X[0] <= 0.1900\nmse = 0.013664880985\nsamples = 8", shape="box"] ;
882 -> 883 ;
884 [label="X[0] <= 0.1450\nmse = 0.001143460223\nsamples = 3", shape="box"] ;
883 -> 884 ;
885 [label="mse = 0.0000\nsamples = 1\nvalue = [ 0.45305507]", shape="box"] ;
884 -> 885 ;
886 [label="X[1] <= 0.3600\nmse = 3.20748881155e-05\nsamples = 2", shape="box"] ;
884 -> 886 ;
887 [label="mse = 0.0000\nsamples = 1\nvalue = [ 0.48988026]", shape="box"] ;
886 -> 887 ;
888 [label="mse = 0.0000\nsamples = 1\nvalue = [ 0.49788962]", shape="box"] ;
886 -> 888 ;
889 [label="X[1] <= 0.3600\nmse = 0.00121607709388\nsamples = 5", shape="box"] ;
883 -> 889 ;
890 [label="X[0] <= 0.2250\nmse = 6.35148313031e-05\nsamples = 2", shape="box"] ;
889 -> 890 ;
891 [label="mse = 0.0000\nsamples = 1\nvalue = [ 0.5388687]", shape="box"] ;
890 -> 891 ;
892 [label="mse = 0.0000\nsamples = 1\nvalue = [ 0.55013944]", shape="box"] ;
890 -> 892 ;
893 [label="X[0] <= 0.2100\nmse = 0.000552162294258\nsamples = 3", shape="box"] ;
889 -> 893 ;
894 [label="mse = 0.0000\nsamples = 1\nvalue = [ 0.54864323]", shape="box"] ;
893 -> 894 ;
895 [label="X[0] <= 0.2250\nmse = 5.37192997515e-05\nsamples = 2", shape="box"] ;
893 -> 895 ;
896 [label="mse = 0.0000\nsamples = 1\nvalue = [ 0.57080406]", shape="box"] ;
895 -> 896 ;
897 [label="mse = 0.0000\nsamples = 1\nvalue = [ 0.58116932]", shape="box"] ;
895 -> 897 ;
898 [label="X[0] <= 0.1650\nmse = 0.0133486130252\nsamples = 23", shape="box"] ;
882 -> 898 ;
899 [label="X[1] <= 0.4350\nmse = 0.00331192052049\nsamples = 11", shape="box"] ;
898 -> 899 ;
900 [label="X[0] <= 0.1500\nmse = 0.00117746272236\nsamples = 5", shape="box"] ;
899 -> 900 ;
901 [label="X[1] <= 0.4150\nmse = 1.72971228085e-06\nsamples = 2", shape="box"] ;
900 -> 901 ;
902 [label="mse = 0.0000\nsamples = 1\nvalue = [ 0.52822995]", shape="box"] ;
901 -> 902 ;
903 [label="mse = 0.0000\nsamples = 1\nvalue = [ 0.52637]", shape="box"] ;
901 -> 903 ;
904 [label="X[1] <= 0.4000\nmse = 0.000637575911114\nsamples = 3", shape="box"] ;
900 -> 904 ;
905 [label="mse = 0.0000\nsamples = 1\nvalue = [ 0.52864389]", shape="box"] ;
904 -> 905 ;
906 [label="X[1] <= 0.4150\nmse = 4.75506516742e-05\nsamples = 2", shape="box"] ;
904 -> 906 ;
907 [label="mse = 0.0000\nsamples = 1\nvalue = [ 0.55351748]", shape="box"] ;
906 -> 907 ;
908 [label="mse = 0.0000\nsamples = 1\nvalue = [ 0.56326947]", shape="box"] ;
906 -> 908 ;
909 [label="X[1] <= 0.4650\nmse = 0.000296233532038\nsamples = 6", shape="box"] ;
899 -> 909 ;
910 [label="X[1] <= 0.4550\nmse = 1.6194176814e-05\nsamples = 2", shape="box"] ;
909 -> 910 ;
911 [label="mse = 0.0000\nsamples = 1\nvalue = [ 0.55434171]", shape="box"] ;
910 -> 911 ;
912 [label="mse = 0.0000\nsamples = 1\nvalue = [ 0.56003279]", shape="box"] ;
910 -> 912 ;
913 [label="X[0] <= 0.1350\nmse = 4.87365478901e-05\nsamples = 4", shape="box"] ;
909 -> 913 ;
914 [label="mse = 0.0000\nsamples = 1\nvalue = [ 0.56499314]", shape="box"] ;
913 -> 914 ;
915 [label="X[0] <= 0.1450\nmse = 1.03562804492e-05\nsamples = 3", shape="box"] ;
913 -> 915 ;
916 [label="mse = 0.0000\nsamples = 1\nvalue = [ 0.56995316]", shape="box"] ;
915 -> 916 ;
917 [label="X[1] <= 0.4750\nmse = 3.13873314939e-06\nsamples = 2", shape="box"] ;
915 -> 917 ;
918 [label="mse = 0.0000\nsamples = 1\nvalue = [ 0.57449624]", shape="box"] ;
917 -> 918 ;
919 [label="mse = 0.0000\nsamples = 1\nvalue = [ 0.57199075]", shape="box"] ;
917 -> 919 ;
920 [label="X[1] <= 0.4650\nmse = 0.00573130138741\nsamples = 12", shape="box"] ;
898 -> 920 ;
921 [label="X[0] <= 0.2100\nmse = 0.00134025817015\nsamples = 9", shape="box"] ;
920 -> 921 ;
922 [label="X[1] <= 0.3950\nmse = 0.00019637317682\nsamples = 5", shape="box"] ;
921 -> 922 ;
923 [label="mse = 0.0000\nsamples = 1\nvalue = [ 0.57518133]", shape="box"] ;
922 -> 923 ;
924 [label="X[1] <= 0.4250\nmse = 8.51095679051e-05\nsamples = 4", shape="box"] ;
922 -> 924 ;
925 [label="X[1] <= 0.4050\nmse = 4.39241763295e-07\nsamples = 2", shape="box"] ;
924 -> 925 ;
926 [label="mse = 0.0000\nsamples = 1\nvalue = [ 0.58527121]", shape="box"] ;
925 -> 926 ;
927 [label="mse = 0.0000\nsamples = 1\nvalue = [ 0.58433393]", shape="box"] ;
925 -> 927 ;
928 [label="X[1] <= 0.4500\nmse = 6.58008134472e-05\nsamples = 2", shape="box"] ;
924 -> 928 ;
929 [label="mse = 0.0000\nsamples = 1\nvalue = [ 0.59488236]", shape="box"] ;
928 -> 929 ;
930 [label="mse = 0.0000\nsamples = 1\nvalue = [ 0.58341059]", shape="box"] ;
928 -> 930 ;
931 [label="X[1] <= 0.4500\nmse = 0.000493559557693\nsamples = 4", shape="box"] ;
921 -> 931 ;
932 [label="X[1] <= 0.4350\nmse = 1.38059701975e-05\nsamples = 3", shape="box"] ;
931 -> 932 ;
933 [label="X[1] <= 0.4150\nmse = 1.11547578507e-06\nsamples = 2", shape="box"] ;
932 -> 933 ;
934 [label="mse = 0.0000\nsamples = 1\nvalue = [ 0.61024688]", shape="box"] ;
933 -> 934 ;
935 [label="mse = 0.0000\nsamples = 1\nvalue = [ 0.60875324]", shape="box"] ;
933 -> 935 ;
936 [label="mse = 0.0000\nsamples = 1\nvalue = [ 0.60513706]", shape="box"] ;
932 -> 936 ;
937 [label="mse = 0.0000\nsamples = 1\nvalue = [ 0.582754]", shape="box"] ;
931 -> 937 ;
938 [label="X[1] <= 0.4750\nmse = 0.000298345669468\nsamples = 3", shape="box"] ;
920 -> 938 ;
939 [label="mse = 0.0000\nsamples = 1\nvalue = [ 0.56000342]", shape="box"] ;
938 -> 939 ;
940 [label="X[0] <= 0.2200\nmse = 0.000135045334347\nsamples = 2", shape="box"] ;
938 -> 940 ;
941 [label="mse = 0.0000\nsamples = 1\nvalue = [ 0.55256975]", shape="box"] ;
940 -> 941 ;
942 [label="mse = 0.0000\nsamples = 1\nvalue = [ 0.53613531]", shape="box"] ;
940 -> 942 ;
943 [label="X[1] <= 0.4400\nmse = 0.01160108481\nsamples = 13", shape="box"] ;
881 -> 943 ;
944 [label="X[1] <= 0.3750\nmse = 0.00238454610317\nsamples = 11", shape="box"] ;
943 -> 944 ;
945 [label="X[1] <= 0.3650\nmse = 0.000333632851923\nsamples = 4", shape="box"] ;
944 -> 945 ;
946 [label="X[0] <= 0.2750\nmse = 4.08201311581e-05\nsamples = 3", shape="box"] ;
945 -> 946 ;
947 [label="mse = 0.0000\nsamples = 1\nvalue = [ 0.60637027]", shape="box"] ;
946 -> 947 ;
948 [label="X[1] <= 0.3550\nmse = 1.0811192973e-05\nsamples = 2", shape="box"] ;
946 -> 948 ;
949 [label="mse = 0.0000\nsamples = 1\nvalue = [ 0.61075448]", shape="box"] ;
948 -> 949 ;
950 [label="mse = 0.0000\nsamples = 1\nvalue = [ 0.61540447]", shape="box"] ;
948 -> 950 ;
951 [label="mse = 0.0000\nsamples = 1\nvalue = [ 0.5910841]", shape="box"] ;
945 -> 951 ;
952 [label="X[0] <= 0.2950\nmse = 0.000915123883189\nsamples = 7", shape="box"] ;
944 -> 952 ;
953 [label="X[1] <= 0.4150\nmse = 0.000408582779225\nsamples = 6", shape="box"] ;
952 -> 953 ;
954 [label="X[1] <= 0.3950\nmse = 0.000271453372958\nsamples = 4", shape="box"] ;
953 -> 954 ;
955 [label="mse = 0.0000\nsamples = 2\nvalue = [ 0.61930518]", shape="box"] ;
954 -> 955 ;
956 [label="X[1] <= 0.4050\nmse = 4.44213154251e-05\nsamples = 2", shape="box"] ;
954 -> 956 ;
957 [label="mse = 0.0000\nsamples = 1\nvalue = [ 0.62965766]", shape="box"] ;
956 -> 957 ;
958 [label="mse = 0.0000\nsamples = 1\nvalue = [ 0.63908329]", shape="box"] ;
956 -> 958 ;
959 [label="X[1] <= 0.4250\nmse = 7.72899560919e-06\nsamples = 2", shape="box"] ;
953 -> 959 ;
960 [label="mse = 0.0000\nsamples = 1\nvalue = [ 0.61895225]", shape="box"] ;
959 -> 960 ;
961 [label="mse = 0.0000\nsamples = 1\nvalue = [ 0.61502059]", shape="box"] ;
959 -> 961 ;
962 [label="mse = 0.0000\nsamples = 1\nvalue = [ 0.64786379]", shape="box"] ;
952 -> 962 ;
963 [label="X[1] <= 0.4550\nmse = 0.000537283033426\nsamples = 2", shape="box"] ;
943 -> 963 ;
964 [label="mse = 0.0000\nsamples = 1\nvalue = [ 0.56412126]", shape="box"] ;
963 -> 964 ;
965 [label="mse = 0.0000\nsamples = 1\nvalue = [ 0.53134068]", shape="box"] ;
963 -> 965 ;
966 [label="X[0] <= 0.2200\nmse = 0.0190142443698\nsamples = 6", shape="box"] ;
880 -> 966 ;
967 [label="X[0] <= 0.1600\nmse = 0.00016805307139\nsamples = 3", shape="box"] ;
966 -> 967 ;
968 [label="mse = 0.0000\nsamples = 1\nvalue = [ 0.56572195]", shape="box"] ;
967 -> 968 ;
969 [label="X[0] <= 0.1850\nmse = 2.30242752775e-05\nsamples = 2", shape="box"] ;
967 -> 969 ;
970 [label="mse = 0.0000\nsamples = 1\nvalue = [ 0.55436556]", shape="box"] ;
969 -> 970 ;
971 [label="mse = 0.0000\nsamples = 1\nvalue = [ 0.54757965]", shape="box"] ;
969 -> 971 ;
972 [label="X[0] <= 0.2800\nmse = 0.00201878017856\nsamples = 3", shape="box"] ;
966 -> 972 ;
973 [label="X[0] <= 0.2600\nmse = 0.000454583439175\nsamples = 2", shape="box"] ;
972 -> 973 ;
974 [label="mse = 0.0000\nsamples = 1\nvalue = [ 0.48119509]", shape="box"] ;
973 -> 974 ;
975 [label="mse = 0.0000\nsamples = 1\nvalue = [ 0.45104269]", shape="box"] ;
973 -> 975 ;
976 [label="mse = 0.0000\nsamples = 1\nvalue = [ 0.41768032]", shape="box"] ;
972 -> 976 ;
977 [label="X[0] <= 0.1900\nmse = 0.082778009344\nsamples = 10", shape="box"] ;
859 -> 977 ;
978 [label="X[1] <= 0.5150\nmse = 0.000199291784715\nsamples = 3", shape="box"] ;
977 -> 978 ;
979 [label="mse = 0.0000\nsamples = 1\nvalue = [ 0.53637855]", shape="box"] ;
978 -> 979 ;
980 [label="X[1] <= 0.5250\nmse = 0.000117616592119\nsamples = 2", shape="box"] ;
978 -> 980 ;
981 [label="mse = 0.0000\nsamples = 1\nvalue = [ 0.51764134]", shape="box"] ;
980 -> 981 ;
982 [label="mse = 0.0000\nsamples = 1\nvalue = [ 0.53297865]", shape="box"] ;
980 -> 982 ;
983 [label="X[0] <= 0.2300\nmse = 0.0180541577065\nsamples = 7", shape="box"] ;
977 -> 983 ;
984 [label="X[1] <= 0.5200\nmse = 0.00335874146569\nsamples = 2", shape="box"] ;
983 -> 984 ;
985 [label="mse = 0.0000\nsamples = 1\nvalue = [ 0.45504161]", shape="box"] ;
984 -> 985 ;
986 [label="mse = 0.0000\nsamples = 1\nvalue = [ 0.37308135]", shape="box"] ;
984 -> 986 ;
987 [label="X[1] <= 0.5250\nmse = 0.00449739045\nsamples = 5", shape="box"] ;
983 -> 987 ;
988 [label="X[0] <= 0.2550\nmse = 0.00282426516681\nsamples = 3", shape="box"] ;
987 -> 988 ;
989 [label="mse = 0.0000\nsamples = 1\nvalue = [ 0.37255575]", shape="box"] ;
988 -> 989 ;
990 [label="X[1] <= 0.5150\nmse = 0.00150171885417\nsamples = 2", shape="box"] ;
988 -> 990 ;
991 [label="mse = 0.0000\nsamples = 1\nvalue = [ 0.35541747]", shape="box"] ;
990 -> 991 ;
992 [label="mse = 0.0000\nsamples = 1\nvalue = [ 0.30061385]", shape="box"] ;
990 -> 992 ;
993 [label="X[0] <= 0.2450\nmse = 0.00034820132646\nsamples = 2", shape="box"] ;
987 -> 993 ;
994 [label="mse = 0.0000\nsamples = 1\nvalue = [ 0.32282903]", shape="box"] ;
993 -> 994 ;
995 [label="mse = 0.0000\nsamples = 1\nvalue = [ 0.29643959]", shape="box"] ;
993 -> 995 ;
996 [label="X[0] <= 0.1850\nmse = 1.26562781354\nsamples = 37", shape="box"] ;
742 -> 996 ;
997 [label="X[0] <= 0.1550\nmse = 0.0834282767221\nsamples = 21", shape="box"] ;
996 -> 997 ;
998 [label="X[0] <= 0.0350\nmse = 0.0391115597489\nsamples = 17", shape="box"] ;
997 -> 998 ;
999 [label="X[0] <= 0.0250\nmse = 0.0043782870259\nsamples = 3", shape="box"] ;
998 -> 999 ;
1000 [label="mse = 0.0000\nsamples = 1\nvalue = [ 0.35770201]", shape="box"] ;
999 -> 1000 ;
1001 [label="X[1] <= 0.5550\nmse = 0.000448065747327\nsamples = 2", shape="box"] ;
999 -> 1001 ;
1002 [label="mse = 0.0000\nsamples = 1\nvalue = [ 0.41951535]", shape="box"] ;
1001 -> 1002 ;
1003 [label="mse = 0.0000\nsamples = 1\nvalue = [ 0.4494508]", shape="box"] ;
1001 -> 1003 ;
1004 [label="X[0] <= 0.1150\nmse = 0.0162237706145\nsamples = 14", shape="box"] ;
998 -> 1004 ;
1005 [label="X[0] <= 0.0450\nmse = 0.00320786332627\nsamples = 10", shape="box"] ;
1004 -> 1005 ;
1006 [label="X[1] <= 0.5600\nmse = 0.000456041624059\nsamples = 3", shape="box"] ;
1005 -> 1006 ;
1007 [label="mse = 0.0000\nsamples = 1\nvalue = [ 0.47257583]", shape="box"] ;
1006 -> 1007 ;
1008 [label="X[1] <= 0.5800\nmse = 9.15640407217e-05\nsamples = 2", shape="box"] ;
1006 -> 1008 ;
1009 [label="mse = 0.0000\nsamples = 1\nvalue = [ 0.48919156]", shape="box"] ;
1008 -> 1009 ;
1010 [label="mse = 0.0000\nsamples = 1\nvalue = [ 0.50272404]", shape="box"] ;
1008 -> 1010 ;
1011 [label="X[0] <= 0.0550\nmse = 0.000298652276636\nsamples = 7", shape="box"] ;
1005 -> 1011 ;
1012 [label="X[1] <= 0.5800\nmse = 3.03796888353e-05\nsamples = 2", shape="box"] ;
1011 -> 1012 ;
1013 [label="mse = 0.0000\nsamples = 1\nvalue = [ 0.51439064]", shape="box"] ;
1012 -> 1013 ;
1014 [label="mse = 0.0000\nsamples = 1\nvalue = [ 0.52218547]", shape="box"] ;
1012 -> 1014 ;
1015 [label="X[1] <= 0.5850\nmse = 0.000222246929101\nsamples = 5", shape="box"] ;
1011 -> 1015 ;
1016 [label="X[1] <= 0.5650\nmse = 0.000181862985793\nsamples = 4", shape="box"] ;
1015 -> 1016 ;
1017 [label="X[0] <= 0.0650\nmse = 0.000112440915174\nsamples = 3", shape="box"] ;
1016 -> 1017 ;
1018 [label="mse = 0.0000\nsamples = 1\nvalue = [ 0.51670857]", shape="box"] ;
1017 -> 1018 ;
1019 [label="X[1] <= 0.5450\nmse = 1.05988235873e-05\nsamples = 2", shape="box"] ;
1017 -> 1019 ;
1020 [label="mse = 0.0000\nsamples = 1\nvalue = [ 0.53137035]", shape="box"] ;
1019 -> 1020 ;
1021 [label="mse = 0.0000\nsamples = 1\nvalue = [ 0.52676626]", shape="box"] ;
1019 -> 1021 ;
1022 [label="mse = 0.0000\nsamples = 1\nvalue = [ 0.51532744]", shape="box"] ;
1016 -> 1022 ;
1023 [label="mse = 0.0000\nsamples = 1\nvalue = [ 0.52964808]", shape="box"] ;
1015 -> 1023 ;
1024 [label="X[1] <= 0.5650\nmse = 0.00332076950062\nsamples = 4", shape="box"] ;
1004 -> 1024 ;
1025 [label="X[1] <= 0.5550\nmse = 0.000629320435153\nsamples = 2", shape="box"] ;
1024 -> 1025 ;
1026 [label="mse = 0.0000\nsamples = 1\nvalue = [ 0.46203636]", shape="box"] ;
1025 -> 1026 ;
1027 [label="mse = 0.0000\nsamples = 1\nvalue = [ 0.49751369]", shape="box"] ;
1025 -> 1027 ;
1028 [label="X[1] <= 0.5800\nmse = 2.82828373721e-07\nsamples = 2", shape="box"] ;
1024 -> 1028 ;
1029 [label="mse = 0.0000\nsamples = 1\nvalue = [ 0.42827463]", shape="box"] ;
1028 -> 1029 ;
1030 [label="mse = 0.0000\nsamples = 1\nvalue = [ 0.42752252]", shape="box"] ;
1028 -> 1030 ;
1031 [label="X[1] <= 0.5600\nmse = 0.00935076248457\nsamples = 4", shape="box"] ;
997 -> 1031 ;
1032 [label="X[0] <= 0.1700\nmse = 0.00123656296691\nsamples = 2", shape="box"] ;
1031 -> 1032 ;
1033 [label="mse = 0.0000\nsamples = 1\nvalue = [ 0.43984991]", shape="box"] ;
1032 -> 1033 ;
1034 [label="mse = 0.0000\nsamples = 1\nvalue = [ 0.39011938]", shape="box"] ;
1032 -> 1034 ;
1035 [label="X[0] <= 0.1700\nmse = 0.00211453279938\nsamples = 2", shape="box"] ;
1031 -> 1035 ;
1036 [label="mse = 0.0000\nsamples = 1\nvalue = [ 0.37004276]", shape="box"] ;
1035 -> 1036 ;
1037 [label="mse = 0.0000\nsamples = 1\nvalue = [ 0.3050115]", shape="box"] ;
1035 -> 1037 ;
1038 [label="X[0] <= 0.2550\nmse = 0.409661079055\nsamples = 16", shape="box"] ;
996 -> 1038 ;
1039 [label="X[1] <= 0.5550\nmse = 0.103044347069\nsamples = 11", shape="box"] ;
1038 -> 1039 ;
1040 [label="X[0] <= 0.2250\nmse = 0.0104010991121\nsamples = 5", shape="box"] ;
1039 -> 1040 ;
1041 [label="X[0] <= 0.2150\nmse = 0.00164927388701\nsamples = 4", shape="box"] ;
1040 -> 1041 ;
1042 [label="X[1] <= 0.5450\nmse = 0.000990563069224\nsamples = 3", shape="box"] ;
1041 -> 1042 ;
1043 [label="X[0] <= 0.2050\nmse = 0.000338138838154\nsamples = 2", shape="box"] ;
1042 -> 1043 ;
1044 [label="mse = 0.0000\nsamples = 1\nvalue = [ 0.37889221]", shape="box"] ;
1043 -> 1044 ;
1045 [label="mse = 0.0000\nsamples = 1\nvalue = [ 0.35288687]", shape="box"] ;
1043 -> 1045 ;
1046 [label="mse = 0.0000\nsamples = 1\nvalue = [ 0.33460637]", shape="box"] ;
1042 -> 1046 ;
1047 [label="mse = 0.0000\nsamples = 1\nvalue = [ 0.32582601]", shape="box"] ;
1041 -> 1047 ;
1048 [label="mse = 0.0000\nsamples = 1\nvalue = [ 0.24345945]", shape="box"] ;
1040 -> 1048 ;
1049 [label="X[0] <= 0.2150\nmse = 0.0360833762541\nsamples = 6", shape="box"] ;
1039 -> 1049 ;
1050 [label="X[1] <= 0.5850\nmse = 0.00647979567949\nsamples = 4", shape="box"] ;
1049 -> 1050 ;
1051 [label="X[1] <= 0.5750\nmse = 0.00136161999856\nsamples = 3", shape="box"] ;
1050 -> 1051 ;
1052 [label="X[1] <= 0.5650\nmse = 0.000142409593388\nsamples = 2", shape="box"] ;
1051 -> 1052 ;
1053 [label="mse = 0.0000\nsamples = 1\nvalue = [ 0.25370774]", shape="box"] ;
1052 -> 1053 ;
1054 [label="mse = 0.0000\nsamples = 1\nvalue = [ 0.27058433]", shape="box"] ;
1052 -> 1054 ;
1055 [label="mse = 0.0000\nsamples = 1\nvalue = [ 0.21938138]", shape="box"] ;
1051 -> 1055 ;
1056 [label="mse = 0.0000\nsamples = 1\nvalue = [ 0.16528222]", shape="box"] ;
1050 -> 1056 ;
1057 [label="X[1] <= 0.5750\nmse = 0.00625121789331\nsamples = 2", shape="box"] ;
1049 -> 1057 ;
1058 [label="mse = 0.0000\nsamples = 1\nvalue = [ 0.15080457]", shape="box"] ;
1057 -> 1058 ;
1059 [label="mse = 0.0000\nsamples = 1\nvalue = [ 0.03899027]", shape="box"] ;
1057 -> 1059 ;
1060 [label="X[1] <= 0.5550\nmse = 0.0820348081408\nsamples = 5", shape="box"] ;
1038 -> 1060 ;
1061 [label="X[1] <= 0.5450\nmse = 0.000610203876768\nsamples = 2", shape="box"] ;
1060 -> 1061 ;
1062 [label="mse = 0.0000\nsamples = 1\nvalue = [ 0.14783797]", shape="box"] ;
1061 -> 1062 ;
1063 [label="mse = 0.0000\nsamples = 1\nvalue = [ 0.11290363]", shape="box"] ;
1061 -> 1063 ;
1064 [label="X[1] <= 0.5800\nmse = 0.0185044767399\nsamples = 3", shape="box"] ;
1060 -> 1064 ;
1065 [label="X[1] <= 0.5650\nmse = 0.000668919150818\nsamples = 2", shape="box"] ;
1064 -> 1065 ;
1066 [label="mse = 0.0000\nsamples = 1\nvalue = [-0.06237944]", shape="box"] ;
1065 -> 1066 ;
1067 [label="mse = 0.0000\nsamples = 1\nvalue = [-0.02580296]", shape="box"] ;
1065 -> 1067 ;
1068 [label="mse = 0.0000\nsamples = 1\nvalue = [-0.20765567]", shape="box"] ;
1064 -> 1068 ;
1069 [label="X[1] <= 0.4000\nmse = 0.261757494751\nsamples = 13", shape="box"] ;
735 -> 1069 ;
1070 [label="X[1] <= 0.3400\nmse = 0.00207935114754\nsamples = 2", shape="box"] ;
1069 -> 1070 ;
1071 [label="mse = 0.0000\nsamples = 1\nvalue = [ 0.57603393]", shape="box"] ;
1070 -> 1071 ;
1072 [label="mse = 0.0000\nsamples = 1\nvalue = [ 0.64052194]", shape="box"] ;
1070 -> 1072 ;
1073 [label="mse = 0.0000\nsamples = 11\nvalue = [ 1.]", shape="box"] ;
1069 -> 1073 ;
1074 [label="X[0] <= 0.1450\nmse = 12.3590348353\nsamples = 83", shape="box"] ;
544 -> 1074 ;
1075 [label="X[0] <= 0.1050\nmse = 1.28554482877\nsamples = 32", shape="box"] ;
1074 -> 1075 ;
1076 [label="X[0] <= 0.0050\nmse = 0.389822035238\nsamples = 24", shape="box"] ;
1075 -> 1076 ;
1077 [label="mse = 0.0000\nsamples = 1\nvalue = [ 0.]", shape="box"] ;
1076 -> 1077 ;
1078 [label="X[0] <= 0.0750\nmse = 0.250665239613\nsamples = 23", shape="box"] ;
1076 -> 1078 ;
